{"learner":{"attributes":{"best_iteration":"1","best_score":"0.5406037086852027","scikit_learn":"{\"_estimator_type\": \"classifier\"}"},"feature_names":[],"feature_types":[],"gradient_booster":{"model":{"cats":{"enc":[],"feature_segments":[],"sorted_idx":[]},"gbtree_model_param":{"num_parallel_tree":"1","num_trees":"42"},"iteration_indptr":[0,1,2,3,4,5,6,7,8,9,10,11,12,13,14,15,16,17,18,19,20,21,22,23,24,25,26,27,28,29,30,31,32,33,34,35,36,37,38,39,40,41,42],"tree_info":[0,0,0,0,0,0,0,0,0,0,0,0,0,0,0,0,0,0,0,0,0,0,0,0,0,0,0,0,0,0,0,0,0,0,0,0,0,0,0,0,0,0],"trees":[{"base_weights":[-4.7810674E-3,-8.3097464E-1,9.8557435E-2,2.0536748E-3,-9.7778827E-1,1.6492519E-1,-2.0196015E-1,-1.15295E0,-3.0740678E-1,4.769885E-2,4.2736143E-1,1.6213572E-1,-5.2534056E-1,-4.2144147E-1,-4.579283E-2,-3.3099826E-2,1.3771428E-2,-3.9641995E-2,6.136147E-1,2.5754085E-1,9.013665E-1,7.362013E-1,-1.3743706E-1,-7.250311E-1,2.604896E-2,-2.9045567E-2,1.4976288E-2,1.0372541E-2,-4.709519E-3,-1.3182059E-2,2.4667168E-2,3.6227588E-2,4.429665E-3,2.1165428E-3,3.6773283E-2,-4.676398E-3,3.471443E-2,-3.752905E-2,4.448141E-3,-1.4258931E-2,-4.5276884E-2],"categories":[],"categories_nodes":[],"categories_segments":[],"categories_sizes":[],"default_left":[0,0,0,0,0,0,0,0,0,0,0,0,0,0,0,0,0,0,0,0,0,0,0,0,0,0,0,0,0,0,0,0,0,0,0,0,0,0,0,0,0],"id":0,"left_children":[1,3,5,-1,7,9,11,13,15,17,19,21,23,25,-1,-1,-1,27,29,31,33,35,37,39,-1,-1,-1,-1,-1,-1,-1,-1,-1,-1,-1,-1,-1,-1,-1,-1,-1],"loss_changes":[3.2517E1,5.750517E0,6.7647424E0,0E0,3.793869E0,8.467006E0,7.3347635E0,6.9517174E0,6.0964923E0,9.628987E0,6.5159054E0,5.2233553E0,9.75093E0,6.1221004E0,0E0,0E0,0E0,7.6381593E0,6.119937E0,6.402424E0,5.696268E0,4.172968E0,6.681173E0,4.8264065E0,0E0,0E0,0E0,0E0,0E0,0E0,0E0,0E0,0E0,0E0,0E0,0E0,0E0,0E0,0E0,0E0,0E0],"parents":[2147483647,0,0,1,1,2,2,4,4,5,5,6,6,7,7,8,8,9,9,10,10,11,11,12,12,13,13,17,17,18,18,19,19,20,20,21,21,22,22,23,23],"right_children":[2,4,6,-1,8,10,12,14,16,18,20,22,24,26,-1,-1,-1,28,30,32,34,36,38,40,-1,-1,-1,-1,-1,-1,-1,-1,-1,-1,-1,-1,-1,-1,-1,-1,-1],"split_conditions":[1.33E0,-5.4426E0,4.6667E0,2.0536748E-3,2.535E1,3.2621E0,1E0,6E0,5.5778E0,2.1E1,7.777E-1,-1.07E-2,3.721E-1,4.4758E0,-4.579283E-2,-3.3099826E-2,1.3771428E-2,1.379E-1,-3.32E-2,-1.4114E0,3.0528E0,2E0,-5.6278E0,1.842E-1,2.604896E-2,-2.9045567E-2,1.4976288E-2,1.0372541E-2,-4.709519E-3,-1.3182059E-2,2.4667168E-2,3.6227588E-2,4.429665E-3,2.1165428E-3,3.6773283E-2,-4.676398E-3,3.471443E-2,-3.752905E-2,4.448141E-3,-1.4258931E-2,-4.5276884E-2],"split_indices":[20,57,28,0,36,28,18,8,44,9,38,32,1,7,0,0,0,3,32,38,42,9,44,1,0,0,0,0,0,0,0,0,0,0,0,0,0,0,0,0,0],"split_type":[0,0,0,0,0,0,0,0,0,0,0,0,0,0,0,0,0,0,0,0,0,0,0,0,0,0,0,0,0,0,0,0,0,0,0,0,0,0,0,0,0],"sum_hessian":[3.7804388E2,4.1352905E1,3.3669098E2,5.7821383E0,3.5570766E1,2.7642737E2,6.0263596E1,2.751298E1,8.057787E0,1.9215668E2,8.4270706E1,2.843634E1,3.1827255E1,1.0109085E1,1.7403894E1,3.801298E0,4.2564898E0,1.6711774E2,2.5038937E1,6.3334362E1,2.093634E1,9.365575E0,1.9070766E1,2.8320766E1,3.5064895E0,6.378245E0,3.7308407E0,3.8353214E1,1.2876453E2,3.8782449E0,2.1160692E1,5.4360323E0,5.789833E1,6.3077874E0,1.4628553E1,3.1282449E0,6.23733E0,3.275649E0,1.5795117E1,2.2795118E1,5.525649E0],"tree_param":{"num_deleted":"0","num_feature":"58","num_nodes":"41","size_leaf_vector":"1"}},{"base_weights":[-6.6917064E-3,-4.6262628E-1,1.107932E-1,-5.963329E-1,2.637858E-1,-1.1636655E-1,2.3698525E-1,6.7854906E-3,-6.81365E-1,-2.4011025E-2,7.8450924E-1,-3.7783924E-1,3.830952E-1,9.031617E-2,5.8531606E-1,-9.4715714E-1,-2.657684E-1,3.4176815E-2,2.069543E-3,4.152297E-1,-5.131557E-1,-7.53739E-2,8.108877E-1,1.6870525E-1,-6.926516E-1,4.392285E-1,1.1997387E0,-5.997455E-4,-3.5387654E-2,1.1094454E-2,-2.181281E-2,3.4543782E-2,-2.4532257E-2,-7.4005886E-3,-2.8979369E-2,1.0469472E-2,-2.93162E-2,-2.0354683E-2,3.4131173E-2,2.075769E-3,2.1145212E-2,1.22705065E-2,-3.4962226E-2,2.5174795E-3,2.138255E-2,1.4769129E-2,4.5457836E-2],"categories":[],"categories_nodes":[],"categories_segments":[],"categories_sizes":[],"default_left":[0,0,0,0,0,0,0,0,0,0,0,0,0,0,0,0,0,0,0,0,0,0,0,0,0,0,0,0,0,0,0,0,0,0,0,0,0,0,0,0,0,0,0,0,0,0,0],"id":1,"left_children":[1,3,5,7,9,11,13,-1,15,-1,17,19,21,23,25,27,29,-1,-1,31,33,35,37,39,41,43,45,-1,-1,-1,-1,-1,-1,-1,-1,-1,-1,-1,-1,-1,-1,-1,-1,-1,-1,-1,-1],"loss_changes":[2.0232843E1,7.7106876E0,8.630245E0,4.802637E0,7.6156015E0,1.4171841E1,9.753573E0,0E0,6.255434E0,0E0,2.0942822E0,7.8570995E0,7.4452696E0,8.49679E0,4.414791E0,7.6280518E0,7.618397E0,0E0,0E0,1.0791168E1,7.040079E0,7.5963545E0,1.0299905E1,6.5858154E0,7.1057634E0,4.4928083E0,1.3339157E0,0E0,0E0,0E0,0E0,0E0,0E0,0E0,0E0,0E0,0E0,0E0,0E0,0E0,0E0,0E0,0E0,0E0,0E0,0E0,0E0],"parents":[2147483647,0,0,1,1,2,2,3,3,4,4,5,5,6,6,8,8,10,10,11,11,12,12,13,13,14,14,15,15,16,16,19,19,20,20,21,21,22,22,23,23,24,24,25,25,26,26],"right_children":[2,4,6,8,10,12,14,-1,16,-1,18,20,22,24,26,28,30,-1,-1,32,34,36,38,40,42,44,46,-1,-1,-1,-1,-1,-1,-1,-1,-1,-1,-1,-1,-1,-1,-1,-1,-1,-1,-1,-1],"split_conditions":[1.67E0,1.0595E0,3.385E-1,1.05E0,1.18E0,3.055E1,5.9574E0,6.7854906E-3,6.4348E0,-2.4011025E-2,6.2462E0,1.76E1,5E-1,5.6327E0,8.485E-1,5.21E-1,6.489E-1,3.4176815E-2,2.069543E-3,2.889E-1,1.703E-1,2.794E-1,1.921E1,3.478E-1,-4.4788E0,3.704E-1,4.2E-3,-5.997455E-4,-3.5387654E-2,1.1094454E-2,-2.181281E-2,3.4543782E-2,-2.4532257E-2,-7.4005886E-3,-2.8979369E-2,1.0469472E-2,-2.93162E-2,-2.0354683E-2,3.4131173E-2,2.075769E-3,2.1145212E-2,1.22705065E-2,-3.4962226E-2,2.5174795E-3,2.138255E-2,1.4769129E-2,4.5457836E-2],"split_indices":[20,23,33,20,20,48,7,0,27,0,7,48,3,7,0,21,0,0,0,33,25,3,36,1,44,3,32,0,0,0,0,0,0,0,0,0,0,0,0,0,0,0,0,0,0,0,0],"split_type":[0,0,0,0,0,0,0,0,0,0,0,0,0,0,0,0,0,0,0,0,0,0,0,0,0,0,0,0,0,0,0,0,0,0,0,0,0,0,0,0,0,0,0,0,0,0,0],"sum_hessian":[3.751083E2,7.642647E1,2.9868185E2,6.481337E1,1.16131E1,1.06412636E2,1.9226921E2,5.8069277E0,5.900644E1,3.5760314E0,8.037069E0,7.013832E1,3.6274315E1,1.3638777E2,5.5881428E1,3.506268E1,2.394376E1,4.8839564E0,3.1531126E0,9.813766E0,6.032456E1,1.779418E1,1.8480135E1,1.2480483E2,1.1582946E1,4.666403E1,9.217402E0,7.331934E0,2.7730745E1,1.0062251E1,1.3881509E1,6.236847E0,3.5769188E0,3.9088226E1,2.1236332E1,1.2441834E1,5.3523455E0,3.0767462E0,1.5403389E1,1.0637582E2,1.8429016E1,3.4550054E0,8.12794E0,2.102478E1,2.5639246E1,3.7304845E0,5.486918E0],"tree_param":{"num_deleted":"0","num_feature":"58","num_nodes":"47","size_leaf_vector":"1"}},{"base_weights":[-9.987115E-3,1.3488236E-1,-4.00534E-1,4.0183356E-1,2.1233711E-2,-3.206481E-1,-4.135321E-2,5.2500916E-1,-1.5629527E-1,-2.9454973E-1,2.1408002E-1,-4.605573E-1,4.8409572E-1,4.325511E-1,4.3071676E-2,-5.6275094E-1,2.3111377E-2,3.875595E-1,-4.6352664E-1,7.547739E-2,1.0125866E0,-5.4141617E-1,2.196529E-2,-1.2750662E-2,8.638225E-1,2.6066154E-2,7.0387777E-3,4.2797625E-3,-3.4779042E-2,2.591132E-2,-1.2569795E-2,2.3401324E-2,-1.7089194E-2,9.6954135E-3,-4.98413E-3,3.996104E-3,4.3499105E-2,-1.0186006E-2,-2.7680423E-2,-3.193516E-3,4.19621E-2],"categories":[],"categories_nodes":[],"categories_segments":[],"categories_sizes":[],"default_left":[0,0,0,0,0,0,0,0,0,0,0,0,0,0,0,0,0,0,0,0,0,0,0,0,0,0,0,0,0,0,0,0,0,0,0,0,0,0,0,0,0],"id":2,"left_children":[1,3,5,7,9,11,-1,13,15,17,19,21,23,25,-1,27,-1,29,31,33,35,37,-1,-1,39,-1,-1,-1,-1,-1,-1,-1,-1,-1,-1,-1,-1,-1,-1,-1,-1],"loss_changes":[2.1296227E1,8.264387E0,7.3484516E0,5.7234535E0,1.1842204E1,1.0984311E1,0E0,4.8472366E0,6.1991477E0,8.671734E0,1.3200486E1,8.291397E0,5.4306993E0,5.08333E0,0E0,5.03555E0,0E0,6.1831512E0,8.284007E0,6.3083253E0,6.4569187E0,5.525955E0,0E0,0E0,5.812861E0,0E0,0E0,0E0,0E0,0E0,0E0,0E0,0E0,0E0,0E0,0E0,0E0,0E0,0E0,0E0,0E0],"parents":[2147483647,0,0,1,1,2,2,3,3,4,4,5,5,7,7,8,8,9,9,10,10,11,11,12,12,13,13,15,15,17,17,18,18,19,19,20,20,21,21,24,24],"right_children":[2,4,6,8,10,12,-1,14,16,18,20,22,24,26,-1,28,-1,30,32,34,36,38,-1,-1,40,-1,-1,-1,-1,-1,-1,-1,-1,-1,-1,-1,-1,-1,-1,-1,-1],"split_conditions":[4.6667E0,2.76E0,1E0,1.4E1,3.469E-1,1.0538E0,-4.135321E-2,3.811E1,7.4081E0,2.143E-1,1.7E1,7.353E-1,-3.571E-1,3E0,4.3071676E-2,4.1E-3,2.3111377E-2,3.152E-1,-2.606E-1,-2.7E-3,7.456E-1,-6E-3,2.196529E-2,-1.2750662E-2,1.29E0,2.6066154E-2,7.0387777E-3,4.2797625E-3,-3.4779042E-2,2.591132E-2,-1.2569795E-2,2.3401324E-2,-1.7089194E-2,9.6954135E-3,-4.98413E-3,3.996104E-3,4.3499105E-2,-1.0186006E-2,-2.7680423E-2,-3.193516E-3,4.19621E-2],"split_indices":[28,20,30,9,33,23,0,48,7,33,9,33,25,31,0,25,0,23,41,32,21,41,0,0,20,0,0,0,0,0,0,0,0,0,0,0,0,0,0,0,0],"split_type":[0,0,0,0,0,0,0,0,0,0,0,0,0,0,0,0,0,0,0,0,0,0,0,0,0,0,0,0,0,0,0,0,0,0,0,0,0,0,0,0,0],"sum_hessian":[3.7397818E2,2.7308032E2,1.0089784E2,8.052296E1,1.9255737E2,9.4600044E1,6.297798E0,6.61603E1,1.4362662E1,7.261131E1,1.1994606E2,8.105938E1,1.3540666E1,6.1501286E1,4.6590137E0,1.0331652E1,4.0310106E0,1.4042117E1,5.8569195E1,1.0324485E2,1.6701208E1,7.650294E1,4.556444E0,3.8766954E0,9.66397E0,1.797679E1,4.3524494E1,5.005717E0,5.325935E0,8.862957E0,5.17916E0,4.031337E0,5.453786E1,5.1017822E1,5.222703E1,6.0568223E0,1.0644385E1,5.1425537E1,2.5077402E1,3.6526072E0,6.011363E0],"tree_param":{"num_deleted":"0","num_feature":"58","num_nodes":"41","size_leaf_vector":"1"}},{"base_weights":[-2.2606183E-2,1.0997026E-1,-4.504691E-1,3.7586606E-1,-2.106421E-2,-5.544388E-1,2.5369844E-1,2.6692164E-1,1.1561157E0,-3.4052077E-1,1.6314457E-1,-7.450717E-1,-1.7729697E-1,-1.143131E-2,2.3973836E-2,3.4189698E-1,-2.5255434E-2,4.3553837E-2,8.448506E-3,7.858682E-2,-5.448346E-1,5.369454E-2,7.9004455E-1,-8.5586E-1,1.5392337E-2,-6.3126564E-1,4.5354304E-1,1.9066857E-2,1.7308409E-3,-2.0286983E-2,1.19003225E-2,-2.306467E-2,5.508984E-3,3.1078927E-2,-2.4767139E-4,-1.5547845E-2,3.385138E-2,-5.4245145E-4,-2.9382965E-2,6.454115E-4,-2.8892487E-2,2.3979068E-2,-5.9806295E-3],"categories":[],"categories_nodes":[],"categories_segments":[],"categories_sizes":[],"default_left":[0,0,0,0,0,0,0,0,0,0,0,0,0,0,0,0,0,0,0,0,0,0,0,0,0,0,0,0,0,0,0,0,0,0,0,0,0,0,0,0,0,0,0],"id":3,"left_children":[1,3,5,7,9,11,13,15,17,19,21,23,25,-1,-1,27,-1,-1,-1,29,31,33,35,37,-1,39,41,-1,-1,-1,-1,-1,-1,-1,-1,-1,-1,-1,-1,-1,-1,-1,-1],"loss_changes":[2.1461977E1,1.0090015E1,6.7253265E0,7.6665983E0,1.1481096E1,5.415756E0,4.5286746E0,7.321211E0,2.3364344E0,6.2053366E0,8.342501E0,7.6686954E0,8.273437E0,0E0,0E0,6.621477E0,0E0,0E0,0E0,6.0317464E0,8.081005E0,6.579587E0,8.674628E0,4.840481E0,0E0,3.7305784E0,2.9587674E0,0E0,0E0,0E0,0E0,0E0,0E0,0E0,0E0,0E0,0E0,0E0,0E0,0E0,0E0,0E0,0E0],"parents":[2147483647,0,0,1,1,2,2,3,3,4,4,5,5,6,6,7,7,8,8,9,9,10,10,11,11,12,12,15,15,19,19,20,20,21,21,22,22,23,23,25,25,26,26],"right_children":[2,4,6,8,10,12,14,16,18,20,22,24,26,-1,-1,28,-1,-1,-1,30,32,34,36,38,-1,40,42,-1,-1,-1,-1,-1,-1,-1,-1,-1,-1,-1,-1,-1,-1,-1,-1],"split_conditions":[4.9412E0,2.76E0,1.0595E0,1.825E1,3.396E-1,6.338E-1,1.31E0,7.5336E0,2.055E-1,2.33E-1,1.6E1,4.6755E0,1.41E0,-1.143131E-2,2.3973836E-2,4.062E-1,-2.5255434E-2,4.3553837E-2,8.448506E-3,5.526E-1,3.042E1,2.692E-1,1.8E1,5.75E0,1.5392337E-2,1.13E0,1.025E1,1.9066857E-2,1.7308409E-3,-2.0286983E-2,1.19003225E-2,-2.306467E-2,5.508984E-3,3.1078927E-2,-2.4767139E-4,-1.5547845E-2,3.385138E-2,-5.4245145E-4,-2.9382965E-2,6.454115E-4,-2.8892487E-2,2.3979068E-2,-5.9806295E-3],"split_indices":[28,20,23,8,33,38,20,7,2,33,9,42,20,0,0,33,0,0,0,0,36,0,8,8,0,20,8,0,0,0,0,0,0,0,0,0,0,0,0,0,0,0,0],"split_type":[0,0,0,0,0,0,0,0,0,0,0,0,0,0,0,0,0,0,0,0,0,0,0,0,0,0,0,0,0,0,0,0,0,0,0,0,0,0,0,0,0,0,0],"sum_hessian":[3.7588074E2,2.8735193E2,8.8528824E1,9.449562E1,1.928563E2,7.7448296E1,1.1080527E1,8.420811E1,1.028752E1,7.0422775E1,1.2243352E2,5.0620537E1,2.682776E1,5.175545E0,5.904982E0,7.9606895E1,4.6012096E0,7.1092854E0,3.1782348E0,2.3120914E1,4.730186E1,1.0529526E2,1.7138262E1,4.689073E1,3.7298048E0,1.569272E1,1.113504E1,3.837058E1,4.1236313E1,6.427755E0,1.669316E1,3.6240562E1,1.1061298E1,5.4098306E0,9.988542E1,3.3513963E0,1.3786865E1,6.278714E0,4.061202E1,5.502171E0,1.0190549E1,7.2333508E0,3.90169E0],"tree_param":{"num_deleted":"0","num_feature":"58","num_nodes":"43","size_leaf_vector":"1"}},{"base_weights":[-2.5493337E-2,-4.8162305E-1,9.4812326E-2,-6.174543E-1,2.9337126E-1,2.5639907E-2,5.071313E-1,-6.859288E-1,1.6672302E-2,2.6441997E-2,-8.162331E-3,-1.1856717E-1,2.6591483E-1,8.3607835E-1,-2.1740101E-1,-4.2780724E-1,-9.682864E-1,-4.1424155E-1,7.3063634E-2,3.4465697E-2,5.5676967E-1,1.1897175E0,2.756841E-1,2.091999E-2,-7.4110126E-1,8.595653E-3,-1.6936628E-2,-3.8649894E-2,-1.7372388E-2,-5.6545046E-4,-1.9179184E-2,-1.172272E-3,2.4004225E-2,1.761615E-2,-5.0019156E-3,2.2635061E-2,-1.1507403E-2,4.4863507E-2,1.1420612E-2,2.7788175E-2,-1.0435248E-2,-6.090781E-4,-3.6893953E-2],"categories":[],"categories_nodes":[],"categories_segments":[],"categories_sizes":[],"default_left":[0,0,0,0,0,0,0,0,0,0,0,0,0,0,0,0,0,0,0,0,0,0,0,0,0,0,0,0,0,0,0,0,0,0,0,0,0,0,0,0,0,0,0],"id":4,"left_children":[1,3,5,7,9,11,13,15,-1,-1,-1,17,19,21,23,25,27,29,31,33,35,37,39,-1,41,-1,-1,-1,-1,-1,-1,-1,-1,-1,-1,-1,-1,-1,-1,-1,-1,-1,-1],"loss_changes":[2.0771551E1,8.531618E0,8.460679E0,5.8300877E0,4.4077854E0,8.9608555E0,1.0418052E1,4.1443233E0,0E0,0E0,0E0,9.198823E0,6.455997E0,5.4036922E0,7.2415123E0,3.672226E0,2.7803478E0,5.595354E0,8.135383E0,6.290991E0,8.276377E0,3.6395302E0,5.6077614E0,0E0,3.187756E0,0E0,0E0,0E0,0E0,0E0,0E0,0E0,0E0,0E0,0E0,0E0,0E0,0E0,0E0,0E0,0E0,0E0,0E0],"parents":[2147483647,0,0,1,1,2,2,3,3,4,4,5,5,6,6,7,7,11,11,12,12,13,13,14,14,15,15,16,16,17,17,18,18,19,19,20,20,21,21,22,22,24,24],"right_children":[2,4,6,8,10,12,14,16,-1,-1,-1,18,20,22,24,26,28,30,32,34,36,38,40,-1,42,-1,-1,-1,-1,-1,-1,-1,-1,-1,-1,-1,-1,-1,-1,-1,-1,-1,-1],"split_conditions":[1.67E0,1.0595E0,1.398E-1,7.353E-1,1.026E-1,3.2621E0,8E0,7.368E-1,1.6672302E-2,2.6441997E-2,-8.162331E-3,3.6E-1,4.0761E0,-2E-4,1.706E-1,-1.7219E0,6E0,2.439E-1,1.9E1,4.76E-2,8.4595E0,5.297E-1,5.352E-1,2.091999E-2,1.985E1,8.595653E-3,-1.6936628E-2,-3.8649894E-2,-1.7372388E-2,-5.6545046E-4,-1.9179184E-2,-1.172272E-3,2.4004225E-2,1.761615E-2,-5.0019156E-3,2.2635061E-2,-1.1507403E-2,4.4863507E-2,1.1420612E-2,2.7788175E-2,-1.0435248E-2,-6.090781E-4,-3.6893953E-2],"split_indices":[20,23,41,33,2,28,9,0,0,0,0,33,42,32,41,57,9,33,9,2,6,23,37,0,36,0,0,0,0,0,0,0,0,0,0,0,0,0,0,0,0,0,0],"split_type":[0,0,0,0,0,0,0,0,0,0,0,0,0,0,0,0,0,0,0,0,0,0,0,0,0,0,0,0,0,0,0,0,0,0,0,0,0,0,0,0,0,0,0],"sum_hessian":[3.759879E2,7.801769E1,2.979702E2,6.666569E1,1.1352006E1,2.5628024E2,4.1689972E1,6.3462234E1,3.203449E0,5.377676E0,5.97433E0,1.6021407E2,9.606618E1,2.8661392E1,1.302858E1,3.465297E1,2.8809263E1,6.2751926E1,9.7462135E1,5.4310585E1,4.1755596E1,1.6774393E1,1.1886998E1,4.553171E0,8.475408E0,5.2744007E0,2.937857E1,1.4400614E1,1.440865E1,2.3316896E1,3.943503E1,8.513952E1,1.2322613E1,1.4114038E1,4.0196545E1,3.475207E1,7.0035233E0,1.1468423E1,5.3059707E0,5.6581287E0,6.2288694E0,3.928007E0,4.547401E0],"tree_param":{"num_deleted":"0","num_feature":"58","num_nodes":"43","size_leaf_vector":"1"}},{"base_weights":[1.8851945E-2,-5.792201E-1,9.6991375E-2,-8.1407465E-2,-8.594349E-1,4.6331815E-2,5.264242E-1,1.9646527E-2,-4.284285E-1,-0E0,-1.0252116E0,1.1817165E-1,-2.2148387E-1,-1.3893682E-1,8.994286E-1,5.9845913E-3,-2.9388934E-2,-1.206662E0,-7.83395E-3,2.4071991E-1,-1.9994067E-1,2.4401808E-1,-4.8624152E-1,-8.861788E-1,2.2712901E-2,1.075812E0,-4.3103327E-3,-1.0595551E-2,-4.705285E-2,8.402289E-3,-1.3237008E-2,1.105362E-2,-1.4238103E-2,-3.894934E-3,3.7159283E-2,-2.7917136E-2,-3.4892177E-3,-4.503093E-3,-3.9477892E-2,4.5946732E-2,1.8451232E-2],"categories":[],"categories_nodes":[],"categories_segments":[],"categories_sizes":[],"default_left":[0,0,0,0,0,0,0,0,0,0,0,0,0,0,0,0,0,0,0,0,0,0,0,0,0,0,0,0,0,0,0,0,0,0,0,0,0,0,0,0,0],"id":5,"left_children":[1,3,5,7,9,11,13,-1,15,-1,17,19,21,23,25,-1,-1,27,-1,29,31,33,35,37,-1,39,-1,-1,-1,-1,-1,-1,-1,-1,-1,-1,-1,-1,-1,-1,-1],"loss_changes":[1.7896868E1,6.0056067E0,7.305441E0,4.6431174E0,4.0902176E0,5.8846664E0,9.017901E0,0E0,4.551917E0,0E0,2.8121567E0,9.465477E0,8.10092E0,9.743946E0,4.4784164E0,0E0,0E0,5.028055E0,0E0,4.8041487E0,1.0718821E1,9.173257E0,6.6301785E0,2.1548653E0,0E0,3.0155888E0,0E0,0E0,0E0,0E0,0E0,0E0,0E0,0E0,0E0,0E0,0E0,0E0,0E0,0E0,0E0],"parents":[2147483647,0,0,1,1,2,2,3,3,4,4,5,5,6,6,8,8,10,10,11,11,12,12,13,13,14,14,17,17,19,19,20,20,21,21,22,22,23,23,25,25],"right_children":[2,4,6,8,10,12,14,-1,16,-1,18,20,22,24,26,-1,-1,28,-1,30,32,34,36,38,-1,40,-1,-1,-1,-1,-1,-1,-1,-1,-1,-1,-1,-1,-1,-1,-1],"split_conditions":[1.33E0,5.5047E0,3.793E-1,5.61E-1,-5.4426E0,2.174E-1,5.053E-1,1.9646527E-2,1.12E0,-0E0,5.465E-1,6.1479E0,-1.2E-2,1.6042E0,3.2404E0,5.9845913E-3,-2.9388934E-2,2.833E-1,-7.83395E-3,1.6667E0,6.774E-1,-1.7E-2,-1.41E-1,-1.17E-1,2.2712901E-2,-4.628E-1,-4.3103327E-3,-1.0595551E-2,-4.705285E-2,8.402289E-3,-1.3237008E-2,1.105362E-2,-1.4238103E-2,-3.894934E-3,3.7159283E-2,-2.7917136E-2,-3.4892177E-3,-4.503093E-3,-3.9477892E-2,4.5946732E-2,1.8451232E-2],"split_indices":[20,7,2,21,57,2,37,0,20,0,37,44,32,27,5,0,0,33,0,22,0,32,25,25,0,17,0,0,0,0,0,0,0,0,0,0,0,0,0,0,0],"split_type":[0,0,0,0,0,0,0,0,0,0,0,0,0,0,0,0,0,0,0,0,0,0,0,0,0,0,0,0,0,0,0,0,0,0,0,0,0,0,0,0,0],"sum_hessian":[3.8178958E2,4.3228695E1,3.385609E2,1.6162594E1,2.7066103E1,3.040351E2,3.4525818E1,4.800919E0,1.1361675E1,4.451214E0,2.261489E1,2.4046425E2,6.357084E1,1.253157E1,2.1994247E1,5.524727E0,5.8369484E0,1.7701176E1,4.9137125E0,1.739934E2,6.647085E1,2.2939247E1,4.063159E1,6.8999763E0,5.6315937E0,1.8868248E1,3.126E0,5.940078E0,1.1761098E1,1.651957E2,8.797705E0,2.1425915E1,4.5044933E1,1.7231411E1,5.7078366E0,1.7648308E1,2.2983284E1,3.1266446E0,3.7733316E0,8.208418E0,1.065983E1],"tree_param":{"num_deleted":"0","num_feature":"58","num_nodes":"41","size_leaf_vector":"1"}},{"base_weights":[-8.7752E-3,-6.302775E-1,6.682565E-2,-8.525775E-1,-5.5679856E-3,1.01831906E-1,-5.8497506E-1,-2.5713545E-1,-4.025718E-2,2.2875326E-2,-4.6174097E-1,4.2071378E-1,3.8594384E-2,-9.709106E-1,6.8249363E-3,1.2334085E-2,-7.368889E-1,1.0659127E-2,-3.1988516E-2,1.759842E-2,7.0445764E-1,-1.9008952E-1,1.6198315E-1,-1.2456251E0,-3.647056E-3,-3.3121075E-2,-5.09486E-3,1.4651888E-2,-2.5355889E-2,2.6992518E-2,-4.6606013E-3,-1.1594413E-2,9.933456E-3,1.403725E-5,1.940669E-2,-1.24656325E-2,-4.810536E-2],"categories":[],"categories_nodes":[],"categories_segments":[],"categories_sizes":[],"default_left":[0,0,0,0,0,0,0,0,0,0,0,0,0,0,0,0,0,0,0,0,0,0,0,0,0,0,0,0,0,0,0,0,0,0,0,0,0],"id":6,"left_children":[1,3,5,7,9,11,13,15,-1,-1,17,19,21,23,-1,-1,25,-1,-1,27,29,31,33,35,-1,-1,-1,-1,-1,-1,-1,-1,-1,-1,-1,-1,-1],"loss_changes":[1.788331E1,5.643366E0,7.7285433E0,8.331612E0,4.5128837E0,6.4306974E0,5.7015944E0,5.147781E0,0E0,0E0,4.504563E0,5.9687624E0,7.6482544E0,2.503027E0,0E0,0E0,1.5968723E0,0E0,0E0,9.73345E0,5.4009314E0,9.839489E0,1.373783E1,1.7585611E0,0E0,0E0,0E0,0E0,0E0,0E0,0E0,0E0,0E0,0E0,0E0,0E0,0E0],"parents":[2147483647,0,0,1,1,2,2,3,3,4,4,5,5,6,6,7,7,10,10,11,11,12,12,13,13,16,16,19,19,20,20,21,21,22,22,23,23],"right_children":[2,4,6,8,10,12,14,16,-1,-1,18,20,22,24,-1,-1,26,-1,-1,28,30,32,34,36,-1,-1,-1,-1,-1,-1,-1,-1,-1,-1,-1,-1,-1],"split_conditions":[1.31E0,2.535E1,1E0,5.5047E0,3.089E-1,8.82E-2,9.469E-1,6.065E-1,-4.025718E-2,2.2875326E-2,2.845E1,7.14E-2,3.396E-1,-5.653E-1,6.8249363E-3,1.2334085E-2,3.3234E0,1.0659127E-2,-3.1988516E-2,2.886E1,5.959E-1,6.914E-1,6.1463E0,2.121E-1,-3.647056E-3,-3.3121075E-2,-5.09486E-3,1.4651888E-2,-2.5355889E-2,2.6992518E-2,-4.6606013E-3,-1.1594413E-2,9.933456E-3,1.403725E-5,1.940669E-2,-1.24656325E-2,-4.810536E-2],"split_indices":[20,36,30,7,33,3,23,21,0,0,36,1,33,38,0,0,5,0,0,48,33,22,7,23,0,0,0,0,0,0,0,0,0,0,0,0,0],"split_type":[0,0,0,0,0,0,0,0,0,0,0,0,0,0,0,0,0,0,0,0,0,0,0,0,0,0,0,0,0,0,0,0,0,0,0,0,0],"sum_hessian":[3.7751288E2,4.028904E1,3.3722385E2,2.9327982E1,1.096106E1,3.2098206E2,1.624179E1,1.4009856E1,1.5318125E1,3.7523336E0,7.208726E0,5.19226E1,2.6905945E2,1.0962522E1,5.27927E0,5.8273063E0,8.182549E0,3.170555E0,4.038171E0,2.2033716E1,2.9888885E1,9.3822136E1,1.752373E2,7.8418174E0,3.1207037E0,4.2849407E0,3.8976092E0,1.4610888E1,7.4228277E0,2.4413567E1,5.475319E0,6.847208E1,2.535006E1,1.3235799E2,4.287931E1,3.0975752E0,4.744242E0],"tree_param":{"num_deleted":"0","num_feature":"58","num_nodes":"37","size_leaf_vector":"1"}},{"base_weights":[-5.2723316E-3,-6.0215783E-1,6.9669336E-2,-7.397554E-1,1.4911018E-2,1.4138895E-1,-1.849772E-1,-8.93819E-2,-9.5213467E-1,7.478863E-2,6.5478957E-1,-4.5307662E-2,-1.0171493E-1,-2.1675995E-2,1.3377198E-2,-6.240782E-1,-1.2887005E0,8.7492853E-1,3.5165846E-2,-4.2176742E-2,1.094914E0,1.0613091E-1,-5.5332583E-1,-4.247841E-3,-3.0628612E-2,-4.5472845E-2,-1.8412512E-2,3.9548274E-2,-4.559236E-3,-1.6178233E-3,1.0664399E-2,1.5726447E-2,-2.2020943E-2,1.1730259E-2,4.336737E-2,-2.1394962E-3,3.23621E-2,-2.934337E-2,-0E0],"categories":[],"categories_nodes":[],"categories_segments":[],"categories_sizes":[],"default_left":[0,0,0,0,0,0,0,0,0,0,0,0,0,0,0,0,0,0,0,0,0,0,0,0,0,0,0,0,0,0,0,0,0,0,0,0,0,0,0],"id":7,"left_children":[1,3,5,7,-1,9,11,13,15,17,19,-1,21,-1,-1,23,25,27,29,31,33,35,37,-1,-1,-1,-1,-1,-1,-1,-1,-1,-1,-1,-1,-1,-1,-1,-1],"loss_changes":[1.704692E1,6.8238115E0,6.1845036E0,5.0978317E0,0E0,8.910391E0,7.8816442E0,3.9566293E0,2.1661682E0,7.33267E0,9.363689E0,0E0,6.7709107E0,0E0,0E0,2.9160142E0,8.5593987E-1,5.294568E0,6.4759016E0,5.3036523E0,3.8255806E0,8.691682E0,5.2449694E0,0E0,0E0,0E0,0E0,0E0,0E0,0E0,0E0,0E0,0E0,0E0,0E0,0E0,0E0,0E0,0E0],"parents":[2147483647,0,0,1,1,2,2,3,3,5,5,6,6,7,7,8,8,9,9,10,10,12,12,15,15,16,16,17,17,18,18,19,19,20,20,21,21,22,22],"right_children":[2,4,6,8,-1,10,12,14,16,18,20,-1,22,-1,-1,24,26,28,30,32,34,36,38,-1,-1,-1,-1,-1,-1,-1,-1,-1,-1,-1,-1,-1,-1,-1,-1],"split_conditions":[1.33E0,1.8065E0,2.9E1,5.75E0,1.4911018E-2,2.425E1,2.975E1,1E0,4.062E-1,1.358E1,3.2E-1,-4.5307662E-2,4.516E-1,-2.1675995E-2,1.3377198E-2,7E0,2.5042E0,6.8352E0,7.898E-1,2.0223E0,-3.77E-2,9.422E-1,2.07E-2,-4.247841E-3,-3.0628612E-2,-4.5472845E-2,-1.8412512E-2,3.9548274E-2,-4.559236E-3,-1.6178233E-3,1.0664399E-2,1.5726447E-2,-2.2020943E-2,1.1730259E-2,4.336737E-2,-2.1394962E-3,3.23621E-2,-2.934337E-2,-0E0],"split_indices":[20,23,8,8,0,8,8,45,33,48,33,0,22,0,0,31,42,6,38,40,41,38,41,0,0,0,0,0,0,0,0,0,0,0,0,0,0,0,0],"split_type":[0,0,0,0,0,0,0,0,0,0,0,0,0,0,0,0,0,0,0,0,0,0,0,0,0,0,0,0,0,0,0,0,0,0,0,0,0,0,0],"sum_hessian":[3.779652E2,4.1525753E1,3.3643948E2,3.727733E1,4.248424E0,2.6315964E2,7.327982E1,9.642036E0,2.7635292E1,2.341281E2,2.9031555E1,3.247653E0,7.0032166E1,4.342566E0,5.299471E0,1.5590416E1,1.2044876E1,9.933165E0,2.2419493E2,1.1499033E1,1.7532522E1,4.833186E1,2.170031E1,7.7623873E0,7.8280287E0,7.9698343E0,4.0750422E0,6.8077006E0,3.1254635E0,1.7581311E2,4.8381824E1,6.376573E0,5.12246E0,6.6280227E0,1.09045E1,4.1571236E1,6.760623E0,1.1747009E1,9.9533E0],"tree_param":{"num_deleted":"0","num_feature":"58","num_nodes":"39","size_leaf_vector":"1"}},{"base_weights":[4.138899E-3,-6.6458786E-1,8.194783E-2,-3.0689818E-1,-9.9193597E-1,1.1937354E-1,-6.28986E-1,-5.5766433E-1,2.1042421E-2,-2.4535814E-3,-1.2338693E0,2.9755247E-1,2.1263316E-2,-1.0311409E0,6.576246E-3,3.355195E-2,-1.0688304E0,-1.2268027E-2,-1.4135773E0,3.625038E-1,-4.319847E-1,-8.2372956E-2,3.534073E-1,-3.2850208E-3,-1.3336599E0,1.5078935E-2,-1.8453285E-2,-4.5584273E-2,-5.58219E-3,-4.89256E-2,-1.600218E-2,-1.7266577E-2,1.2271513E-2,-3.4255914E-2,7.4564843E-3,1.16169E-3,-1.7445497E-2,-1.4963559E-2,1.615847E-2,-4.7222044E-2,-1.9284515E-2],"categories":[],"categories_nodes":[],"categories_segments":[],"categories_sizes":[],"default_left":[0,0,0,0,0,0,0,0,0,0,0,0,0,0,0,0,0,0,0,0,0,0,0,0,0,0,0,0,0,0,0,0,0,0,0,0,0,0,0,0,0],"id":8,"left_children":[1,3,5,7,9,11,13,15,-1,-1,17,19,21,23,-1,25,27,-1,29,31,33,35,37,-1,39,-1,-1,-1,-1,-1,-1,-1,-1,-1,-1,-1,-1,-1,-1,-1,-1],"loss_changes":[1.9892033E1,4.229229E0,9.164792E0,5.592182E0,4.216036E0,5.6839857E0,6.1764574E0,5.323747E0,0E0,0E0,1.5823421E0,5.636648E0,7.372201E0,3.035224E0,0E0,2.985701E0,3.2548723E0,0E0,1.2982521E0,4.8907795E0,5.1061068E0,9.903436E0,8.316387E0,0E0,2.2948837E-1,0E0,0E0,0E0,0E0,0E0,0E0,0E0,0E0,0E0,0E0,0E0,0E0,0E0,0E0,0E0,0E0],"parents":[2147483647,0,0,1,1,2,2,3,3,4,4,5,5,6,6,7,7,10,10,11,11,12,12,13,13,15,15,16,16,18,18,19,19,20,20,21,21,22,22,24,24],"right_children":[2,4,6,8,10,12,14,16,-1,-1,18,20,22,24,-1,26,28,-1,30,32,34,36,38,-1,40,-1,-1,-1,-1,-1,-1,-1,-1,-1,-1,-1,-1,-1,-1,-1,-1],"split_conditions":[1.31E0,1.13E0,1E0,1.92E-2,5.191E-1,-8.1964E0,9.469E-1,2.3354E0,2.1042421E-2,-2.4535814E-3,-4.2408E0,4.075E1,5.536E-1,-3.333E-1,6.576246E-3,4.242E-1,6.8E-1,-1.2268027E-2,3.4859E0,1.4542E0,1.004E0,8.857E-1,-2.37E-2,-3.2850208E-3,-6.54E-1,1.5078935E-2,-1.8453285E-2,-4.5584273E-2,-5.58219E-3,-4.89256E-2,-1.600218E-2,-1.7266577E-2,1.2271513E-2,-3.4255914E-2,7.4564843E-3,1.16169E-3,-1.7445497E-2,-1.4963559E-2,1.615847E-2,-4.7222044E-2,-1.9284515E-2],"split_indices":[20,20,30,32,21,27,23,40,0,0,51,8,37,25,0,33,3,0,17,40,21,3,32,0,38,0,0,0,0,0,0,0,0,0,0,0,0,0,0,0,0],"split_type":[0,0,0,0,0,0,0,0,0,0,0,0,0,0,0,0,0,0,0,0,0,0,0,0,0,0,0,0,0,0,0,0,0,0,0,0,0,0,0,0,0],"sum_hessian":[3.8137015E2,3.8828987E1,3.4254117E2,1.9626423E1,1.9202566E1,3.263347E2,1.6206497E1,1.6154839E1,3.4715831E0,4.4002542E0,1.4802311E1,1.1479758E2,2.115371E2,1.0927596E1,5.278901E0,7.833416E0,8.321424E0,3.3332608E0,1.146905E1,1.0600044E2,8.7971325E0,1.6157352E2,4.996359E1,3.118732E0,7.808864E0,4.7661014E0,3.0673146E0,4.9565516E0,3.364872E0,8.423225E0,3.0458248E0,4.372279E0,1.0162817E2,4.0458612E0,4.7512712E0,1.306089E2,3.0964611E1,8.521392E0,4.1442196E1,4.7371445E0,3.0717194E0],"tree_param":{"num_deleted":"0","num_feature":"58","num_nodes":"41","size_leaf_vector":"1"}},{"base_weights":[6.078552E-3,-5.3632855E-1,7.6200776E-2,-1.1925511E0,-2.8340945E-1,1.0993208E-1,-5.648251E-1,-4.3707397E-2,-1.178921E-2,1.4943716E-1,-6.191058E-1,4.4394353E-1,4.462038E-2,-9.074589E-1,6.7987475E-3,7.0180553E-1,-4.0589195E-1,-3.6911976E-2,-2.2299755E-1,8.096988E-1,2.1262987E-1,-1.7541361E-1,1.6528703E-1,-2.7044036E-3,-1.1748474E0,3.331352E-2,4.7152145E-3,6.42017E-3,-2.8344428E-2,1.305885E-2,-2.181228E-2,1.3469849E-2,4.11997E-2,-9.42265E-3,1.4976864E-2,-2.0745406E-2,-1.5835541E-3,2.2586243E-2,2.4171295E-3,-1.0531612E-2,-4.6209216E-2],"categories":[],"categories_nodes":[],"categories_segments":[],"categories_sizes":[],"default_left":[0,0,0,0,0,0,0,0,0,0,0,0,0,0,0,0,0,0,0,0,0,0,0,0,0,0,0,0,0,0,0,0,0,0,0,0,0,0,0,0,0],"id":9,"left_children":[1,3,5,7,9,11,13,-1,-1,15,17,19,21,23,-1,25,27,-1,29,31,33,35,37,-1,39,-1,-1,-1,-1,-1,-1,-1,-1,-1,-1,-1,-1,-1,-1,-1,-1],"loss_changes":[1.4274754E1,6.6415234E0,7.22778E0,1.678503E0,4.849881E0,6.864418E0,4.7987494E0,0E0,0E0,4.8650856E0,4.0797276E0,4.0927277E0,7.122249E0,2.3754597E0,0E0,1.4556291E0,2.928199E0,0E0,4.5255117E0,3.1602745E0,5.1786623E0,5.8904123E0,8.48609E0,0E0,1.9243746E0,0E0,0E0,0E0,0E0,0E0,0E0,0E0,0E0,0E0,0E0,0E0,0E0,0E0,0E0,0E0,0E0],"parents":[2147483647,0,0,1,1,2,2,3,3,4,4,5,5,6,6,9,9,10,10,11,11,12,12,13,13,15,15,16,16,18,18,19,19,20,20,21,21,22,22,24,24],"right_children":[2,4,6,8,10,12,14,-1,-1,16,18,20,22,24,-1,26,28,-1,30,32,34,36,38,-1,40,-1,-1,-1,-1,-1,-1,-1,-1,-1,-1,-1,-1,-1,-1,-1,-1],"split_conditions":[1.33E0,-2.4889E0,1E0,9E0,1.1667E0,9.09E-2,9.469E-1,-4.3707397E-2,-1.178921E-2,4.556E-1,-1.39E-2,2.241E1,3.396E-1,5.644E-1,6.7987475E-3,6E0,4E0,-3.6911976E-2,4E-3,6.2E-3,6.242E-1,1.3659E0,3.704E-1,-2.7044036E-3,4.974E-1,3.331352E-2,4.7152145E-3,6.42017E-3,-2.8344428E-2,1.305885E-2,-2.181228E-2,1.3469849E-2,4.11997E-2,-9.42265E-3,1.4976864E-2,-2.0745406E-2,-1.5835541E-3,2.2586243E-2,2.4171295E-3,-1.0531612E-2,-4.6209216E-2],"split_indices":[20,17,30,8,51,3,23,0,0,33,32,48,33,21,0,9,9,0,32,32,21,5,33,0,37,0,0,0,0,0,0,0,0,0,0,0,0,0,0,0,0],"split_type":[0,0,0,0,0,0,0,0,0,0,0,0,0,0,0,0,0,0,0,0,0,0,0,0,0,0,0,0,0,0,0,0,0,0,0,0,0,0,0,0,0],"sum_hessian":[3.74443E2,4.194178E1,3.3250122E2,1.0524483E1,3.14173E1,3.168147E2,1.5686539E1,7.1975923E0,3.32689E0,1.3835183E1,1.7582115E1,5.0618336E1,2.6619635E2,1.09331455E1,4.753393E0,6.894124E0,6.9410596E0,5.9858255E0,1.1596291E1,1.8474129E1,3.214421E1,9.382511E1,1.7237123E2,3.116927E0,7.816219E0,3.2403378E0,3.653786E0,3.4221091E0,3.5189502E0,5.002038E0,6.5942526E0,1.2468611E1,6.005517E0,1.1170314E1,2.0973896E1,1.6966124E1,7.6858986E1,2.0577679E1,1.5179356E2,3.0885158E0,4.727703E0],"tree_param":{"num_deleted":"0","num_feature":"58","num_nodes":"41","size_leaf_vector":"1"}},{"base_weights":[-2.1828102E-2,-4.4457164E-1,9.31699E-2,-8.0684826E-2,-7.206384E-1,-5.7635225E-2,2.166429E-1,2.3224106E-1,-5.943926E-1,-8.4031296E-1,1.914965E-2,1.6581109E-1,-2.4630138E-1,5.622337E-1,3.355835E-3,-2.341637E-2,6.076037E-1,-1.525963E-1,-3.8691517E-2,-9.4856924E-1,1.0682216E-2,2.854193E-1,-6.0524404E-1,1.2558366E-1,-5.215615E-1,-2.6712874E-1,7.212276E-1,2.0902078E-1,-3.0242392E-1,2.736661E-2,-1.049298E-2,-2.737345E-2,1.7596085E-2,-3.2156345E-2,9.64592E-3,5.1931795E-3,3.3464033E-2,1.1109191E-2,-4.1066233E-2,1.0462005E-2,-2.1459533E-2,-2.0560594E-2,1.375773E-2,-2.8575208E-2,8.667533E-3,4.002352E-3,2.644737E-2,1.0619807E-2,-1.4934266E-2,-2.5924714E-2,4.1787378E-3],"categories":[],"categories_nodes":[],"categories_segments":[],"categories_sizes":[],"default_left":[0,0,0,0,0,0,0,0,0,0,0,0,0,0,0,0,0,0,0,0,0,0,0,0,0,0,0,0,0,0,0,0,0,0,0,0,0,0,0,0,0,0,0,0,0,0,0,0,0,0,0],"id":10,"left_children":[1,3,5,7,9,11,13,15,17,19,-1,21,23,25,27,-1,29,31,-1,33,-1,35,37,39,41,43,45,47,49,-1,-1,-1,-1,-1,-1,-1,-1,-1,-1,-1,-1,-1,-1,-1,-1,-1,-1,-1,-1,-1,-1],"loss_changes":[1.8334616E1,7.966154E0,5.5379896E0,5.9749484E0,7.97118E0,5.68221E0,1.19757E1,9.209333E0,3.9786687E0,5.888548E0,0E0,5.8153615E0,7.5877547E0,8.429693E0,6.477355E0,0E0,5.4588914E0,6.0833836E0,0E0,6.563923E0,0E0,4.7177334E0,6.917424E0,6.169311E0,7.1366043E0,4.3895917E0,4.729391E0,6.5001397E0,1.0437187E1,0E0,0E0,0E0,0E0,0E0,0E0,0E0,0E0,0E0,0E0,0E0,0E0,0E0,0E0,0E0,0E0,0E0,0E0,0E0,0E0,0E0,0E0],"parents":[2147483647,0,0,1,1,2,2,3,3,4,4,5,5,6,6,7,7,8,8,9,9,11,11,12,12,13,13,14,14,16,16,17,17,19,19,21,21,22,22,23,23,24,24,25,25,26,26,27,27,28,28],"right_children":[2,4,6,8,10,12,14,16,18,20,-1,22,24,26,28,-1,30,32,-1,34,-1,36,38,40,42,44,46,48,50,-1,-1,-1,-1,-1,-1,-1,-1,-1,-1,-1,-1,-1,-1,-1,-1,-1,-1,-1,-1,-1,-1],"split_conditions":[1.69E0,2.161E1,-4.065E-1,1.218E-1,9.5455E0,1.379E-1,3.328E-1,-2.7296E0,9.96E-1,1.6867E0,1.914965E-2,6E0,5.41E-2,1.713E0,7.63E-1,-2.341637E-2,6.942E-1,1.4E-3,-3.8691517E-2,1.8381E0,1.0682216E-2,1.05784E1,2.081E1,3.15E1,3.438E-1,4.8734E0,1.3659E0,4.058E0,2.119E1,2.736661E-2,-1.049298E-2,-2.737345E-2,1.7596085E-2,-3.2156345E-2,9.64592E-3,5.1931795E-3,3.3464033E-2,1.1109191E-2,-4.1066233E-2,1.0462005E-2,-2.1459533E-2,-2.0560594E-2,1.375773E-2,-2.8575208E-2,8.667533E-3,4.002352E-3,2.644737E-2,1.0619807E-2,-1.4934266E-2,-2.5924714E-2,4.1787378E-3],"split_indices":[20,48,38,25,7,3,22,17,22,22,0,20,1,40,21,0,22,38,0,23,0,42,36,8,1,7,5,5,36,0,0,0,0,0,0,0,0,0,0,0,0,0,0,0,0,0,0,0,0,0,0],"split_type":[0,0,0,0,0,0,0,0,0,0,0,0,0,0,0,0,0,0,0,0,0,0,0,0,0,0,0,0,0,0,0,0,0,0,0,0,0,0,0,0,0,0,0,0,0,0,0,0,0,0,0],"sum_hessian":[3.7456683E2,7.967557E1,2.9489127E2,3.5084618E1,4.459095E1,1.3262794E2,1.622633E2,2.2022703E1,1.3061915E1,4.1400333E1,3.1906157E0,6.0530228E1,7.2097725E1,6.1121975E1,1.01141335E2,5.5911255E0,1.6431578E1,8.820692E0,4.241224E0,3.823163E1,3.1687052E0,5.3059082E1,7.471146E0,3.0743187E1,4.1354534E1,9.62192E0,5.1500053E1,6.0854538E1,4.0286793E1,1.2580361E1,3.8512166E0,4.3004737E0,4.520218E0,3.5062366E1,3.1692617E0,4.790598E1,5.1531014E0,3.449048E0,4.022098E0,2.4852335E1,5.890852E0,3.5778454E1,5.576083E0,4.070947E0,5.5509725E0,1.1564088E1,3.9935966E1,5.1029003E1,9.825536E0,1.74128E1,2.2873993E1],"tree_param":{"num_deleted":"0","num_feature":"58","num_nodes":"51","size_leaf_vector":"1"}},{"base_weights":[-1.1533206E-2,2.2444025E-2,-7.230221E-1,3.2917643E-1,-4.7048878E-2,-1.1165812E0,3.3535474E-5,-1.8084368E-2,4.0533307E-1,-1.076545E-1,3.531282E-1,-1.3622063E-2,-4.341915E-2,5.297612E-1,-2.8531656E-1,-2.1875346E-1,1.2905645E-1,-3.0169138E-1,6.682677E-1,3.8989954E-2,1.24057885E-2,1.7214509E-2,-2.3422558E-2,1.1457206E-2,-9.055713E-3,6.3719507E-3,-2.5263771E-2,2.4289668E-2,-2.259896E-2,2.8688267E-2,-1.2687537E-2],"categories":[],"categories_nodes":[],"categories_segments":[],"categories_sizes":[],"default_left":[0,0,0,0,0,0,0,0,0,0,0,0,0,0,0,0,0,0,0,0,0,0,0,0,0,0,0,0,0,0,0],"id":11,"left_children":[1,3,5,7,9,11,-1,-1,13,15,17,-1,-1,19,21,23,25,27,29,-1,-1,-1,-1,-1,-1,-1,-1,-1,-1,-1,-1],"loss_changes":[9.197937E0,7.7295003E0,5.0555162E0,4.979489E0,7.1578517E0,1.6345234E0,0E0,0E0,5.557645E0,6.791032E0,8.237108E0,0E0,0E0,4.082551E0,4.7626066E0,8.864785E0,6.7833157E0,7.218982E0,8.811733E0,0E0,0E0,0E0,0E0,0E0,0E0,0E0,0E0,0E0,0E0,0E0,0E0],"parents":[2147483647,0,0,1,1,2,2,3,3,4,4,5,5,8,8,9,9,10,10,13,13,14,14,15,15,16,16,17,17,18,18],"right_children":[2,4,6,8,10,12,-1,-1,14,16,18,-1,-1,20,22,24,26,28,30,-1,-1,-1,-1,-1,-1,-1,-1,-1,-1,-1,-1],"split_conditions":[1E0,1.071E-1,9.469E-1,5.625E-1,3.571E-1,2.33E0,3.3535474E-5,-1.8084368E-2,9.737E-1,2.514E1,3.443E-1,-1.3622063E-2,-4.341915E-2,1.424E1,1.025E1,-4.4567E0,1E0,8.48E-2,3.1688E0,3.8989954E-2,1.24057885E-2,1.7214509E-2,-2.3422558E-2,1.1457206E-2,-9.055713E-3,6.3719507E-3,-2.5263771E-2,2.4289668E-2,-2.259896E-2,2.8688267E-2,-1.2687537E-2],"split_indices":[30,3,23,0,1,20,0,0,0,36,33,0,0,36,8,57,29,22,5,0,0,0,0,0,0,0,0,0,0,0,0],"split_type":[0,0,0,0,0,0,0,0,0,0,0,0,0,0,0,0,0,0,0,0,0,0,0,0,0,0,0,0,0,0,0],"sum_hessian":[3.7591287E2,3.595695E2,1.6343376E1,6.599196E1,2.9357755E2,1.0326975E1,6.016402E0,4.363528E0,6.162843E1,2.5581586E2,3.7761673E1,4.329451E0,5.997524E0,5.2540436E1,9.087991E0,1.744412E2,8.137467E1,1.2179529E1,2.5582146E1,5.443392E0,4.7097046E1,3.1922562E0,5.895735E0,2.0618074E1,1.5382312E2,7.575779E1,5.6168823E0,3.226144E0,8.953384E0,2.041032E1,5.171826E0],"tree_param":{"num_deleted":"0","num_feature":"58","num_nodes":"31","size_leaf_vector":"1"}},{"base_weights":[7.3643366E-4,-6.2372667E-1,6.566983E-2,-8.207643E-1,-3.8936526E-2,1.22224845E-1,-3.234749E-1,-3.740776E-1,-3.965519E-2,2.0771949E-2,-2.5514388E-2,1.5959832E-1,-5.7066387E-1,1.1651517E-1,-7.4772364E-1,2.8454134E-1,-8.758181E-1,1.2357377E-1,6.618073E-1,-9.7043794E-1,-0E0,-3.5536997E-2,3.9113837E-1,-1.0715148E0,1.7035585E-2,3.2551724E-2,-1.7909069E-2,-3.3895012E-2,-7.841776E-3,4.9487185E-3,-1.1975621E-2,3.6150027E-2,1.6694288E-3,-3.3233033E-3,-4.1458286E-2,-1.7631134E-2,1.7604345E-2,2.810308E-2,-1.9504031E-3,-4.4152047E-2,1.4290898E-3],"categories":[],"categories_nodes":[],"categories_segments":[],"categories_sizes":[],"default_left":[0,0,0,0,0,0,0,0,0,0,0,0,0,0,0,0,0,0,0,0,0,0,0,0,0,0,0,0,0,0,0,0,0,0,0,0,0,0,0,0,0],"id":12,"left_children":[1,3,5,7,9,11,13,15,-1,-1,-1,17,19,21,23,25,27,29,31,33,35,-1,37,39,-1,-1,-1,-1,-1,-1,-1,-1,-1,-1,-1,-1,-1,-1,-1,-1,-1],"loss_changes":[1.5191995E1,3.9465017E0,7.5187697E0,5.2015114E0,6.5798006E0,7.7789526E0,8.230674E0,5.382566E0,0E0,0E0,0E0,4.9797516E0,3.577589E0,8.24454E0,1.0153293E1,5.853702E0,9.7755E-1,5.8080063E0,5.931282E0,2.9200554E0,2.8442245E0,0E0,4.872137E0,8.406542E0,0E0,0E0,0E0,0E0,0E0,0E0,0E0,0E0,0E0,0E0,0E0,0E0,0E0,0E0,0E0,0E0,0E0],"parents":[2147483647,0,0,1,1,2,2,3,3,4,4,5,5,6,6,7,7,11,11,12,12,13,13,14,14,15,15,16,16,17,17,18,18,19,19,20,20,22,22,23,23],"right_children":[2,4,6,8,10,12,14,16,-1,-1,-1,18,20,22,24,26,28,30,32,34,36,-1,38,40,-1,-1,-1,-1,-1,-1,-1,-1,-1,-1,-1,-1,-1,-1,-1,-1,-1],"split_conditions":[1.28E0,2.535E1,9.302E-1,5.88E0,4.062E-1,1E0,-1.9091E0,6.371E-1,-3.965519E-2,2.0771949E-2,-2.5514388E-2,7.195E-1,2.222E1,-2.153E-1,1.78E-2,-1.918E-1,7.03E-1,6.136E-1,6.383E-1,-1.484E-1,1.9972E0,-3.5536997E-2,5.3846E0,5.541E-1,1.7035585E-2,3.2551724E-2,-1.7909069E-2,-3.3895012E-2,-7.841776E-3,4.9487185E-3,-1.1975621E-2,3.6150027E-2,1.6694288E-3,-3.3233033E-3,-4.1458286E-2,-1.7631134E-2,1.7604345E-2,2.810308E-2,-1.9504031E-3,-4.4152047E-2,1.4290898E-3],"split_indices":[20,36,3,7,33,30,27,21,0,0,0,33,36,41,32,56,21,33,0,41,40,0,7,37,0,0,0,0,0,0,0,0,0,0,0,0,0,0,0,0,0],"split_type":[0,0,0,0,0,0,0,0,0,0,0,0,0,0,0,0,0,0,0,0,0,0,0,0,0,0,0,0,0,0,0,0,0,0,0,0,0,0,0,0,0],"sum_hessian":[3.7402832E2,3.427365E1,3.3975467E2,2.5206215E1,9.067436E0,2.974663E2,4.228836E1,1.4355254E1,1.0850961E1,4.781817E0,4.285619E0,2.8310974E2,1.435657E1,2.0999424E1,2.1288937E1,6.3082275E0,8.047027E0,2.6550934E2,1.7600388E1,8.109179E0,6.2473917E0,3.018957E0,1.7980467E1,1.7294037E1,3.9948986E0,3.244432E0,3.0637956E0,4.984668E0,3.062359E0,2.4684409E2,1.8665258E1,8.674273E0,8.926115E0,3.1146586E0,4.99452E0,3.0554676E0,3.1919243E0,7.807286E0,1.0173181E1,1.2572343E1,4.721695E0],"tree_param":{"num_deleted":"0","num_feature":"58","num_nodes":"41","size_leaf_vector":"1"}},{"base_weights":[2.3753343E-2,1.2632288E-1,-3.0783147E-1,3.4012893E-1,1.858246E-2,-1.8250215E-1,-8.102297E-1,4.1004446E-1,-2.7795102E-2,-4.703713E-1,8.658464E-2,-3.0513996E-1,4.8911247E-1,-1.0748802E0,3.7992797E-3,4.952704E-1,-6.6389245E-1,1.98608E-1,-9.1460973E-1,-3.8089302E-1,1.603033E-1,-9.161798E-1,-1.4330159E-1,1.1298813E0,-2.1741506E-2,-9.841088E-3,-4.2016886E-2,2.8208708E-2,8.6096395E-3,-3.60458E-2,-0E0,2.6522506E-2,-9.727586E-3,2.9234882E-3,-3.728836E-2,-2.5805496E-2,1.34011395E-2,-2.9439084E-2,5.7421676E-3,-4.2180408E-2,-2.7521725E-3,1.0238558E-2,-1.3318352E-2,4.6345834E-2,1.0560171E-2],"categories":[],"categories_nodes":[],"categories_segments":[],"categories_sizes":[],"default_left":[0,0,0,0,0,0,0,0,0,0,0,0,0,0,0,0,0,0,0,0,0,0,0,0,0,0,0,0,0,0,0,0,0,0,0,0,0,0,0,0,0,0,0,0,0],"id":13,"left_children":[1,3,5,7,9,11,13,15,-1,17,19,21,23,25,-1,27,29,31,33,35,37,39,41,43,-1,-1,-1,-1,-1,-1,-1,-1,-1,-1,-1,-1,-1,-1,-1,-1,-1,-1,-1,-1,-1],"loss_changes":[1.2937513E1,6.6611996E0,5.406255E0,8.930457E0,6.4815884E0,6.169037E0,4.5640764E0,8.807856E0,0E0,7.3168206E0,5.9697638E0,5.9663076E0,9.864383E0,2.7281084E0,0E0,7.639738E0,2.6440969E0,4.004377E0,5.0710726E0,9.768291E0,5.4186034E0,4.898896E0,7.5788794E0,1.8561411E0,0E0,0E0,0E0,0E0,0E0,0E0,0E0,0E0,0E0,0E0,0E0,0E0,0E0,0E0,0E0,0E0,0E0,0E0,0E0,0E0,0E0],"parents":[2147483647,0,0,1,1,2,2,3,3,4,4,5,5,6,6,7,7,9,9,10,10,11,11,12,12,13,13,15,15,16,16,17,17,18,18,19,19,20,20,21,21,22,22,23,23],"right_children":[2,4,6,8,10,12,14,16,-1,18,20,22,24,26,-1,28,30,32,34,36,38,40,42,44,-1,-1,-1,-1,-1,-1,-1,-1,-1,-1,-1,-1,-1,-1,-1,-1,-1,-1,-1,-1,-1],"split_conditions":[4.9412E0,4.5718E0,3.173E1,1E0,-5.8947E0,2.78E1,1.59E-2,9.13E-1,-2.7795102E-2,-3.77E-2,1.8557E0,-2.4889E0,3.2E-2,-4.0209E0,3.7992797E-3,-1.8157E0,3.7895E0,5.053E-1,2.163E1,2.446E1,4.6503E0,2.9851E0,1.582E-1,5E0,-2.1741506E-2,-9.841088E-3,-4.2016886E-2,2.8208708E-2,8.6096395E-3,-3.60458E-2,-0E0,2.6522506E-2,-9.727586E-3,2.9234882E-3,-3.728836E-2,-2.5805496E-2,1.34011395E-2,-2.9439084E-2,5.7421676E-3,-4.2180408E-2,-2.7521725E-3,1.0238558E-2,-1.3318352E-2,4.6345834E-2,1.0560171E-2],"split_indices":[28,42,48,30,51,36,32,0,0,41,6,17,32,27,0,17,28,37,36,36,42,42,17,31,0,0,0,0,0,0,0,0,0,0,0,0,0,0,0,0,0,0,0,0,0],"split_type":[0,0,0,0,0,0,0,0,0,0,0,0,0,0,0,0,0,0,0,0,0,0,0,0,0,0,0,0,0,0,0,0,0,0,0,0,0,0,0,0,0,0,0,0,0],"sum_hessian":[3.787879E2,2.900019E2,8.8786026E1,9.613707E1,1.938648E2,7.2309784E1,1.6476244E1,9.182381E1,4.3132663E0,2.2768158E1,1.7109665E2,6.1731987E1,1.0577794E1,1.281551E1,3.6607332E0,8.565806E1,6.1657453E0,9.216635E0,1.3551523E1,2.2553444E1,1.485432E2,1.1821091E1,4.9910896E1,7.022322E0,3.5554721E0,4.594299E0,8.2212105E0,2.6035513E1,5.9622547E1,3.0192258E0,3.1465192E0,3.7719586E0,5.4446764E0,3.417152E0,1.0134372E1,1.4333741E1,8.219702E0,3.0440931E0,1.4549911E2,6.896744E0,4.924347E0,1.8930426E1,3.0980473E1,3.8525262E0,3.1697962E0],"tree_param":{"num_deleted":"0","num_feature":"58","num_nodes":"45","size_leaf_vector":"1"}},{"base_weights":[9.127064E-3,-4.6732923E-1,6.806148E-2,-7.019522E-1,1.9482031E-1,5.8795954E-3,3.312307E-1,-9.286934E-2,-1.1351388E0,6.167621E-1,-1.8815622E-2,7.445199E-2,-4.4331697E-1,-4.594356E-1,4.8146078E-1,3.4067008E-1,-1.820793E-2,-8.997774E-3,-1.2967396E0,4.4276374E-3,2.8283134E-2,-7.916068E-2,4.2359525E-1,2.0284241E-2,-6.302573E-1,2.4170201E-2,-3.6054473E-2,-2.9708177E-1,6.814682E-1,-1.7709559E-2,3.1214107E-2,-4.3652423E-2,-1.794005E-2,1.5104351E-3,-1.4937345E-2,7.577756E-3,2.6963469E-2,6.963483E-3,-2.3888022E-2,-5.8122915E-3,7.7310107E-3,1.968465E-2,-2.3838878E-2,1.292971E-3,2.6424346E-2],"categories":[],"categories_nodes":[],"categories_segments":[],"categories_sizes":[],"default_left":[0,0,0,0,0,0,0,0,0,0,0,0,0,0,0,0,0,0,0,0,0,0,0,0,0,0,0,0,0,0,0,0,0,0,0,0,0,0,0,0,0,0,0,0,0],"id":14,"left_children":[1,3,5,7,9,11,13,15,17,19,-1,21,23,25,27,29,-1,-1,31,-1,-1,33,35,-1,37,39,-1,41,43,-1,-1,-1,-1,-1,-1,-1,-1,-1,-1,-1,-1,-1,-1,-1,-1],"loss_changes":[1.0500943E1,6.5784454E0,5.4320164E0,7.8728275E0,4.3515916E0,8.361716E0,7.769918E0,3.3414898E0,1.8481674E0,9.9692345E-1,0E0,1.2761206E1,7.938464E0,3.934278E0,8.64683E0,5.9367604E0,0E0,0E0,5.2633476E-1,0E0,0E0,9.018102E0,5.5627794E0,0E0,4.7327614E0,4.2714456E-1,0E0,6.0501375E0,5.386797E0,0E0,0E0,0E0,0E0,0E0,0E0,0E0,0E0,0E0,0E0,0E0,0E0,0E0,0E0,0E0,0E0],"parents":[2147483647,0,0,1,1,2,2,3,3,4,4,5,5,6,6,7,7,8,8,9,9,11,11,12,12,13,13,14,14,15,15,18,18,21,21,22,22,24,24,25,25,27,27,28,28],"right_children":[2,4,6,8,10,12,14,16,18,20,-1,22,24,26,28,30,-1,-1,32,-1,-1,34,36,-1,38,40,-1,42,44,-1,-1,-1,-1,-1,-1,-1,-1,-1,-1,-1,-1,-1,-1,-1,-1],"split_conditions":[1.33E0,2.523E1,1E0,6E0,3.5E1,3.425E1,-6.419E0,1.12E0,-3.15E-2,1.16E0,-1.8815622E-2,2.535E1,-1.3236E0,8.36E-2,1.4279E0,-2.2463E0,-1.820793E-2,-8.997774E-3,7.21E-2,4.4276374E-3,2.8283134E-2,3.2404E0,2.238E0,2.0284241E-2,4.704E-1,6E0,-3.6054473E-2,2.55E0,4.912E-1,-1.7709559E-2,3.1214107E-2,-4.3652423E-2,-1.794005E-2,1.5104351E-3,-1.4937345E-2,7.577756E-3,2.6963469E-2,6.963483E-3,-2.3888022E-2,-5.8122915E-3,7.7310107E-3,1.968465E-2,-2.3838878E-2,1.292971E-3,2.6424346E-2],"split_indices":[20,36,53,8,36,8,51,20,32,20,0,36,38,41,5,51,0,0,41,0,0,5,40,0,37,31,0,20,37,0,0,0,0,0,0,0,0,0,0,0,0,0,0,0,0],"split_type":[0,0,0,0,0,0,0,0,0,0,0,0,0,0,0,0,0,0,0,0,0,0,0,0,0,0,0,0,0,0,0,0,0,0,0,0,0,0,0,0,0,0,0,0,0],"sum_hessian":[3.7325873E2,4.0137768E1,3.3312094E2,2.9703634E1,1.0434134E1,2.7058838E2,6.253256E1,1.2946049E1,1.6757584E1,7.1403093E0,3.293825E0,2.3566905E2,3.491934E1,9.549474E0,5.2983086E1,7.1005187E0,5.8455305E0,3.2800167E0,1.3477568E1,3.6487212E0,3.4915879E0,1.6400053E2,7.166852E1,4.545803E0,3.0373535E1,6.2868176E0,3.2626562E0,1.0627906E1,4.235518E1,3.0527713E0,4.0477476E0,9.988512E0,3.4890554E0,1.25750275E2,3.8250263E1,5.398367E1,1.7684845E1,4.7416234E0,2.5631912E1,3.118771E0,3.1680465E0,3.4665945E0,7.161311E0,1.0487687E1,3.1867493E1],"tree_param":{"num_deleted":"0","num_feature":"58","num_nodes":"45","size_leaf_vector":"1"}},{"base_weights":[-1.3114718E-2,-6.616432E-1,5.2554816E-2,-9.871597E-1,-3.6128354E-1,8.524337E-2,-5.481589E-1,-1.2120404E0,-0E0,1.9461468E-2,-6.571989E-1,-3.592944E-1,1.2716399E-1,4.2368686E-3,-8.1256884E-1,-4.100977E-2,-1.4860632E-2,-1.0129769E0,3.263606E-3,-9.41735E-1,9.878417E-2,1.0893557E-1,4.279803E-2,-1.1177591E0,3.0386865E-3,-4.163675E-2,-0E0,-3.704468E-2,-5.969728E-3,1.2371132E-2,-2.8911134E-2,8.348647E-3,3.1713975E-4,-4.5384143E-2,-1.2553487E-2],"categories":[],"categories_nodes":[],"categories_segments":[],"categories_sizes":[],"default_left":[0,0,0,0,0,0,0,0,0,0,0,0,0,0,0,0,0,0,0,0,0,0,0,0,0,0,0,0,0,0,0,0,0,0,0],"id":15,"left_children":[1,3,5,7,9,11,13,15,-1,-1,17,19,21,-1,23,-1,-1,25,-1,27,29,31,-1,33,-1,-1,-1,-1,-1,-1,-1,-1,-1,-1,-1],"loss_changes":[1.6319305E1,2.954033E0,6.8083606E0,3.4809132E0,6.424229E0,6.16894E0,3.4390826E0,5.9130096E-1,0E0,0E0,4.5860276E0,7.7755985E0,6.852711E0,0E0,3.8875256E0,0E0,0E0,4.1391544E0,0E0,2.3817797E0,5.923178E0,4.954419E0,0E0,1.9465885E0,0E0,0E0,0E0,0E0,0E0,0E0,0E0,0E0,0E0,0E0,0E0],"parents":[2147483647,0,0,1,1,2,2,3,3,4,4,5,5,6,6,7,7,10,10,11,11,12,12,14,14,17,17,19,19,20,20,21,21,23,23],"right_children":[2,4,6,8,10,12,14,16,-1,-1,18,20,22,-1,24,-1,-1,26,-1,28,30,32,-1,34,-1,-1,-1,-1,-1,-1,-1,-1,-1,-1,-1],"split_conditions":[1.28E0,-2.456E-1,1E0,2.43E-2,6.065E-1,1E0,-1.587E-1,3.92E-2,-0E0,1.9461468E-2,8.6534E0,3.908E-1,4.881E1,4.2368686E-3,7.8091E0,-4.100977E-2,-1.4860632E-2,2.3602E0,3.263606E-3,3.032E1,3.124E1,-7.9662E0,4.279803E-2,1.12E-2,3.0386865E-3,-4.163675E-2,-0E0,-3.704468E-2,-5.969728E-3,1.2371132E-2,-2.8911134E-2,8.348647E-3,3.1713975E-4,-4.5384143E-2,-1.2553487E-2],"split_indices":[20,17,30,32,17,9,41,41,0,0,44,33,36,0,42,0,0,42,0,48,48,27,0,41,0,0,0,0,0,0,0,0,0,0,0],"split_type":[0,0,0,0,0,0,0,0,0,0,0,0,0,0,0,0,0,0,0,0,0,0,0,0,0,0,0,0,0,0,0,0,0,0,0],"sum_hessian":[3.7993848E2,3.4240376E1,3.4569812E2,1.5174932E1,1.9065445E1,3.2882904E2,1.686906E1,1.20991E1,3.075831E0,3.9734282E0,1.5092016E1,2.7478909E1,3.0135016E2,4.7007117E0,1.2168349E1,9.087431E0,3.0116692E0,1.0174405E1,4.917611E0,1.1728608E1,1.5750299E1,2.9832605E2,3.024109E0,9.036757E0,3.1315913E0,7.1014996E0,3.0729058E0,7.838412E0,3.8901966E0,1.2706157E1,3.0441422E0,1.0856503E2,1.89761E2,4.9398913E0,4.096866E0],"tree_param":{"num_deleted":"0","num_feature":"58","num_nodes":"35","size_leaf_vector":"1"}},{"base_weights":[2.1088988E-2,-5.23565E-1,8.498037E-2,-2.6713553E-1,-1.1653013E0,1.0179308E-1,-2.601741E-2,-4.8654387E-3,-9.076668E-1,-4.057023E-2,-1.4571978E-2,1.1704164E-2,2.647562E-1,3.9462507E-1,-6.319943E-1,-3.5471387E-2,-1.0273755E-2,-1.0718117E-1,3.431418E-1,1.4713642E-1,8.2663137E-1,2.2647737E-2,-1.7467484E-2,-3.699422E-2,7.898318E-3,-6.386059E-3,1.4705632E-2,2.7125306E-2,4.0274244E-3,1.9050783E-2,3.6127388E-4,3.6800593E-2,-5.5325194E-3],"categories":[],"categories_nodes":[],"categories_segments":[],"categories_sizes":[],"default_left":[0,0,0,0,0,0,0,0,0,0,0,0,0,0,0,0,0,0,0,0,0,0,0,0,0,0,0,0,0,0,0,0,0],"id":16,"left_children":[1,3,5,7,9,11,-1,13,15,-1,-1,17,19,21,23,-1,-1,25,27,29,31,-1,-1,-1,-1,-1,-1,-1,-1,-1,-1,-1,-1],"loss_changes":[1.3045601E1,6.0181017E0,5.399521E0,4.8621225E0,5.347271E-1,4.838936E0,0E0,5.798557E0,7.557645E-1,0E0,0E0,8.534018E0,7.5559006E0,5.381105E0,5.299795E0,0E0,0E0,1.0103426E1,6.482359E0,6.4294186E0,8.420182E0,0E0,0E0,0E0,0E0,0E0,0E0,0E0,0E0,0E0,0E0,0E0,0E0],"parents":[2147483647,0,0,1,1,2,2,3,3,4,4,5,5,7,7,8,8,11,11,12,12,13,13,14,14,17,17,18,18,19,19,20,20],"right_children":[2,4,6,8,10,12,-1,14,16,-1,-1,18,20,22,24,-1,-1,26,28,30,32,-1,-1,-1,-1,-1,-1,-1,-1,-1,-1,-1,-1],"split_conditions":[1.31E0,1E1,1.7071E0,2.547E-1,8.75E0,2.1547E0,-2.601741E-2,-4.4414E0,2.3979E0,-4.057023E-2,-1.4571978E-2,-3.6522E0,2.955E1,2.78E1,-2.456E-1,-3.5471387E-2,-1.0273755E-2,1.345E-1,-1.392E-1,2.238E0,3.854E1,2.2647737E-2,-1.7467484E-2,-3.699422E-2,7.898318E-3,-6.386059E-3,1.4705632E-2,2.7125306E-2,4.0274244E-3,1.9050783E-2,3.6127388E-4,3.6800593E-2,-5.5325194E-3],"split_indices":[20,9,38,25,8,40,0,56,40,0,0,56,36,48,17,0,0,41,41,40,36,0,0,0,0,0,0,0,0,0,0,0,0],"split_type":[0,0,0,0,0,0,0,0,0,0,0,0,0,0,0,0,0,0,0,0,0,0,0,0,0,0,0,0,0,0,0,0,0],"sum_hessian":[3.738694E2,3.833298E1,3.355364E2,2.851204E1,9.820943E0,3.3069568E2,4.840709E0,2.105474E1,7.4572973E0,6.809572E0,3.0113711E0,2.1405031E2,1.1664538E2,1.2990735E1,8.064007E0,4.164386E0,3.2929118E0,1.5781693E2,5.6233387E1,9.7644806E1,1.9000568E1,9.73117E0,3.259565E0,4.665546E0,3.3984606E0,1.3478212E2,2.3034811E1,1.4224099E1,4.200929E1,2.0211271E1,7.743353E1,1.3531862E1,5.4687066E0],"tree_param":{"num_deleted":"0","num_feature":"58","num_nodes":"33","size_leaf_vector":"1"}},{"base_weights":[4.6173546E-2,-3.112079E-1,1.3841584E-1,-6.0954285E-1,-6.882444E-2,6.325818E-1,9.786882E-2,-8.29517E-1,1.804501E-2,-3.763582E-1,3.069892E-1,1.0301276E0,-7.84837E-2,-4.935144E-2,1.9485377E-1,-4.736831E-1,-1.3428345E0,-7.0676255E-1,2.6074535E-1,8.047164E-1,-2.3676531E-1,1.2143925E0,7.800359E-3,1.3926663E-2,-2.3269871E-2,-2.9146045E-1,2.4164943E-1,2.6765946E-1,-3.8802114E-1,2.5404193E-2,-2.4058301E-2,-4.6120353E-2,-1.7696315E-2,-9.304446E-3,-3.6024667E-2,-8.509095E-3,2.691498E-2,3.5132155E-2,2.9519442E-3,-2.817569E-2,1.3860606E-2,2.1577464E-2,4.6786405E-2,-3.831424E-2,-6.212196E-3,1.713967E-2,-2.9750546E-3,-7.1292063E-3,1.113944E-2,7.754909E-3,-2.1667782E-2],"categories":[],"categories_nodes":[],"categories_segments":[],"categories_sizes":[],"default_left":[0,0,0,0,0,0,0,0,0,0,0,0,0,0,0,0,0,0,0,0,0,0,0,0,0,0,0,0,0,0,0,0,0,0,0,0,0,0,0,0,0,0,0,0,0,0,0,0,0,0,0],"id":17,"left_children":[1,3,5,7,9,11,13,15,-1,17,19,21,23,25,27,29,31,33,35,37,39,41,-1,-1,-1,43,45,47,49,-1,-1,-1,-1,-1,-1,-1,-1,-1,-1,-1,-1,-1,-1,-1,-1,-1,-1,-1,-1,-1,-1],"loss_changes":[1.2369388E1,5.4511766E0,5.8467712E0,9.622037E0,5.1780324E0,6.470667E0,3.9830246E0,4.552271E0,0E0,5.41822E0,5.6845922E0,1.5864172E0,3.729956E0,7.8608317E0,7.211124E0,8.920532E0,5.4657745E-1,2.7305002E0,3.4498196E0,2.555688E0,5.5264697E0,5.777817E-1,0E0,0E0,0E0,4.6576934E0,5.782892E0,7.951832E0,4.31371E0,0E0,0E0,0E0,0E0,0E0,0E0,0E0,0E0,0E0,0E0,0E0,0E0,0E0,0E0,0E0,0E0,0E0,0E0,0E0,0E0,0E0,0E0],"parents":[2147483647,0,0,1,1,2,2,3,3,4,4,5,5,6,6,7,7,9,9,10,10,11,11,12,12,13,13,14,14,15,15,16,16,17,17,18,18,19,19,20,20,21,21,25,25,26,26,27,27,28,28],"right_children":[2,4,6,8,10,12,14,16,-1,18,20,22,24,26,28,30,32,34,36,38,40,42,-1,-1,-1,44,46,48,50,-1,-1,-1,-1,-1,-1,-1,-1,-1,-1,-1,-1,-1,-1,-1,-1,-1,-1,-1,-1,-1,-1],"split_conditions":[1.69E0,8.82E-2,-1.3568E0,9.032E-1,2.5187E0,-2.5968E0,-4.065E-1,7E0,1.804501E-2,1.351E-1,6.292E-1,8.667E-1,4.5347E0,3.1532E0,4.088E0,6E0,2.514E1,2.0518E0,1.31E0,6.878E-1,-1.6884E0,6.742E-1,7.800359E-3,1.3926663E-2,-2.3269871E-2,1.244E-1,1.429E-1,1.3659E0,4.809E-1,2.5404193E-2,-2.4058301E-2,-4.6120353E-2,-1.7696315E-2,-9.304446E-3,-3.6024667E-2,-8.509095E-3,2.691498E-2,3.5132155E-2,2.9519442E-3,-2.817569E-2,1.3860606E-2,2.1577464E-2,4.6786405E-2,-3.831424E-2,-6.212196E-3,1.713967E-2,-2.9750546E-3,-7.1292063E-3,1.113944E-2,7.754909E-3,-2.1667782E-2],"split_indices":[20,2,38,23,42,51,38,31,0,1,23,21,42,27,5,8,36,42,20,21,27,0,0,0,0,23,2,5,37,0,0,0,0,0,0,0,0,0,0,0,0,0,0,0,0,0,0,0,0,0,0],"split_type":[0,0,0,0,0,0,0,0,0,0,0,0,0,0,0,0,0,0,0,0,0,0,0,0,0,0,0,0,0,0,0,0,0,0,0,0,0,0,0,0,0,0,0,0,0,0,0,0,0,0,0],"sum_hessian":[3.7343756E2,7.590296E1,2.975346E2,3.3160446E1,4.2742516E1,2.1267687E1,2.762669E2,2.8399557E1,4.760889E0,2.3652208E1,1.9090305E1,1.3443536E1,7.8241525E0,1.0950366E2,1.6676324E2,1.8023315E1,1.0376241E1,1.560633E1,8.045878E0,9.812441E0,9.277865E0,1.0277662E1,3.1658728E0,4.506701E0,3.3174515E0,5.9959873E1,4.954379E1,1.488794E2,1.7883854E1,3.2132182E0,1.4810098E1,7.312625E0,3.0636156E0,9.672075E0,5.934254E0,4.5505896E0,3.495289E0,5.9346585E0,3.877782E0,4.5266833E0,4.7511816E0,5.6072755E0,4.670387E0,3.5204265E0,5.643945E1,2.498902E1,2.4554771E1,2.4957745E1,1.23921646E2,6.070019E0,1.1813836E1],"tree_param":{"num_deleted":"0","num_feature":"58","num_nodes":"51","size_leaf_vector":"1"}},{"base_weights":[3.3857033E-2,-2.772659E-1,1.1823148E-1,-1.5941697E-1,-8.5086244E-1,-5.1831152E-2,2.4615517E-1,-6.333571E-1,-1.013279E-2,-1.1751647E0,4.5779883E-3,-5.3556603E-1,5.9147593E-2,5.1829845E-1,7.3776454E-2,-1.0500975E0,-9.11471E-3,7.2623223E-1,-2.1119098E-1,-1.4460787E-2,-4.1356754E-2,1.8194875E-2,-1.1051884E0,3.548316E-1,-2.0419319E-1,6.910072E-1,-1.5422896E-1,4.4828683E-1,-8.727034E-2,-3.9798785E-2,-9.47929E-3,-1.6977588E-2,1.678696E-2,5.589653E-4,3.6996126E-2,-1.6258875E-2,6.967623E-3,-1.2430274E-2,2.6992178E-2,-4.162761E-2,-7.803455E-3,-2.0189093E-2,1.5443779E-2,-1.1280698E-2,1.2501687E-2,-9.465327E-3,2.3537477E-2,1.0000298E-2,-2.8006323E-2,-3.0019567E-3,2.3368156E-2,-8.525032E-3,1.2843806E-2],"categories":[],"categories_nodes":[],"categories_segments":[],"categories_sizes":[],"default_left":[0,0,0,0,0,0,0,0,0,0,0,0,0,0,0,0,0,0,0,0,0,0,0,0,0,0,0,0,0,0,0,0,0,0,0,0,0,0,0,0,0,0,0,0,0,0,0,0,0,0,0,0,0],"id":18,"left_children":[1,3,5,7,9,11,13,15,17,19,-1,21,23,25,27,29,31,33,35,-1,-1,37,39,41,43,45,47,49,51,-1,-1,-1,-1,-1,-1,-1,-1,-1,-1,-1,-1,-1,-1,-1,-1,-1,-1,-1,-1,-1,-1,-1,-1],"loss_changes":[1.0037823E1,5.2715464E0,6.5859632E0,4.8091354E0,4.6790657E0,7.048429E0,7.991844E0,4.136493E0,8.041556E0,6.16024E-1,0E0,7.854591E0,8.366509E0,7.8816776E0,6.5263305E0,1.3849926E0,2.7390254E0,4.020553E0,6.4650636E0,0E0,0E0,5.497959E0,2.3806791E0,8.654675E0,6.2013893E0,5.3046055E0,5.798224E0,6.0409274E0,7.76355E0,0E0,0E0,0E0,0E0,0E0,0E0,0E0,0E0,0E0,0E0,0E0,0E0,0E0,0E0,0E0,0E0,0E0,0E0,0E0,0E0,0E0,0E0,0E0,0E0],"parents":[2147483647,0,0,1,1,2,2,3,3,4,4,5,5,6,6,7,7,8,8,9,9,11,11,12,12,13,13,14,14,15,15,16,16,17,17,18,18,21,21,22,22,23,23,24,24,25,25,26,26,27,27,28,28],"right_children":[2,4,6,8,10,12,14,16,18,20,-1,22,24,26,28,30,32,34,36,-1,-1,38,40,42,44,46,48,50,52,-1,-1,-1,-1,-1,-1,-1,-1,-1,-1,-1,-1,-1,-1,-1,-1,-1,-1,-1,-1,-1,-1,-1,-1],"split_conditions":[1.69E0,3.286E1,-4.065E-1,-2.4889E0,2.8526E0,-2.37E-2,3.368E-1,7.0288E0,-8.721E-1,6.742E-1,4.5779883E-3,2.081E1,-3.04E-2,8.333E-1,1.8458E0,2.9E0,2.535E1,1E0,1.273E-1,-1.4460787E-2,-4.1356754E-2,1.851E1,-5.362E-1,4.546E-1,1.493E-1,2.02E0,2.8903E0,1.6405E0,-4.6118E0,-3.9798785E-2,-9.47929E-3,-1.6977588E-2,1.678696E-2,5.589653E-4,3.6996126E-2,-1.6258875E-2,6.967623E-3,-1.2430274E-2,2.6992178E-2,-4.162761E-2,-7.803455E-3,-2.0189093E-2,1.5443779E-2,-1.1280698E-2,1.2501687E-2,-9.465327E-3,2.3537477E-2,1.0000298E-2,-2.8006323E-2,-3.0019567E-3,2.3368156E-2,-8.525032E-3,1.2843806E-2],"split_indices":[20,48,38,17,40,32,22,7,17,0,0,36,41,0,40,42,36,4,2,0,0,36,38,37,41,20,5,40,56,0,0,0,0,0,0,0,0,0,0,0,0,0,0,0,0,0,0,0,0,0,0,0,0],"split_type":[0,0,0,0,0,0,0,0,0,0,0,0,0,0,0,0,0,0,0,0,0,0,0,0,0,0,0,0,0,0,0,0,0,0,0,0,0,0,0,0,0,0,0,0,0,0,0,0,0,0,0,0,0],"sum_hessian":[3.8073825E2,8.04852E1,3.0025305E2,6.797216E1,1.2513036E1,1.2881654E2,1.714365E2,1.5344548E1,5.2627617E1,9.402764E0,3.110272E0,2.3492502E1,1.0532404E2,6.5477264E1,1.0595923E2,8.696458E0,6.648091E0,1.06206455E1,4.200697E1,3.0092447E0,6.3935194E0,1.2313946E1,1.11785555E1,4.96304E1,5.569364E1,5.219461E1,1.3282651E1,3.1513264E1,7.444597E1,5.631771E0,3.0646865E0,3.4504213E0,3.1976693E0,4.948224E0,5.672422E0,2.4062086E1,1.7944883E1,8.540178E0,3.773768E0,7.8087845E0,3.3697712E0,6.167834E0,4.346257E1,4.4056942E1,1.1636702E1,4.1470995E0,4.8047512E1,8.4438E0,4.838852E0,1.2002792E1,1.951047E1,5.4332115E1,2.0113852E1],"tree_param":{"num_deleted":"0","num_feature":"58","num_nodes":"53","size_leaf_vector":"1"}},{"base_weights":[-7.720082E-3,-4.425538E-1,4.652429E-2,-3.444145E-2,-2.9414013E-1,7.6888055E-2,-5.49228E-1,-1.4870593E-1,-2.8799206E-2,-8.370808E-2,1.7243467E-1,-9.8768586E-1,1.2131169E-2,4.8991027E-1,-4.1143602E-1,-3.6207367E-2,-4.1190017E-2,1.041221E-1,6.6193783E-1,-5.26246E-3,-3.8617875E-2,-5.7071033E-3,3.2089144E-2,-2.6218465E-2,5.206148E-3,2.9649539E-2,-2.4036185E-3,1.7005095E-3,2.260725E-2,3.4019638E-2,5.349459E-3],"categories":[],"categories_nodes":[],"categories_segments":[],"categories_sizes":[],"default_left":[0,0,0,0,0,0,0,0,0,0,0,0,0,0,0,0,0,0,0,0,0,0,0,0,0,0,0,0,0,0,0],"id":19,"left_children":[1,3,5,-1,7,9,11,13,-1,15,17,19,-1,21,23,-1,25,27,29,-1,-1,-1,-1,-1,-1,-1,-1,-1,-1,-1,-1],"loss_changes":[8.977099E0,3.939622E0,6.087653E0,0E0,3.2663765E0,4.956744E0,7.2716575E0,5.4186E0,0E0,5.566476E0,6.619206E0,2.4326668E0,0E0,4.0067472E0,6.3682427E0,0E0,4.6756687E0,5.3877144E0,5.2388897E0,0E0,0E0,0E0,0E0,0E0,0E0,0E0,0E0,0E0,0E0,0E0,0E0],"parents":[2147483647,0,0,1,1,2,2,4,4,5,5,6,6,7,7,9,9,10,10,11,11,13,13,14,14,16,16,17,17,18,18],"right_children":[2,4,6,-1,8,10,12,14,-1,16,18,20,-1,22,24,-1,26,28,30,-1,-1,-1,-1,-1,-1,-1,-1,-1,-1,-1,-1],"split_conditions":[1.33E0,4.783E-1,1E0,-3.444145E-2,4.1754E0,3.469E-1,9.469E-1,5.75E0,-2.8799206E-2,-4.444E-1,3.8E-1,-3.333E-1,1.2131169E-2,4.1425E0,2.216E1,-3.6207367E-2,4.305E-1,4.634E-1,-2.7E-3,-5.26246E-3,-3.8617875E-2,-5.7071033E-3,3.2089144E-2,-2.6218465E-2,5.206148E-3,2.9649539E-2,-2.4036185E-3,1.7005095E-3,2.260725E-2,3.4019638E-2,5.349459E-3],"split_indices":[20,0,30,0,5,33,23,8,0,25,1,25,0,7,36,0,21,2,32,0,0,0,0,0,0,0,0,0,0,0,0],"split_type":[0,0,0,0,0,0,0,0,0,0,0,0,0,0,0,0,0,0,0,0,0,0,0,0,0,0,0,0,0,0,0],"sum_hessian":[3.7703876E2,4.122843E1,3.3581033E2,5.877947E0,3.5350483E1,3.205135E2,1.5296849E1,3.0140575E1,5.2099085E0,1.19214066E2,2.0129942E2,1.0526137E1,4.770712E0,8.422574E0,2.1718002E1,3.2635186E0,1.1595055E2,1.7789088E2,2.3408548E1,3.3533182E0,7.172819E0,4.105401E0,4.317173E0,1.1948117E1,9.769884E0,3.242711E0,1.1270783E2,1.6693834E2,1.095254E1,1.1060834E1,1.2347714E1],"tree_param":{"num_deleted":"0","num_feature":"58","num_nodes":"31","size_leaf_vector":"1"}},{"base_weights":[1.9121924E-2,1.0774664E-1,-2.1668117E-1,6.058924E-3,3.5719827E-1,-1.1273002E-1,-9.6865577E-1,-2.40003E-1,1.6153319E-1,5.8730227E-1,5.4043457E-2,-2.2266743E-1,4.4923827E-1,-1.0047202E-3,-4.0074594E-2,2.4354344E-2,-3.0983138E-1,5.2326407E-2,7.8006375E-1,1.772717E-1,9.5182943E-1,7.436202E-1,-1.2450028E-1,-9.363612E-2,-8.929562E-1,-2.0433961E-1,9.5283556E-1,6.573189E-3,-1.4365633E-2,3.116431E-2,-4.6338304E-4,2.9707314E-3,3.4971964E-2,2.114917E-2,-1.0065337E-2,3.7794925E-2,1.1724632E-2,4.3276504E-2,-5.575899E-3,-9.708027E-3,2.165399E-2,-5.5713253E-3,1.9341888E-2,-3.6283284E-2,-3.6467086E-3,1.6093485E-2,-2.7181473E-2,4.838446E-2,3.8778496E-3],"categories":[],"categories_nodes":[],"categories_segments":[],"categories_sizes":[],"default_left":[0,0,0,0,0,0,0,0,0,0,0,0,0,0,0,0,0,0,0,0,0,0,0,0,0,0,0,0,0,0,0,0,0,0,0,0,0,0,0,0,0,0,0,0,0,0,0,0,0],"id":20,"left_children":[1,3,5,7,9,11,13,15,17,19,21,23,25,-1,-1,-1,27,29,31,33,35,37,39,41,43,45,47,-1,-1,-1,-1,-1,-1,-1,-1,-1,-1,-1,-1,-1,-1,-1,-1,-1,-1,-1,-1,-1,-1],"loss_changes":[8.028973E0,7.0586853E0,7.97579E0,7.684704E0,5.535136E0,5.843584E0,4.103774E0,5.902135E0,8.214539E0,6.5343313E0,4.6017346E0,6.639824E0,5.3559723E0,0E0,0E0,0E0,6.7108655E0,7.2139826E0,4.5687885E0,6.448297E0,3.4519615E0,5.387967E0,5.1533074E0,4.6551933E0,2.7693758E0,4.4020853E0,4.50447E0,0E0,0E0,0E0,0E0,0E0,0E0,0E0,0E0,0E0,0E0,0E0,0E0,0E0,0E0,0E0,0E0,0E0,0E0,0E0,0E0,0E0,0E0],"parents":[2147483647,0,0,1,1,2,2,3,3,4,4,5,5,6,6,7,7,8,8,9,9,10,10,11,11,12,12,16,16,17,17,18,18,19,19,20,20,21,21,22,22,23,23,24,24,25,25,26,26],"right_children":[2,4,6,8,10,12,14,16,18,20,22,24,26,-1,-1,-1,28,30,32,34,36,38,40,42,44,46,48,-1,-1,-1,-1,-1,-1,-1,-1,-1,-1,-1,-1,-1,-1,-1,-1,-1,-1,-1,-1,-1,-1],"split_conditions":[4.5611E0,3.2621E0,9.252E-1,3.469E-1,4.098E-1,7.896E-1,2.212E1,1.1984E0,1.7E1,3.2784E0,4.0833E0,3.173E1,-1.6408E0,-1.0047202E-3,-4.0074594E-2,2.4354344E-2,2.188E-1,3.644E-1,2E0,7.63E-2,5E0,-1.11E-2,6.0552E0,2.859E1,2.845E1,-1.429E-1,2.4026E0,6.573189E-3,-1.4365633E-2,3.116431E-2,-4.6338304E-4,2.9707314E-3,3.4971964E-2,2.114917E-2,-1.0065337E-2,3.7794925E-2,1.1724632E-2,4.3276504E-2,-5.575899E-3,-9.708027E-3,2.165399E-2,-5.5713253E-3,1.9341888E-2,-3.6283284E-2,-3.6467086E-3,1.6093485E-2,-2.7181473E-2,4.838446E-2,3.8778496E-3],"split_indices":[28,28,21,33,33,21,48,28,9,6,7,48,51,0,0,0,33,33,31,25,9,25,42,48,36,25,51,0,0,0,0,0,0,0,0,0,0,0,0,0,0,0,0,0,0,0,0,0,0],"split_type":[0,0,0,0,0,0,0,0,0,0,0,0,0,0,0,0,0,0,0,0,0,0,0,0,0,0,0,0,0,0,0,0,0,0,0,0,0,0,0,0,0,0,0,0,0,0,0,0,0],"sum_hessian":[3.8260254E2,2.7878903E2,1.0381349E2,1.9906596E2,7.9723076E1,9.233256E1,1.1480935E1,7.6618515E1,1.2244745E2,4.460177E1,3.5121307E1,7.787889E1,1.4453667E1,3.6212363E0,7.8596983E0,4.0192494E0,7.2599266E1,1.0513181E2,1.7315636E1,2.181936E1,2.278241E1,6.6875663E0,2.8433743E1,6.638801E1,1.1490879E1,6.4623623E0,7.9913044E0,1.7366117E1,5.5233147E1,5.9321513E0,9.919966E1,6.8086E0,1.0507036E1,1.0664662E1,1.1154697E1,1.3788451E1,8.993959E0,3.5635397E0,3.1240268E0,2.361408E1,4.819662E0,5.9813183E1,6.5748277E0,7.653387E0,3.8374918E0,3.1888843E0,3.2734778E0,3.8368602E0,4.154444E0],"tree_param":{"num_deleted":"0","num_feature":"58","num_nodes":"49","size_leaf_vector":"1"}},{"base_weights":[-2.0260656E-2,8.397611E-2,-3.0408302E-1,3.1779867E-1,-3.335648E-2,2.2969829E-2,-3.5663256E-1,4.683855E-1,-1.3171488E-1,2.6590234E-2,-7.4237484E-1,-2.504821E-1,-8.6559194E-1,3.408029E-1,1.2451687E0,2.446875E-1,-7.17019E-1,4.1174096E-1,-6.019652E-2,-4.6420943E-2,-3.13133E-1,-5.209808E-1,5.8393262E-2,-1.1071426E0,8.3005603E-4,-2.59795E-3,1.8408293E-2,4.6700172E-2,1.385425E-2,2.0851452E-2,-1.5497219E-2,-3.874069E-2,2.4645715E-3,1.8667405E-2,-2.6455447E-2,-2.8320484E-2,2.4003263E-4,-2.4484904E-2,9.287819E-3,-2.0349253E-2,4.2832918E-3,5.327936E-3,-2.6626203E-2,-1.5221226E-2,-4.256443E-2],"categories":[],"categories_nodes":[],"categories_segments":[],"categories_sizes":[],"default_left":[0,0,0,0,0,0,0,0,0,0,0,0,0,0,0,0,0,0,0,0,0,0,0,0,0,0,0,0,0,0,0,0,0,0,0,0,0,0,0,0,0,0,0,0,0],"id":21,"left_children":[1,3,5,7,9,-1,11,13,15,17,19,21,23,25,27,29,31,33,35,-1,37,39,41,43,-1,-1,-1,-1,-1,-1,-1,-1,-1,-1,-1,-1,-1,-1,-1,-1,-1,-1,-1,-1,-1],"loss_changes":[1.1236971E1,7.6426373E0,5.9698067E0,6.3895617E0,7.961435E0,0E0,4.969349E0,6.35804E0,5.4984508E0,5.7946715E0,4.3741093E0,6.9868584E0,3.6669064E0,7.293456E0,1.3713608E0,5.5935807E0,4.6935024E0,9.206496E0,8.580299E0,0E0,3.7042656E0,4.7834187E0,4.5226855E0,1.5146646E0,0E0,0E0,0E0,0E0,0E0,0E0,0E0,0E0,0E0,0E0,0E0,0E0,0E0,0E0,0E0,0E0,0E0,0E0,0E0,0E0,0E0],"parents":[2147483647,0,0,1,1,2,2,3,3,4,4,6,6,7,7,8,8,9,9,10,10,11,11,12,12,13,13,14,14,15,15,16,16,17,17,18,18,20,20,21,21,22,22,23,23],"right_children":[2,4,6,8,10,-1,12,14,16,18,20,22,24,26,28,30,32,34,36,-1,38,40,42,44,-1,-1,-1,-1,-1,-1,-1,-1,-1,-1,-1,-1,-1,-1,-1,-1,-1,-1,-1,-1,-1],"split_conditions":[4.6667E0,2.84E0,3.5651E0,8.333E-1,2.9911E0,2.2969829E-2,1.0769E0,1.0538E0,1.3798E0,4.5868E0,2E0,2.5187E0,2.539E0,4.992E-1,2.48E0,2.396E1,1E0,1.59E-2,1.55E1,-4.6420943E-2,-1.25E-2,8.3532E0,1E0,5.795E-1,8.3005603E-4,-2.59795E-3,1.8408293E-2,4.6700172E-2,1.385425E-2,2.0851452E-2,-1.5497219E-2,-3.874069E-2,2.4645715E-3,1.8667405E-2,-2.6455447E-2,-2.8320484E-2,2.4003263E-4,-2.4484904E-2,9.287819E-3,-2.0349253E-2,4.2832918E-3,5.327936E-3,-2.6626203E-2,-1.5221226E-2,-4.256443E-2],"split_indices":[28,20,7,0,28,0,22,23,17,42,9,42,40,37,20,36,18,32,8,0,32,44,30,21,0,0,0,0,0,0,0,0,0,0,0,0,0,0,0,0,0,0,0,0,0],"split_type":[0,0,0,0,0,0,0,0,0,0,0,0,0,0,0,0,0,0,0,0,0,0,0,0,0,0,0,0,0,0,0,0,0,0,0,0,0,0,0,0,0,0,0,0,0],"sum_hessian":[3.7721625E2,2.761493E2,1.0106696E2,9.198455E1,1.8416473E2,4.0077844E0,9.705917E1,6.90375E1,2.2947052E1,1.7056511E2,1.3599634E1,8.170674E1,1.5352435E1,6.064444E1,8.39306E0,1.4216001E1,8.7310505E0,3.088934E1,1.3967577E2,3.7427397E0,9.8568945E0,4.3365932E1,3.834081E1,1.1984234E1,3.3682013E0,2.3750692E1,3.6893745E1,5.207475E0,3.185584E0,9.069086E0,5.146915E0,4.794597E0,3.9364533E0,2.7079044E1,3.810295E0,9.190731E0,1.3048503E2,5.3694673E0,4.487427E0,3.5160675E1,8.205256E0,3.4865143E1,3.4756677E0,5.106417E0,6.877816E0],"tree_param":{"num_deleted":"0","num_feature":"58","num_nodes":"45","size_leaf_vector":"1"}},{"base_weights":[-8.391484E-3,2.7139485E-2,-7.165822E-1,-2.1762097E-2,3.984514E-1,-3.688287E-2,-1.4340247E-1,-8.0900565E-2,3.2940316E-1,5.303092E-1,-2.3499405E-2,-2.3384664E-2,1.815238E-2,4.5665458E-1,-1.2341009E-1,1.004928E0,1.0425059E-1,-1.0516277E-2,6.956316E-1,2.1319736E-4,3.4664314E-2,-6.057784E-3,5.453014E-3,4.005344E-2,9.004014E-3,1.900395E-2,-7.3657962E-3,2.8094038E-2,9.13339E-4],"categories":[],"categories_nodes":[],"categories_segments":[],"categories_sizes":[],"default_left":[0,0,0,0,0,0,0,0,0,0,0,0,0,0,0,0,0,0,0,0,0,0,0,0,0,0,0,0,0],"id":22,"left_children":[1,3,5,7,9,-1,11,13,15,17,-1,-1,-1,19,21,23,25,-1,27,-1,-1,-1,-1,-1,-1,-1,-1,-1,-1],"loss_changes":[9.546842E0,6.5606585E0,5.0154963E0,6.600062E0,6.9409976E0,0E0,5.147751E0,6.260834E0,6.7423935E0,5.883836E0,0E0,0E0,0E0,6.172774E0,6.1232057E0,2.0443287E0,6.772761E0,0E0,5.1358843E0,0E0,0E0,0E0,0E0,0E0,0E0,0E0,0E0,0E0,0E0],"parents":[2147483647,0,0,1,1,2,2,3,3,4,4,6,6,7,7,8,8,9,9,13,13,14,14,15,15,16,16,18,18],"right_children":[2,4,6,8,10,-1,12,14,16,18,-1,-1,-1,20,22,24,26,-1,28,-1,-1,-1,-1,-1,-1,-1,-1,-1,-1],"split_conditions":[1E0,3.571E-1,1.425E1,1.1667E0,3.7944E0,-3.688287E-2,-3.55E-2,3.7465E0,1.742E1,2.746E-1,-2.3499405E-2,-2.3384664E-2,1.815238E-2,5.292E-1,8.6362E0,-4.0899E0,-7.0653E0,-1.0516277E-2,1.353E-1,2.1319736E-4,3.4664314E-2,-6.057784E-3,5.453014E-3,4.005344E-2,9.004014E-3,1.900395E-2,-7.3657962E-3,2.8094038E-2,9.13339E-4],"split_indices":[30,1,8,23,5,0,41,7,36,33,0,0,0,37,42,51,44,0,23,0,0,0,0,0,0,0,0,0,0],"split_type":[0,0,0,0,0,0,0,0,0,0,0,0,0,0,0,0,0,0,0,0,0,0,0,0,0,0,0,0,0],"sum_hessian":[3.7489166E2,3.5776263E2,1.7129005E1,3.1672253E2,4.1040115E1,8.343947E0,8.785058E0,2.7197467E2,4.4747875E1,3.7492672E1,3.547446E0,4.798933E0,3.9861255E0,1.9045065E1,2.529296E2,1.0209343E1,3.4538532E1,5.6521726E0,3.1840498E1,1.2291372E1,6.753692E0,2.0170174E2,5.122785E1,6.246652E0,3.9626908E0,1.3534945E1,2.1003588E1,2.2966963E1,8.873535E0],"tree_param":{"num_deleted":"0","num_feature":"58","num_nodes":"29","size_leaf_vector":"1"}},{"base_weights":[-3.191215E-2,-3.6885062E-1,5.329301E-2,-6.7068535E-1,-1.0800291E-1,5.206251E-1,-5.397393E-3,-8.6963046E-1,1.8617834E-1,2.0428011E-1,-4.976122E-1,1.1507298E0,1.0302033E-1,-1.03750594E-1,2.5198758E-1,-5.1614206E-2,-1.2014029E0,2.0029455E-2,-9.179093E-3,-7.5457454E-2,2.9545847E-2,-1.2936153E-1,-3.2743275E-2,4.1612193E-2,8.163062E-3,8.07298E-1,-2.9621893E-1,1.9298843E-1,-2.5163755E-1,7.332736E-1,3.1543568E-2,2.0228252E-2,-2.8381202E-2,-3.9778404E-2,-1.702758E-2,2.2131233E-2,-1.176997E-2,6.246279E-3,-2.5861984E-2,1.08083565E-4,3.850551E-2,6.920733E-3,-2.5455344E-2,8.448915E-3,-3.137308E-2,-9.0137655E-3,2.6799556E-2,-2.5617932E-3,3.2373663E-2,-2.3558987E-2,1.0614723E-2],"categories":[],"categories_nodes":[],"categories_segments":[],"categories_sizes":[],"default_left":[0,0,0,0,0,0,0,0,0,0,0,0,0,0,0,0,0,0,0,0,0,0,0,0,0,0,0,0,0,0,0,0,0,0,0,0,0,0,0,0,0,0,0,0,0,0,0,0,0,0,0],"id":23,"left_children":[1,3,5,7,9,11,13,15,17,19,21,23,25,27,29,31,33,-1,-1,35,-1,37,-1,-1,-1,39,41,43,45,47,49,-1,-1,-1,-1,-1,-1,-1,-1,-1,-1,-1,-1,-1,-1,-1,-1,-1,-1,-1,-1],"loss_changes":[1.0963904E1,5.918847E0,8.39324E0,6.2589607E0,5.32864E0,8.734809E0,6.8692527E0,7.675728E0,1.9922146E0,5.4669E0,3.987894E0,2.2407112E0,6.396039E0,8.69944E0,7.8481026E0,6.82775E0,6.747608E-1,0E0,0E0,5.0755615E0,0E0,3.519064E0,0E0,0E0,0E0,3.010973E0,4.477116E0,7.450415E0,7.5951385E0,6.8013268E0,1.4072602E1,0E0,0E0,0E0,0E0,0E0,0E0,0E0,0E0,0E0,0E0,0E0,0E0,0E0,0E0,0E0,0E0,0E0,0E0,0E0,0E0],"parents":[2147483647,0,0,1,1,2,2,3,3,4,4,5,5,6,6,7,7,8,8,9,9,10,10,11,11,12,12,13,13,14,14,15,15,16,16,19,19,21,21,25,25,26,26,27,27,28,28,29,29,30,30],"right_children":[2,4,6,8,10,12,14,16,18,20,22,24,26,28,30,32,34,-1,-1,36,-1,38,-1,-1,-1,40,42,44,46,48,50,-1,-1,-1,-1,-1,-1,-1,-1,-1,-1,-1,-1,-1,-1,-1,-1,-1,-1,-1,-1],"split_conditions":[1.69E0,2.3084E0,4.0218E0,2.941E-1,1E0,2.7247E0,7.686E-1,1.941E1,7.366E-1,5.413E-1,1.0098E0,2.125E1,6.268E-1,1.379E-1,3.368E-1,1.9641E0,7.1862E0,2.0029455E-2,-9.179093E-3,1.071E-1,2.9545847E-2,3.135E1,-3.2743275E-2,4.1612193E-2,8.163062E-3,4.908E-1,1.986E1,7.9051E0,1.66741E1,1.3084E0,5.915E-1,2.0228252E-2,-2.8381202E-2,-3.9778404E-2,-1.702758E-2,2.2131233E-2,-1.176997E-2,6.246279E-3,-2.5861984E-2,1.08083565E-4,3.850551E-2,6.920733E-3,-2.5455344E-2,8.448915E-3,-3.137308E-2,-9.0137655E-3,2.6799556E-2,-2.5617932E-3,3.2373663E-2,-2.3558987E-2,1.0614723E-2],"split_indices":[20,42,7,1,54,6,38,48,38,37,22,8,21,3,22,42,44,0,0,3,0,48,0,0,0,37,48,44,42,5,22,0,0,0,0,0,0,0,0,0,0,0,0,0,0,0,0,0,0,0,0],"split_type":[0,0,0,0,0,0,0,0,0,0,0,0,0,0,0,0,0,0,0,0,0,0,0,0,0,0,0,0,0,0,0,0,0,0,0,0,0,0,0,0,0,0,0,0,0,0,0,0,0,0,0],"sum_hessian":[3.7911533E2,7.608533E1,3.0303E2,3.436547E1,4.1719856E1,3.312219E1,2.699078E2,2.7972637E1,6.392833E0,2.3279602E1,1.8440256E1,1.2406932E1,2.0715258E1,1.9599765E2,7.391016E1,8.4919405E0,1.9480696E1,3.1539261E0,3.2389073E0,1.7708586E1,5.571017E0,1.2237614E1,6.202642E0,9.231297E0,3.1756356E0,7.215372E0,1.3499885E1,6.4864395E1,1.3113326E2,2.234509E1,5.1565063E1,4.761766E0,3.7301745E0,1.5236896E1,4.2438006E0,4.504772E0,1.3203814E1,8.774425E0,3.463189E0,3.137647E0,4.077725E0,7.114037E0,6.3858476E0,6.132922E1,3.5351717E0,1.26561554E2,4.5717072E0,6.774038E0,1.5571053E1,1.4094515E1,3.7470547E1],"tree_param":{"num_deleted":"0","num_feature":"58","num_nodes":"51","size_leaf_vector":"1"}},{"base_weights":[-4.22579E-3,-2.5422704E-1,8.496222E-2,-1.8526459E-1,-1.034513E0,-1.9753633E-2,2.64296E-1,-3.01087E-1,5.3867394E-1,-1.4458124E-2,-3.8766153E-2,3.253775E-1,-1.0170595E-1,5.795985E-1,1.3881609E-2,-8.967808E-1,-1.8384859E-1,-1.2046007E-2,1.1062516E0,7.583282E-1,-4.614438E-1,-2.3762405E-1,2.013384E-1,1.0020002E-1,8.7307256E-1,2.3433124E-1,-5.5037147E-1,-6.91651E-3,-4.0753063E-2,4.1634496E-3,-1.3772246E-2,4.3485455E-2,1.48967635E-2,3.6825144E-4,3.2341506E-2,-3.5849534E-2,2.2946173E-2,-1.6621225E-2,-3.4771443E-4,1.4537634E-2,-1.4253325E-2,1.612304E-2,-2.4147669E-2,3.5113342E-2,5.375426E-3,1.1717316E-2,-1.8816251E-2,-2.7431207E-2,1.0163506E-2],"categories":[],"categories_nodes":[],"categories_segments":[],"categories_sizes":[],"default_left":[0,0,0,0,0,0,0,0,0,0,0,0,0,0,0,0,0,0,0,0,0,0,0,0,0,0,0,0,0,0,0,0,0,0,0,0,0,0,0,0,0,0,0,0,0,0,0,0,0],"id":24,"left_children":[1,3,5,7,9,11,13,15,17,-1,-1,19,21,23,25,27,29,-1,31,33,35,37,39,41,43,45,47,-1,-1,-1,-1,-1,-1,-1,-1,-1,-1,-1,-1,-1,-1,-1,-1,-1,-1,-1,-1,-1,-1],"loss_changes":[8.466187E0,5.063682E0,5.2697954E0,7.9490533E0,3.0749226E-1,5.0099607E0,8.088055E0,5.38847E0,7.498556E0,0E0,0E0,1.1934678E1,5.975688E0,6.219486E0,7.4077797E0,3.505559E0,6.234413E0,0E0,8.631735E-1,5.2066507E0,1.2272917E1,7.0877557E0,8.82425E0,7.7446203E0,5.42807E0,6.0215592E0,5.7664676E0,0E0,0E0,0E0,0E0,0E0,0E0,0E0,0E0,0E0,0E0,0E0,0E0,0E0,0E0,0E0,0E0,0E0,0E0,0E0,0E0,0E0,0E0],"parents":[2147483647,0,0,1,1,2,2,3,3,4,4,5,5,6,6,7,7,8,8,11,11,12,12,13,13,14,14,15,15,16,16,18,18,19,19,20,20,21,21,22,22,23,23,24,24,25,25,26,26],"right_children":[2,4,6,8,10,12,14,16,18,-1,-1,20,22,24,26,28,30,-1,32,34,36,38,40,42,44,46,48,-1,-1,-1,-1,-1,-1,-1,-1,-1,-1,-1,-1,-1,-1,-1,-1,-1,-1,-1,-1,-1,-1],"split_conditions":[1.93E0,1E0,2.1401E0,1.0538E0,-9.4E-2,-7.0653E0,2.3191E0,-4.0899E0,-2.759E-1,-1.4458124E-2,-3.8766153E-2,5.52E-2,1E0,1.9661E0,8.667E-1,-3.387E-1,2.3172E0,-1.2046007E-2,1.071E-1,6.329E-1,1.493E-1,4.815E-1,4.29E0,3.158E-1,4.6399E0,3.513E1,3.1906E0,-6.91651E-3,-4.0753063E-2,4.1634496E-3,-1.3772246E-2,4.3485455E-2,1.48967635E-2,3.6825144E-4,3.2341506E-2,-3.5849534E-2,2.2946173E-2,-1.6621225E-2,-3.4771443E-4,1.4537634E-2,-1.4253325E-2,1.612304E-2,-2.4147669E-2,3.5113342E-2,5.375426E-3,1.1717316E-2,-1.8816251E-2,-2.7431207E-2,1.0163506E-2],"split_indices":[20,30,40,23,41,44,40,51,25,0,0,41,11,5,21,25,5,0,3,0,41,3,20,22,6,48,6,0,0,0,0,0,0,0,0,0,0,0,0,0,0,0,0,0,0,0,0,0,0],"split_type":[0,0,0,0,0,0,0,0,0,0,0,0,0,0,0,0,0,0,0,0,0,0,0,0,0,0,0,0,0,0,0,0,0,0,0,0,0,0,0,0,0,0,0,0,0,0,0,0,0],"sum_hessian":[3.7697092E2,9.893074E1,2.7804016E2,9.2151855E1,6.778885E0,1.7574948E2,1.0229069E2,8.006461E1,1.2087247E1,3.192149E0,3.5867362E0,3.292015E1,1.4282933E2,4.4520283E1,5.7770405E1,1.1932556E1,6.813206E1,4.593821E0,7.4934263E0,2.1340685E1,1.1579467E1,9.8981224E1,4.3848103E1,1.754393E1,2.6976353E1,4.2088615E1,1.5681789E1,5.586496E0,6.34606E0,3.1425896E1,3.6706158E1,3.8080077E0,3.6854184E0,6.807332E0,1.4533353E1,7.312483E0,4.266984E0,4.0455444E1,5.8525776E1,3.121071E1,1.2637392E1,1.2177902E1,5.366029E0,1.8302002E1,8.67435E0,3.6188343E1,5.9002748E0,1.1186404E1,4.4953847E0],"tree_param":{"num_deleted":"0","num_feature":"58","num_nodes":"49","size_leaf_vector":"1"}},{"base_weights":[1.3617848E-2,-4.1800272E-1,6.530631E-2,-5.348454E-1,1.2598043E-2,2.996107E-2,5.0135016E-2,-1.1065487E0,-3.220448E-1,4.1235968E-1,1.2028018E-2,-3.949707E-2,-1.5379589E-2,2.6109995E-2,-7.7702206E-1,-3.2109386E-1,6.246247E-1,7.643342E-2,-2.3934089E-1,1.5935337E-2,-1.6695749E-2,-3.6201138E-2,1.6484368E-3,-2.3364155E-2,7.0208474E-3,4.501509E-3,3.4249265E-2,-3.3820717E-4,9.699727E-3,-2.8562527E-2,-3.2788578E-3],"categories":[],"categories_nodes":[],"categories_segments":[],"categories_sizes":[],"default_left":[0,0,0,0,0,0,0,0,0,0,0,0,0,0,0,0,0,0,0,0,0,0,0,0,0,0,0,0,0,0,0],"id":25,"left_children":[1,3,5,7,-1,-1,9,11,13,15,17,-1,-1,19,21,23,25,27,29,-1,-1,-1,-1,-1,-1,-1,-1,-1,-1,-1,-1],"loss_changes":[8.506371E0,4.225172E0,4.6866007E0,3.9172535E0,0E0,0E0,4.612423E0,3.0326843E-1,4.529534E0,5.190256E0,4.9678617E0,0E0,0E0,5.2077146E0,4.5756154E0,2.1943336E0,5.8704586E0,5.345426E0,5.5816436E0,0E0,0E0,0E0,0E0,0E0,0E0,0E0,0E0,0E0,0E0,0E0,0E0],"parents":[2147483647,0,0,1,1,2,2,3,3,6,6,7,7,8,8,9,9,10,10,13,13,14,14,15,15,16,16,17,17,18,18],"right_children":[2,4,6,8,-1,-1,10,12,14,16,18,-1,-1,20,22,24,26,28,30,-1,-1,-1,-1,-1,-1,-1,-1,-1,-1,-1,-1],"split_conditions":[1.33E0,1.8065E0,3E1,-2.4889E0,1.2598043E-2,2.996107E-2,-8.717E0,8.75E0,4.649E-1,-6.2087E0,2.9E1,-3.949707E-2,-1.5379589E-2,2.295E-1,7.727E-1,2.624E1,2.2991E0,2.5E-1,6.688E-1,1.5935337E-2,-1.6695749E-2,-3.6201138E-2,1.6484368E-3,-2.3364155E-2,7.0208474E-3,4.501509E-3,3.4249265E-2,-3.3820717E-4,9.699727E-3,-2.8562527E-2,-3.2788578E-3],"split_indices":[20,23,24,17,0,0,57,8,33,51,8,0,0,22,3,48,5,1,21,0,0,0,0,0,0,0,0,0,0,0,0],"split_type":[0,0,0,0,0,0,0,0,0,0,0,0,0,0,0,0,0,0,0,0,0,0,0,0,0,0,0,0,0,0,0],"sum_hessian":[3.8064127E2,3.9743618E1,3.4089764E2,3.5302113E1,4.441503E0,4.310004E0,3.3658765E2,8.3091545E0,2.6992958E1,3.0854649E1,3.05733E2,5.1150837E0,3.1940708E0,1.5701092E1,1.1291867E1,6.7044616E0,2.4150187E1,2.442463E2,6.1486706E1,8.549634E0,7.1514573E0,7.2284236E0,4.0634437E0,3.5525208E0,3.151941E0,1.3365516E1,1.0784671E1,1.8062816E2,6.3618137E1,8.393605E0,5.30931E1],"tree_param":{"num_deleted":"0","num_feature":"58","num_nodes":"31","size_leaf_vector":"1"}},{"base_weights":[-3.715936E-3,2.7981255E-2,-6.2332803E-1,-2.4106501E-1,8.054535E-2,-1.0041287E0,5.09344E-3,-7.665053E-1,2.4694169E-1,3.7987968E-1,-6.6952542E-3,-5.780179E-3,-3.8757995E-2,-4.2075476E-1,-1.156933E0,4.7057593E-1,-5.046407E-1,6.011997E-1,-1.4164773E-1,6.637305E-2,-5.665462E-1,-3.7160244E-2,1.312048E-4,-4.253367E-2,-1.5464082E-2,2.5560537E-2,-2.0585689E-3,1.5377883E-3,-2.8470865E-2,2.250401E-2,-8.6143175E-3,-1.659756E-2,1.8614646E-2,4.4036387E-3,-1.3311314E-2,-2.1474957E-3,-2.946613E-2],"categories":[],"categories_nodes":[],"categories_segments":[],"categories_sizes":[],"default_left":[0,0,0,0,0,0,0,0,0,0,0,0,0,0,0,0,0,0,0,0,0,0,0,0,0,0,0,0,0,0,0,0,0,0,0,0,0],"id":26,"left_children":[1,3,5,7,9,11,-1,13,15,17,19,-1,-1,21,23,25,27,29,31,33,35,-1,-1,-1,-1,-1,-1,-1,-1,-1,-1,-1,-1,-1,-1,-1,-1],"loss_changes":[7.360933E0,5.0044403E0,5.7644486E0,1.5045978E1,7.792927E0,2.5351696E0,0E0,3.1546688E0,5.376004E0,7.896559E0,9.521451E0,0E0,0E0,5.912687E0,1.1692734E0,5.11343E0,1.9653354E0,6.553879E0,6.8360605E0,8.433038E0,5.355818E0,0E0,0E0,0E0,0E0,0E0,0E0,0E0,0E0,0E0,0E0,0E0,0E0,0E0,0E0,0E0,0E0],"parents":[2147483647,0,0,1,1,2,2,3,3,4,4,5,5,7,7,8,8,9,9,10,10,13,13,14,14,15,15,16,16,17,17,18,18,19,19,20,20],"right_children":[2,4,6,8,10,12,-1,14,16,18,20,-1,-1,22,24,26,28,30,32,34,36,-1,-1,-1,-1,-1,-1,-1,-1,-1,-1,-1,-1,-1,-1,-1,-1],"split_conditions":[1E0,1.4334E0,2.446E1,2.372E1,7.1355E0,-1.587E-1,5.09344E-3,8.14E-2,8.136E-1,5.204E-1,9.299E-1,-5.780179E-3,-3.8757995E-2,1E0,8E0,9E0,3E0,3.25E1,6.774E-1,4.058E0,2.4486E0,-3.7160244E-2,1.312048E-4,-4.253367E-2,-1.5464082E-2,2.5560537E-2,-2.0585689E-3,1.5377883E-3,-2.8470865E-2,2.250401E-2,-8.6143175E-3,-1.659756E-2,1.8614646E-2,4.4036387E-3,-1.3311314E-2,-2.1474957E-3,-2.946613E-2],"split_indices":[30,5,36,48,57,41,0,25,0,33,21,0,0,26,9,9,31,36,33,5,44,0,0,0,0,0,0,0,0,0,0,0,0,0,0,0,0],"split_type":[0,0,0,0,0,0,0,0,0,0,0,0,0,0,0,0,0,0,0,0,0,0,0,0,0,0,0,0,0,0,0,0,0,0,0,0,0],"sum_hessian":[3.6987424E2,3.5262845E2,1.724579E1,5.673665E1,2.9589178E2,1.1556915E1,5.688875E0,2.7144356E1,2.9592293E1,6.627729E1,2.296145E2,3.5538518E0,8.003063E0,1.5633564E1,1.1510792E1,2.319695E1,6.3953414E0,4.6558353E1,1.9718939E1,2.03728E2,2.5886501E1,4.772721E0,1.0860844E1,7.2118883E0,4.2989035E0,1.3354727E1,9.842225E0,3.1342385E0,3.2611032E0,4.010308E1,6.4552712E0,1.3067114E1,6.6518254E0,1.7676862E2,2.695938E1,1.246092E1,1.3425582E1],"tree_param":{"num_deleted":"0","num_feature":"58","num_nodes":"37","size_leaf_vector":"1"}},{"base_weights":[4.2154614E-4,9.2172846E-2,-2.492928E-1,6.5855867E-1,4.7143277E-2,-7.974653E-1,-1.7048109E-1,9.326044E-1,-1.7428568E-3,-9.3549274E-2,2.0970355E-1,-1.1958548E0,1.4946625E-3,2.1508282E-2,-5.027473E-1,1.1759682E0,-0E0,-1.9378327E-1,5.7015353E-1,3.0896151E-2,5.4773384E-1,-1.7342959E-2,-4.3096986E-2,3.177722E-1,-3.2545587E-1,-9.7043777E-1,-1.3393411E-1,1.4732217E-2,4.3493077E-2,2.1501204E-3,-1.0041631E-2,-2.4352722E-2,2.8793292E-2,5.392675E-3,-1.4751348E-2,3.388012E-2,4.9426504E-3,-1.0379376E-2,1.9861175E-2,-2.2873908E-2,8.442357E-4,-4.8092543E-3,-3.5659306E-2,7.312252E-3,-3.2770403E-2],"categories":[],"categories_nodes":[],"categories_segments":[],"categories_sizes":[],"default_left":[0,0,0,0,0,0,0,0,0,0,0,0,0,0,0,0,0,0,0,0,0,0,0,0,0,0,0,0,0,0,0,0,0,0,0,0,0,0,0,0,0,0,0,0,0],"id":27,"left_children":[1,3,5,7,9,11,13,15,-1,17,19,21,-1,23,25,27,-1,29,31,33,35,-1,-1,37,39,41,43,-1,-1,-1,-1,-1,-1,-1,-1,-1,-1,-1,-1,-1,-1,-1,-1,-1,-1],"loss_changes":[8.7448E0,7.037259E0,4.19323E0,4.1430473E0,5.98997E0,4.3754063E0,5.864052E0,3.3077593E0,0E0,9.388011E0,7.2697296E0,2.447977E-1,0E0,6.1102443E0,5.5479584E0,1.2995796E0,0E0,4.6344047E0,1.0751999E1,6.337366E0,8.99198E0,0E0,0E0,7.615533E0,4.306777E0,2.240594E0,7.605622E0,0E0,0E0,0E0,0E0,0E0,0E0,0E0,0E0,0E0,0E0,0E0,0E0,0E0,0E0,0E0,0E0,0E0,0E0],"parents":[2147483647,0,0,1,1,2,2,3,3,4,4,5,5,6,6,7,7,9,9,10,10,11,11,13,13,14,14,15,15,17,17,18,18,19,19,20,20,23,23,24,24,25,25,26,26],"right_children":[2,4,6,8,10,12,14,16,-1,18,20,22,-1,24,26,28,-1,30,32,34,36,-1,-1,38,40,42,44,-1,-1,-1,-1,-1,-1,-1,-1,-1,-1,-1,-1,-1,-1,-1,-1,-1,-1],"split_conditions":[4.6667E0,1.05E1,4.471E-1,4.8749E0,2.2991E0,6E0,-4.5E-3,8.095E-1,-1.7428568E-3,3.913E-1,2.1347E0,2.143E-1,1.4946625E-3,2.7053E0,6.76E-2,2.12E0,-0E0,3E0,2.039E1,2.055E-1,2.3191E0,-1.7342959E-2,-4.3096986E-2,-1.4203E0,3.5493E0,4.8353E0,1.831E-1,1.4732217E-2,4.3493077E-2,2.1501204E-3,-1.0041631E-2,-2.4352722E-2,2.8793292E-2,5.392675E-3,-1.4751348E-2,3.388012E-2,4.9426504E-3,-1.0379376E-2,1.9861175E-2,-2.2873908E-2,8.442357E-4,-4.8092543E-3,-3.5659306E-2,7.312252E-3,-3.2770403E-2],"split_indices":[28,8,37,42,5,31,41,3,0,2,40,3,0,5,41,20,0,31,48,2,40,0,0,17,5,7,25,0,0,0,0,0,0,0,0,0,0,0,0,0,0,0,0,0,0],"split_type":[0,0,0,0,0,0,0,0,0,0,0,0,0,0,0,0,0,0,0,0,0,0,0,0,0,0,0,0,0,0,0,0,0,0,0,0,0,0,0,0,0,0,0,0,0],"sum_hessian":[3.8035825E2,2.789108E2,1.01447464E2,1.9374233E1,2.5953656E2,1.1446212E1,9.000125E1,1.3897924E1,5.476309E0,1.3902376E2,1.2051281E2,7.585967E0,3.8602443E0,5.7443607E1,3.2557644E1,1.0761683E1,3.1362417E0,1.2152887E2,1.7494886E1,7.972698E1,4.078583E1,3.1973715E0,4.388596E0,3.118655E1,2.625706E1,1.3515857E1,1.9041786E1,3.9756482E0,6.786035E0,4.207092E1,7.945795E1,3.5530078E0,1.3941878E1,6.2711586E1,1.7015392E1,1.5316218E1,2.5469614E1,1.0550192E1,2.0636358E1,1.1352767E1,1.4904291E1,3.333303E0,1.0182554E1,1.4119244E1,4.922542E0],"tree_param":{"num_deleted":"0","num_feature":"58","num_nodes":"45","size_leaf_vector":"1"}},{"base_weights":[-3.337522E-2,-4.3153805E-1,6.1430793E-2,-3.0461743E-1,-1.0651981E0,1.3220694E-3,3.6871627E-1,-3.8640267E-1,1.736006E-2,-4.2936098E-2,-8.724259E-3,-1.1535306E-1,2.2080153E-1,5.508307E-1,-4.3226323E-1,-2.616421E-1,-3.546835E-2,7.864613E-2,-4.133102E-1,-2.5326425E-2,5.0927955E-1,1.1121932E0,3.477519E-1,1.4687863E-2,-2.9627772E-2,-2.7123976E-3,-2.4717806E-2,1.0928164E-2,-6.3306065E-3,-2.2993589E-2,-2.599872E-3,-4.0621646E-3,2.793766E-2,3.0193316E-2,4.8651192E-3,4.2976975E-2,1.057605E-2,-4.4232295E-3,2.1036165E-2],"categories":[],"categories_nodes":[],"categories_segments":[],"categories_sizes":[],"default_left":[0,0,0,0,0,0,0,0,0,0,0,0,0,0,0,0,0,0,0,0,0,0,0,0,0,0,0,0,0,0,0,0,0,0,0,0,0,0,0],"id":28,"left_children":[1,3,5,7,9,11,13,15,-1,-1,-1,17,19,21,23,25,-1,27,29,31,33,35,37,-1,-1,-1,-1,-1,-1,-1,-1,-1,-1,-1,-1,-1,-1,-1,-1],"loss_changes":[1.4085813E1,5.3103714E0,5.5166335E0,4.6343317E0,2.6551752E0,6.509162E0,7.38614E0,5.1890907E0,0E0,0E0,0E0,9.6268215E0,6.336323E0,4.072919E0,5.4075108E0,4.6981983E0,0E0,8.433191E0,7.4141064E0,5.1487937E0,6.7819614E0,1.7859526E0,5.6289907E0,0E0,0E0,0E0,0E0,0E0,0E0,0E0,0E0,0E0,0E0,0E0,0E0,0E0,0E0,0E0,0E0],"parents":[2147483647,0,0,1,1,2,2,3,3,4,4,5,5,6,6,7,7,11,11,12,12,13,13,14,14,15,15,17,17,18,18,19,19,20,20,21,21,22,22],"right_children":[2,4,6,8,10,12,14,16,-1,-1,-1,18,20,22,24,26,-1,28,30,32,34,36,38,-1,-1,-1,-1,-1,-1,-1,-1,-1,-1,-1,-1,-1,-1,-1,-1],"split_conditions":[1.67E0,9.429E-1,5.2642E0,4.6967E0,2.3716E0,2.1498E0,3.3704E0,3.9529E0,1.736006E-2,-4.2936098E-2,-8.724259E-3,1.7767E0,2.2663E0,-1.52E-1,7.89E-2,2.6912E0,-3.546835E-2,1E0,3E0,8.974E0,2.3191E0,3.8618E0,1.7379E0,1.4687863E-2,-2.9627772E-2,-2.7123976E-3,-2.4717806E-2,1.0928164E-2,-6.3306065E-3,-2.2993589E-2,-2.599872E-3,-4.0621646E-3,2.793766E-2,3.0193316E-2,4.8651192E-3,4.2976975E-2,1.057605E-2,-4.4232295E-3,2.1036165E-2],"split_indices":[20,3,56,42,40,40,5,5,0,0,0,44,5,41,1,40,0,18,51,44,40,42,5,0,0,0,0,0,0,0,0,0,0,0,0,0,0,0,0],"split_type":[0,0,0,0,0,0,0,0,0,0,0,0,0,0,0,0,0,0,0,0,0,0,0,0,0,0,0,0,0,0,0,0,0,0,0,0,0,0,0],"sum_hessian":[3.704689E2,7.0767044E1,2.9970184E2,6.0323025E1,1.0444016E1,2.5178033E2,4.792152E1,5.5829422E1,4.493604E0,6.428409E0,4.015608E0,1.6440274E2,8.737759E1,3.940041E1,8.5211115E0,4.9520966E1,6.308455E0,9.981431E1,6.458843E1,4.7454884E1,3.9922703E1,9.146909E0,3.02535E1,3.1802018E0,5.3409095E0,3.898712E1,1.0533846E1,5.03018E1,4.9512512E1,3.024147E1,3.4346962E1,4.342116E1,4.0337224E0,1.5514162E1,2.440854E1,5.7179995E0,3.4289093E0,1.2725229E1,1.752827E1],"tree_param":{"num_deleted":"0","num_feature":"58","num_nodes":"39","size_leaf_vector":"1"}},{"base_weights":[-0E0,-2.4130398E-1,8.697464E-2,-7.514666E-1,-1.2220539E-1,-2.7241036E-1,1.4693278E-1,8.045992E-3,-1.0462275E0,1.1336046E-3,-7.742765E-1,-6.132341E-1,2.6385772E-1,1.7063509E-1,-2.4383992E-2,-4.463259E-2,-2.017653E-3,-4.398787E-1,1.8433398E-1,-1.1153219E0,7.690696E-3,-7.425562E-2,-1.0680151E0,9.2527914E-1,-5.0798345E-1,2.8776532E-1,-2.033077E-2,-2.1987889E-2,6.9981352E-3,9.149728E-3,-2.3562482E-2,-4.3484177E-2,-8.290943E-3,2.421302E-2,-1.5569948E-2,-8.570472E-3,-4.059839E-2,8.455425E-3,3.6155388E-2,1.5067081E-3,-3.0556675E-2,1.5640803E-2,-1.4195263E-3,-1.5758807E-2,4.972865E-3],"categories":[],"categories_nodes":[],"categories_segments":[],"categories_sizes":[],"default_left":[0,0,0,0,0,0,0,0,0,0,0,0,0,0,0,0,0,0,0,0,0,0,0,0,0,0,0,0,0,0,0,0,0,0,0,0,0,0,0,0,0,0,0,0,0],"id":29,"left_children":[1,3,5,7,9,11,13,-1,15,17,19,21,23,25,-1,-1,-1,27,29,31,-1,33,35,37,39,41,43,-1,-1,-1,-1,-1,-1,-1,-1,-1,-1,-1,-1,-1,-1,-1,-1,-1,-1],"loss_changes":[7.897482E0,5.8841577E0,5.97182E0,5.929044E0,6.6938725E0,7.426382E0,5.4727535E0,0E0,6.08029E0,5.714601E0,5.0166707E0,5.8362503E0,8.657341E0,5.2335215E0,0E0,0E0,0E0,4.3028307E0,6.082965E0,2.2831526E0,0E0,5.263533E0,2.3879032E0,1.1354947E0,2.4106557E0,1.13834715E1,8.486989E0,0E0,0E0,0E0,0E0,0E0,0E0,0E0,0E0,0E0,0E0,0E0,0E0,0E0,0E0,0E0,0E0,0E0,0E0],"parents":[2147483647,0,0,1,1,2,2,3,3,4,4,5,5,6,6,8,8,9,9,10,10,11,11,12,12,13,13,17,17,18,18,19,19,21,21,22,22,23,23,24,24,25,25,26,26],"right_children":[2,4,6,8,10,12,14,-1,16,18,20,22,24,26,-1,-1,-1,28,30,32,-1,34,36,38,40,42,44,-1,-1,-1,-1,-1,-1,-1,-1,-1,-1,-1,-1,-1,-1,-1,-1,-1,-1],"split_conditions":[3.1877E0,4.625E-1,1.8557E0,5.75E0,2.73E0,2.446E1,6.186E0,8.045992E-3,6E0,-2.9954E0,7.898E-1,-1.4141E0,6.8E0,1.5E-1,-2.4383992E-2,-4.463259E-2,-2.017653E-3,2.778E-1,1E0,7.24E-1,7.690696E-3,-2.23E-2,-8.378E-1,3.404E-1,1.11E-2,1.19E-1,3.274E-1,-2.1987889E-2,6.9981352E-3,9.149728E-3,-2.3562482E-2,-4.3484177E-2,-8.290943E-3,2.421302E-2,-1.5569948E-2,-8.570472E-3,-4.059839E-2,8.455425E-3,3.6155388E-2,1.5067081E-3,-3.0556675E-2,1.5640803E-2,-1.4195263E-3,-1.5758807E-2,4.972865E-3],"split_indices":[42,37,6,8,40,36,5,0,31,44,38,27,7,2,0,0,0,2,29,21,0,32,38,33,32,25,33,0,0,0,0,0,0,0,0,0,0,0,0,0,0,0,0,0,0],"split_type":[0,0,0,0,0,0,0,0,0,0,0,0,0,0,0,0,0,0,0,0,0,0,0,0,0,0,0,0,0,0,0,0,0,0,0,0,0,0,0,0,0,0,0,0,0],"sum_hessian":[3.7365692E2,9.8792534E1,2.7486438E2,1.7534348E1,8.125819E1,3.8555305E1,2.3630908E2,3.8762143E0,1.3658133E1,6.904353E1,1.2214653E1,2.3599598E1,1.4955709E1,2.3151773E2,4.791343E0,8.984282E0,4.6738505E0,1.9692202E1,4.935133E1,9.188842E0,3.0258107E0,1.1433032E1,1.2166566E1,8.016671E0,6.9390383E0,1.4351102E2,8.800671E1,1.3761139E1,5.931063E0,4.45918E1,4.7595277E0,5.9658017E0,3.2230408E0,3.485712E0,7.94732E0,3.879401E0,8.287165E0,3.1468828E0,4.869788E0,3.6520448E0,3.2869935E0,8.440952E1,5.91015E1,2.3353003E1,6.465371E1],"tree_param":{"num_deleted":"0","num_feature":"58","num_nodes":"45","size_leaf_vector":"1"}},{"base_weights":[2.2606833E-3,3.707292E-2,-6.917109E-1,3.299027E-1,-1.8275272E-2,-1.2802818E-1,-1.094803E0,6.171741E-1,-5.294212E-3,6.409707E-2,-2.4161711E-1,-2.6226673E-2,1.5488142E-2,-3.8273565E-2,-1.5276875E-2,-1.8244514E-2,7.8529704E-1,-2.66473E-2,2.7261218E-1,-5.6195766E-2,3.782012E-1,-4.2353642E-1,1.7105842E-1,3.6264177E-2,1.3637957E-2,1.6083263E-2,-2.4134124E-2,1.2502793E-2,-5.0742044E-3,-1.1312318E-3,1.7373424E-2,-2.9563291E-3,-2.1248216E-2,1.665661E-2,-1.3876904E-2],"categories":[],"categories_nodes":[],"categories_segments":[],"categories_sizes":[],"default_left":[0,0,0,0,0,0,0,0,0,0,0,0,0,0,0,0,0,0,0,0,0,0,0,0,0,0,0,0,0,0,0,0,0,0,0],"id":30,"left_children":[1,3,5,7,9,11,13,15,17,19,21,-1,-1,-1,-1,-1,23,-1,25,27,29,31,33,-1,-1,-1,-1,-1,-1,-1,-1,-1,-1,-1,-1],"loss_changes":[9.012204E0,5.83754E0,3.7846518E0,5.575265E0,5.5827227E0,4.651758E0,2.4744415E-1,6.87883E0,6.988435E0,8.39758E0,6.2397428E0,0E0,0E0,0E0,0E0,0E0,3.1715736E0,0E0,6.4778867E0,8.609749E0,5.216093E0,5.1461983E0,6.49149E0,0E0,0E0,0E0,0E0,0E0,0E0,0E0,0E0,0E0,0E0,0E0,0E0],"parents":[2147483647,0,0,1,1,2,2,3,3,4,4,5,5,6,6,7,7,8,8,9,9,10,10,16,16,18,18,19,19,20,20,21,21,22,22],"right_children":[2,4,6,8,10,12,14,16,18,20,22,-1,-1,-1,-1,-1,24,-1,26,28,30,32,34,-1,-1,-1,-1,-1,-1,-1,-1,-1,-1,-1,-1],"split_conditions":[1E0,9.09E-2,3.1798E0,2.149E1,4.5611E0,-3.55E-2,2.522E1,1.4302E0,-2.3E-2,3.2727E0,2.535E1,-2.6226673E-2,1.5488142E-2,-3.8273565E-2,-1.5276875E-2,-1.8244514E-2,-4.3411E0,-2.66473E-2,5.833E-1,4.32E0,3.2939E0,1.935E0,7.6364E0,3.6264177E-2,1.3637957E-2,1.6083263E-2,-2.4134124E-2,1.2502793E-2,-5.0742044E-3,-1.1312318E-3,1.7373424E-2,-2.9563291E-3,-2.1248216E-2,1.665661E-2,-1.3876904E-2],"split_indices":[30,3,28,36,28,41,48,6,32,28,36,0,0,0,0,0,51,0,33,42,42,51,7,0,0,0,0,0,0,0,0,0,0,0,0],"split_type":[0,0,0,0,0,0,0,0,0,0,0,0,0,0,0,0,0,0,0,0,0,0,0,0,0,0,0,0,0,0,0,0,0,0,0],"sum_hessian":[3.7369003E2,3.5687833E2,1.6811687E1,5.6229904E1,3.0064844E2,7.6623626E0,9.149325E0,2.9987253E1,2.624265E1,2.1983481E2,8.081362E1,3.4569979E0,4.2053647E0,5.9583273E0,3.1909978E0,3.23049E0,2.6756763E1,5.842815E0,2.0399836E1,1.5932185E2,6.0512955E1,5.62382E1,2.457542E1,1.0435211E1,1.6321552E1,1.6868294E1,3.531542E0,3.0023375E1,1.2929848E2,1.981292E1,4.0700035E1,2.705528E1,2.918292E1,1.5474727E1,9.100694E0],"tree_param":{"num_deleted":"0","num_feature":"58","num_nodes":"35","size_leaf_vector":"1"}},{"base_weights":[-0E0,3.548394E-2,-7.0844865E-1,8.140757E-2,-2.6726383E-1,-3.5057865E-2,-2.1266851E-1,-3.1422153E-1,1.3163276E-1,-4.5891E-1,4.09123E-1,-2.275176E-2,1.6650211E-2,1.2838265E-1,-8.3858806E-1,3.7550975E-2,3.1503865E-1,-6.4427656E-1,1.2746388E-2,1.0235701E0,-1.7520199E-2,-2.35359E-2,1.4654746E-2,-3.5051666E-2,-2.9524914E-3,1.2591524E-2,-1.4071778E-3,1.31302355E-2,-1.7430003E-3,5.014395E-3,-2.4468645E-2,4.0450837E-2,1.3283053E-2],"categories":[],"categories_nodes":[],"categories_segments":[],"categories_sizes":[],"default_left":[0,0,0,0,0,0,0,0,0,0,0,0,0,0,0,0,0,0,0,0,0,0,0,0,0,0,0,0,0,0,0,0,0],"id":31,"left_children":[1,3,5,7,9,-1,11,13,15,17,19,-1,-1,21,23,25,27,29,-1,31,-1,-1,-1,-1,-1,-1,-1,-1,-1,-1,-1,-1,-1],"loss_changes":[9.505895E0,5.0333214E0,3.727068E0,6.286241E0,6.362836E0,0E0,4.633612E0,8.435792E0,4.7950416E0,6.4680305E0,7.3069E0,0E0,0E0,6.9472637E0,3.791232E0,6.091772E0,4.3944902E0,4.599519E0,0E0,5.770178E-1,0E0,0E0,0E0,0E0,0E0,0E0,0E0,0E0,0E0,0E0,0E0,0E0,0E0],"parents":[2147483647,0,0,1,1,2,2,3,3,4,4,6,6,7,7,8,8,9,9,10,10,13,13,14,14,15,15,16,16,17,17,19,19],"right_children":[2,4,6,8,10,-1,12,14,16,18,20,-1,-1,22,24,26,28,30,-1,32,-1,-1,-1,-1,-1,-1,-1,-1,-1,-1,-1,-1,-1],"split_conditions":[1E0,1E1,2.0614E0,2.2179E0,3.5E-1,-3.5057865E-2,9.469E-1,5.6403E0,6.1463E0,6.8416E0,7E-1,-2.275176E-2,1.6650211E-2,-2.2463E0,8.153E-1,4.0218E0,2.4E-1,9.52E-2,1.2746388E-2,3.384E-1,-1.7520199E-2,-2.35359E-2,1.4654746E-2,-3.5051666E-2,-2.9524914E-3,1.2591524E-2,-1.4071778E-3,1.31302355E-2,-1.7430003E-3,5.014395E-3,-2.4468645E-2,4.0450837E-2,1.3283053E-2],"split_indices":[30,31,40,42,33,0,23,7,7,56,3,0,0,51,21,7,2,3,0,23,0,0,0,0,0,0,0,0,0,0,0,0,0],"split_type":[0,0,0,0,0,0,0,0,0,0,0,0,0,0,0,0,0,0,0,0,0,0,0,0,0,0,0,0,0,0,0,0,0],"sum_hessian":[3.778282E2,3.60796E2,1.7032204E1,3.1419705E2,4.6598953E1,8.025103E0,9.0071E0,3.4577686E1,2.7961935E2,3.667648E1,9.922473E0,5.347814E0,3.6592863E0,1.9056797E1,1.5520889E1,1.8597148E2,9.364787E1,3.0635193E1,6.041287E0,6.173181E0,3.7492924E0,4.9787855E0,1.40780115E1,1.0243165E1,5.2777243E0,3.315589E1,1.528156E2,7.055447E1,2.3093409E1,5.243746E0,2.5391447E1,3.0011654E0,3.1720154E0],"tree_param":{"num_deleted":"0","num_feature":"58","num_nodes":"33","size_leaf_vector":"1"}},{"base_weights":[-4.404122E-3,-3.082471E-1,7.109867E-2,-3.7714133E-1,1.4873328E-2,1.8044564E-1,-8.685001E-2,-2.7717748E-1,-1.065849E0,2.9927287E-1,-1.215127E-1,-2.6609385E-1,2.4078493E-1,-7.2198087E-1,-1.2091732E-1,-1.3849303E-2,-3.9506283E-2,3.4461817E-1,-1.7387798E-2,5.0140806E-2,-8.474725E-1,2.3626192E-2,-3.4067285E-1,6.479428E-1,-1.7184009E-1,-3.290057E-2,1.6710564E-4,2.1791093E-3,-2.1693155E-2,-9.395841E-3,1.2111446E-2,9.044486E-3,-1.46232685E-2,-3.7315764E-2,-1.3780668E-3,6.8650413E-3,-1.3600684E-2,3.6762517E-2,9.487901E-3,2.0777734E-2,-1.35175865E-2],"categories":[],"categories_nodes":[],"categories_segments":[],"categories_sizes":[],"default_left":[0,0,0,0,0,0,0,0,0,0,0,0,0,0,0,0,0,0,0,0,0,0,0,0,0,0,0,0,0,0,0,0,0,0,0,0,0,0,0,0,0],"id":32,"left_children":[1,3,5,7,-1,9,11,13,15,17,19,21,23,25,27,-1,-1,29,-1,31,33,-1,35,37,39,-1,-1,-1,-1,-1,-1,-1,-1,-1,-1,-1,-1,-1,-1,-1,-1],"loss_changes":[8.644422E0,4.3325257E0,5.219669E0,4.376567E0,0E0,6.45627E0,7.3100066E0,4.168443E0,4.8378563E-1,5.2999535E0,6.4601135E0,6.5411444E0,7.5416903E0,4.4404716E0,5.6628785E0,0E0,0E0,4.9168453E0,0E0,5.79881E0,2.9572148E0,0E0,4.995039E0,3.7582903E0,5.7079177E0,0E0,0E0,0E0,0E0,0E0,0E0,0E0,0E0,0E0,0E0,0E0,0E0,0E0,0E0,0E0,0E0],"parents":[2147483647,0,0,1,1,2,2,3,3,5,5,6,6,7,7,8,8,9,9,10,10,11,11,12,12,13,13,14,14,17,17,19,19,20,20,22,22,23,23,24,24],"right_children":[2,4,6,8,-1,10,12,14,16,18,20,22,24,26,28,-1,-1,30,-1,32,34,-1,36,38,40,-1,-1,-1,-1,-1,-1,-1,-1,-1,-1,-1,-1,-1,-1,-1,-1],"split_conditions":[1.67E0,1.08096E1,1.515E-1,2.9618E0,1.4873328E-2,5.5778E0,2.758E1,-2.4889E0,5.517E-1,1E0,9.336E-1,3.5651E0,5.574E0,4.1733E0,9.245E-1,-1.3849303E-2,-3.9506283E-2,-4.9E0,-1.7387798E-2,7.3995E0,2.396E1,2.3626192E-2,-7.0653E0,3.124E1,-2.8E0,-3.290057E-2,1.6710564E-4,2.1791093E-3,-2.1693155E-2,-9.395841E-3,1.2111446E-2,9.044486E-3,-1.46232685E-2,-3.7315764E-2,-1.3780668E-3,6.8650413E-3,-1.3600684E-2,3.6762517E-2,9.487901E-3,2.0777734E-2,-1.35175865E-2],"split_indices":[20,6,2,40,0,44,48,17,3,30,21,7,42,6,3,0,0,17,0,42,36,0,44,48,57,0,0,0,0,0,0,0,0,0,0,0,0,0,0,0,0],"split_type":[0,0,0,0,0,0,0,0,0,0,0,0,0,0,0,0,0,0,0,0,0,0,0,0,0,0,0,0,0,0,0,0,0,0,0,0,0,0,0,0,0],"sum_hessian":[3.7382208E2,7.405346E1,2.9976862E2,6.8812454E1,5.2410064E0,1.7742735E2,1.2234126E2,6.144199E1,7.3704615E0,1.2756701E2,4.9860344E1,7.9397316E1,4.2943947E1,1.4865675E1,4.6576317E1,3.113605E0,4.2568564E0,1.2199435E2,5.572664E0,4.096689E1,8.8934555E0,4.527882E0,7.486943E1,2.1450106E1,2.1493843E1,9.568016E0,5.297659E0,3.5787025E1,1.0789292E1,9.562385E0,1.1243196E2,2.8341352E1,1.2625535E1,5.497941E0,3.395515E0,1.2049974E1,6.2819458E1,6.732436E0,1.4717669E1,4.7914534E0,1.6702389E1],"tree_param":{"num_deleted":"0","num_feature":"58","num_nodes":"41","size_leaf_vector":"1"}},{"base_weights":[-0E0,-3.8247183E-1,4.00702E-2,-2.4510075E-1,-3.3603508E-2,3.1210428E-1,-8.3191125E-3,2.6820317E-1,-4.4867322E-1,-4.3830714E-1,5.379895E-1,-9.2854716E-2,1.8617754E-1,-8.89249E-3,3.217163E-2,-1.0118456E0,-9.226787E-2,4.3267873E-3,-7.8531545E-1,1.4938535E-1,8.0320174E-1,-4.7097582E-2,-7.2002614E-1,6.450685E-2,9.174042E-1,-1.3135855E-2,-3.7582494E-2,1.0201147E-2,-1.9465396E-2,-4.286276E-3,-3.748728E-2,-2.116555E-2,1.1920652E-2,4.237687E-2,1.2297159E-2,-3.0279441E-3,1.1283009E-2,-3.972956E-2,-3.2680598E-3,4.2997263E-3,-2.8853307E-2,4.146636E-2,-0E0],"categories":[],"categories_nodes":[],"categories_segments":[],"categories_sizes":[],"default_left":[0,0,0,0,0,0,0,0,0,0,0,0,0,0,0,0,0,0,0,0,0,0,0,0,0,0,0,0,0,0,0,0,0,0,0,0,0,0,0,0,0,0,0],"id":33,"left_children":[1,3,5,7,-1,9,11,13,15,17,19,21,23,-1,-1,25,27,-1,29,31,33,35,37,39,41,-1,-1,-1,-1,-1,-1,-1,-1,-1,-1,-1,-1,-1,-1,-1,-1,-1,-1],"loss_changes":[5.835417E0,3.2479448E0,4.568E0,3.4649568E0,0E0,9.122076E0,4.8278723E0,4.721095E0,4.4746203E0,2.7171865E0,3.9898176E0,5.7827625E0,7.741878E0,0E0,0E0,5.0263596E-1,3.9770799E0,0E0,2.109068E0,4.050904E0,4.959215E0,4.398708E0,4.7882814E0,6.309821E0,5.3742876E0,0E0,0E0,0E0,0E0,0E0,0E0,0E0,0E0,0E0,0E0,0E0,0E0,0E0,0E0,0E0,0E0,0E0,0E0],"parents":[2147483647,0,0,1,1,2,2,3,3,5,5,6,6,7,7,8,8,9,9,10,10,11,11,12,12,15,15,16,16,18,18,19,19,20,20,21,21,22,22,23,23,24,24],"right_children":[2,4,6,8,-1,10,12,14,16,18,20,22,24,-1,-1,26,28,-1,30,32,34,36,38,40,42,-1,-1,-1,-1,-1,-1,-1,-1,-1,-1,-1,-1,-1,-1,-1,-1,-1,-1],"split_conditions":[1.28E0,3.415E-1,-1.3517E0,5.75E0,-3.3603508E-2,1.4737E0,6.809E-1,3.0621E0,1.861E1,4.979E-1,5.77E-2,5.606E-1,5.713E-1,-8.89249E-3,3.217163E-2,1.35E-2,2.6091E0,4.3267873E-3,3.4022E0,3.235E-1,1.985E1,3.438E-1,1.325E1,1.22455E1,4.7191E0,-1.3135855E-2,-3.7582494E-2,1.0201147E-2,-1.9465396E-2,-4.286276E-3,-3.748728E-2,-2.116555E-2,1.1920652E-2,4.237687E-2,1.2297159E-2,-3.0279441E-3,1.1283009E-2,-3.972956E-2,-3.2680598E-3,4.2997263E-3,-2.8853307E-2,4.146636E-2,-0E0],"split_indices":[20,2,57,8,0,5,38,44,36,37,1,38,37,0,0,1,27,0,27,33,36,1,8,42,17,0,0,0,0,0,0,0,0,0,0,0,0,0,0,0,0,0,0],"split_type":[0,0,0,0,0,0,0,0,0,0,0,0,0,0,0,0,0,0,0,0,0,0,0,0,0,0,0,0,0,0,0,0,0,0,0,0,0,0,0,0,0,0,0],"sum_hessian":[3.7862347E2,3.5109432E1,3.4351404E2,3.0834911E1,4.274521E0,5.136545E1,2.921486E2,8.526586E0,2.2308327E1,1.1564388E1,3.9801064E1,2.0436191E2,8.778668E1,5.307346E0,3.2192395E0,7.8246417E0,1.4483685E1,4.427688E0,7.1367006E0,1.6931858E1,2.2869204E1,1.916165E2,1.2745403E1,7.631363E1,1.1473049E1,3.2688606E0,4.555781E0,8.269771E0,6.213914E0,3.6328044E0,3.5038962E0,3.301412E0,1.3630446E1,7.854242E0,1.5014961E1,1.7087744E2,2.0739069E1,5.739234E0,7.006169E0,7.176031E1,4.5533204E0,7.30772E0,4.1653285E0],"tree_param":{"num_deleted":"0","num_feature":"58","num_nodes":"43","size_leaf_vector":"1"}},{"base_weights":[-2.1887757E-2,-5.0129056E-1,2.303516E-2,1.4104543E-2,-6.231641E-1,-4.7151633E-2,1.7083451E-1,-4.357716E-1,-3.940968E-2,-9.177546E-2,5.501273E-1,-2.3129952E-1,3.240366E-1,-6.703826E-1,2.123058E-2,-3.92322E-2,-5.821825E-1,-1.4873533E-2,8.381932E-1,-5.8541764E-2,-3.6782708E-2,8.9340174E-1,1.9267377E-1,-3.2384258E-2,-3.173489E-3,-1.3222042E-2,1.5086109E-3,-5.4999455E-3,-3.669256E-2,3.3982508E-3,3.6426026E-2,-2.5976732E-2,6.0745766E-3,4.5572356E-3,4.003908E-2,1.3380263E-3,2.6726762E-2],"categories":[],"categories_nodes":[],"categories_segments":[],"categories_sizes":[],"default_left":[0,0,0,0,0,0,0,0,0,0,0,0,0,0,0,0,0,0,0,0,0,0,0,0,0,0,0,0,0,0,0,0,0,0,0,0,0],"id":34,"left_children":[1,3,5,-1,7,9,11,13,-1,15,17,19,21,23,-1,25,27,-1,29,31,-1,33,35,-1,-1,-1,-1,-1,-1,-1,-1,-1,-1,-1,-1,-1,-1],"loss_changes":[8.164584E0,4.1536503E0,3.5979924E0,0E0,3.0542479E0,6.2456055E0,6.966852E0,7.1020913E0,0E0,5.5553246E0,5.3504024E0,5.1656876E0,5.81446E0,4.640148E0,0E0,7.2124476E0,4.9844556E0,0E0,3.3275719E0,6.08738E0,0E0,4.5102787E0,6.8592215E0,0E0,0E0,0E0,0E0,0E0,0E0,0E0,0E0,0E0,0E0,0E0,0E0,0E0,0E0],"parents":[2147483647,0,0,1,1,2,2,4,4,5,5,6,6,7,7,9,9,10,10,11,11,12,12,13,13,15,15,16,16,18,18,19,19,21,21,22,22],"right_children":[2,4,6,-1,8,10,12,14,-1,16,18,20,22,24,-1,26,28,-1,30,32,-1,34,36,-1,-1,-1,-1,-1,-1,-1,-1,-1,-1,-1,-1,-1,-1],"split_conditions":[1.29E0,-8.6371E0,2.523E1,1.4104543E-2,3.7561E0,4.426E-1,2.713E-1,3.3514E0,-3.940968E-2,7.1199E0,-7.632E-1,2.586E-1,1.7424E0,4.1206E0,2.123058E-2,1.8557E0,3.6992E0,-1.4873533E-2,4.918E-1,1.7323E0,-3.6782708E-2,1.014E-1,3.226E-1,-3.2384258E-2,-3.173489E-3,-1.3222042E-2,1.5086109E-3,-5.4999455E-3,-3.669256E-2,3.3982508E-3,3.6426026E-2,-2.5976732E-2,6.0745766E-3,4.5572356E-3,4.003908E-2,1.3380263E-3,2.6726762E-2],"split_indices":[20,44,36,0,5,1,33,5,0,6,38,33,6,44,0,6,44,0,37,40,0,1,2,0,0,0,0,0,0,0,0,0,0,0,0,0,0],"split_type":[0,0,0,0,0,0,0,0,0,0,0,0,0,0,0,0,0,0,0,0,0,0,0,0,0,0,0,0,0,0,0,0,0,0,0,0,0],"sum_hessian":[3.7535336E2,3.1479668E1,3.4387372E2,3.0990689E0,2.83806E1,2.3315683E2,1.1071687E2,2.3719337E1,4.661261E0,2.1789153E2,1.5265311E1,3.0223063E1,8.049381E1,2.0097063E1,3.6222746E0,1.9796504E2,1.9926485E1,3.0657907E0,1.2199521E1,2.6738895E1,3.4841688E0,1.3859667E1,6.663414E1,1.102188E1,9.075184E0,3.5579815E1,1.6238522E2,1.3171556E1,6.7549295E0,4.701857E0,7.4976635E0,6.06034E0,2.0678555E1,5.756609E0,8.103059E0,5.5971275E1,1.0662867E1],"tree_param":{"num_deleted":"0","num_feature":"58","num_nodes":"37","size_leaf_vector":"1"}},{"base_weights":[-0E0,-3.838771E-1,4.822799E-2,2.2464977E-1,-4.9787E-1,7.392146E-2,-4.6733385E-1,-6.5924227E-3,1.9325513E-2,-6.0347486E-1,1.3947077E-2,2.0535538E-2,3.236153E-1,-7.2427696E-1,6.5199803E-3,-9.145192E-1,-8.68385E-2,3.3794248E-1,-3.7188478E-2,-1.307348E-1,6.246747E-1,-1.1235298E0,2.5271857E-3,-1.1018764E-2,-3.9832953E-2,1.1552575E-2,-2.0929484E-2,2.0884158E-2,-1.8336915E-3,1.7497344E-3,-1.0080167E-2,2.5414988E-2,-1.0904744E-2,2.5139207E-2,-3.5734053E-3,-4.1283943E-2,-1.5628336E-2],"categories":[],"categories_nodes":[],"categories_segments":[],"categories_sizes":[],"default_left":[0,0,0,0,0,0,0,0,0,0,0,0,0,0,0,0,0,0,0,0,0,0,0,0,0,0,0,0,0,0,0,0,0,0,0,0,0],"id":35,"left_children":[1,3,5,7,9,11,13,-1,-1,15,-1,17,19,21,-1,23,25,27,29,31,33,35,-1,-1,-1,-1,-1,-1,-1,-1,-1,-1,-1,-1,-1,-1,-1],"loss_changes":[7.126783E0,3.118023E0,4.543572E0,1.5498283E0,4.0174026E0,4.3326983E0,3.0670295E0,0E0,0E0,5.2080374E0,0E0,5.0209756E0,7.9822235E0,4.121812E0,0E0,4.02421E0,4.2850704E0,6.1348658E0,6.6271057E0,5.6243057E0,5.697091E0,3.5504246E-1,0E0,0E0,0E0,0E0,0E0,0E0,0E0,0E0,0E0,0E0,0E0,0E0,0E0,0E0,0E0],"parents":[2147483647,0,0,1,1,2,2,3,3,4,4,5,5,6,6,9,9,11,11,12,12,13,13,15,15,16,16,17,17,18,18,19,19,20,20,21,21],"right_children":[2,4,6,8,10,12,14,-1,-1,16,-1,18,20,22,-1,24,26,28,30,32,34,36,-1,-1,-1,-1,-1,-1,-1,-1,-1,-1,-1,-1,-1,-1,-1],"split_conditions":[1.33E0,-5.4426E0,1E0,2.3084E0,9.4065E0,3.042E1,1.2E1,-6.5924227E-3,1.9325513E-2,5.6797E0,1.3947077E-2,1E0,2.704E-1,1.12E-2,6.5199803E-3,2.234E1,-2.07E-2,2.667E-1,3.0955E0,-1.917E-1,3.45E1,5.048E-1,2.5271857E-3,-1.1018764E-2,-3.9832953E-2,1.1552575E-2,-2.0929484E-2,2.0884158E-2,-1.8336915E-3,1.7497344E-3,-1.0080167E-2,2.5414988E-2,-1.0904744E-2,2.5139207E-2,-3.5734053E-3,-4.1283943E-2,-1.5628336E-2],"split_indices":[20,57,30,42,6,36,9,0,0,44,0,26,33,41,0,48,41,22,5,41,8,44,0,0,0,0,0,0,0,0,0,0,0,0,0,0,0],"split_type":[0,0,0,0,0,0,0,0,0,0,0,0,0,0,0,0,0,0,0,0,0,0,0,0,0,0,0,0,0,0,0,0,0,0,0,0,0],"sum_hessian":[3.843048E2,4.194295E1,3.4236185E2,6.325835E0,3.561712E1,3.271106E2,1.5251255E1,3.1873946E0,3.1384406E0,3.252641E1,3.0907078E0,2.7071335E2,5.6397266E1,1.1153681E1,4.097574E0,1.9701368E1,1.2825041E1,4.1176132E1,2.295372E2,2.256955E1,3.382772E1,7.288579E0,3.8651023E0,9.393339E0,1.0308029E1,7.3511972E0,5.4738436E0,2.143896E1,1.9737173E1,1.7429596E2,5.524125E1,3.7490392E0,1.8820509E1,2.629486E1,7.5328574E0,4.1142397E0,3.1743393E0],"tree_param":{"num_deleted":"0","num_feature":"58","num_nodes":"37","size_leaf_vector":"1"}},{"base_weights":[-1.4518073E-2,5.3907316E-2,-2.025845E-1,2.7940022E-2,9.3980813E-1,-1.2933438E-1,-7.4752545E-1,-6.126452E-1,6.1375648E-2,6.441749E-3,4.126476E-2,-5.8117963E-2,-8.9172167E-1,-3.35767E-2,3.5352977E-3,-2.3422106E-3,-9.8677677E-1,4.2799406E-2,3.3934873E-2,-4.7028917E-1,8.261292E-2,-3.723929E-2,-7.6416517E-3,-4.4019524E-2,-5.929235E-3,5.0815023E-3,-3.1768894E-3,-2.9455828E-2,1.4329826E-3,-2.1875463E-3,2.21557E-2],"categories":[],"categories_nodes":[],"categories_segments":[],"categories_sizes":[],"default_left":[0,0,0,0,0,0,0,0,0,0,0,0,0,0,0,0,0,0,0,0,0,0,0,0,0,0,0,0,0,0,0],"id":36,"left_children":[1,3,5,7,9,11,13,15,17,-1,-1,19,21,-1,-1,-1,23,25,-1,27,29,-1,-1,-1,-1,-1,-1,-1,-1,-1,-1],"loss_changes":[4.837933E0,6.1937017E0,3.8216805E0,5.7206354E0,1.9715176E0,4.730938E0,3.9377375E0,2.4629984E0,4.915138E0,0E0,0E0,4.9125457E0,1.2011185E0,0E0,0E0,0E0,2.4211574E0,4.7758965E0,0E0,5.8505626E0,6.5276356E0,0E0,0E0,0E0,0E0,0E0,0E0,0E0,0E0,0E0,0E0],"parents":[2147483647,0,0,1,1,2,2,3,3,4,4,5,5,6,6,7,7,8,8,11,11,12,12,16,