{"learner":{"attributes":{"scikit_learn":"{\"_estimator_type\": \"classifier\"}"},"feature_names":["has_displacement","fvg_up","fvg_down","dist_poc","kalman_noise","momentum_15","body_dir","mss_bullish","mss_bearish","choch_bearish","reversal_strength","swing_break","close_std_20","bollinger_width","swing_size_decay","roc_10","in_orh","post_orh","orh_width_atr","dist_to_orh_high_atr","dist_to_orh_low_atr","orh_broken_up","orh_broken_down","bars_since_session","session_vol_ratio","orh_midpoint_dist_atr"],"feature_types":["int","int","int","float","float","float","float","int","int","int","float","float","float","float","float","float","int","int","float","float","float","int","int","int","float","float"],"gradient_booster":{"model":{"cats":{"enc":[],"feature_segments":[],"sorted_idx":[]},"gbtree_model_param":{"num_parallel_tree":"1","num_trees":"800"},"iteration_indptr":[0,1,2,3,4,5,6,7,8,9,10,11,12,13,14,15,16,17,18,19,20,21,22,23,24,25,26,27,28,29,30,31,32,33,34,35,36,37,38,39,40,41,42,43,44,45,46,47,48,49,50,51,52,53,54,55,56,57,58,59,60,61,62,63,64,65,66,67,68,69,70,71,72,73,74,75,76,77,78,79,80,81,82,83,84,85,86,87,88,89,90,91,92,93,94,95,96,97,98,99,100,101,102,103,104,105,106,107,108,109,110,111,112,113,114,115,116,117,118,119,120,121,122,123,124,125,126,127,128,129,130,131,132,133,134,135,136,137,138,139,140,141,142,143,144,145,146,147,148,149,150,151,152,153,154,155,156,157,158,159,160,161,162,163,164,165,166,167,168,169,170,171,172,173,174,175,176,177,178,179,180,181,182,183,184,185,186,187,188,189,190,191,192,193,194,195,196,197,198,199,200,201,202,203,204,205,206,207,208,209,210,211,212,213,214,215,216,217,218,219,220,221,222,223,224,225,226,227,228,229,230,231,232,233,234,235,236,237,238,239,240,241,242,243,244,245,246,247,248,249,250,251,252,253,254,255,256,257,258,259,260,261,262,263,264,265,266,267,268,269,270,271,272,273,274,275,276,277,278,279,280,281,282,283,284,285,286,287,288,289,290,291,292,293,294,295,296,297,298,299,300,301,302,303,304,305,306,307,308,309,310,311,312,313,314,315,316,317,318,319,320,321,322,323,324,325,326,327,328,329,330,331,332,333,334,335,336,337,338,339,340,341,342,343,344,345,346,347,348,349,350,351,352,353,354,355,356,357,358,359,360,361,362,363,364,365,366,367,368,369,370,371,372,373,374,375,376,377,378,379,380,381,382,383,384,385,386,387,388,389,390,391,392,393,394,395,396,397,398,399,400,401,402,403,404,405,406,407,408,409,410,411,412,413,414,415,416,417,418,419,420,421,422,423,424,425,426,427,428,429,430,431,432,433,434,435,436,437,438,439,440,441,442,443,444,445,446,447,448,449,450,451,452,453,454,455,456,457,458,459,460,461,462,463,464,465,466,467,468,469,470,471,472,473,474,475,476,477,478,479,480,481,482,483,484,485,486,487,488,489,490,491,492,493,494,495,496,497,498,499,500,501,502,503,504,505,506,507,508,509,510,511,512,513,514,515,516,517,518,519,520,521,522,523,524,525,526,527,528,529,530,531,532,533,534,535,536,537,538,539,540,541,542,543,544,545,546,547,548,549,550,551,552,553,554,555,556,557,558,559,560,561,562,563,564,565,566,567,568,569,570,571,572,573,574,575,576,577,578,579,580,581,582,583,584,585,586,587,588,589,590,591,592,593,594,595,596,597,598,599,600,601,602,603,604,605,606,607,608,609,610,611,612,613,614,615,616,617,618,619,620,621,622,623,624,625,626,627,628,629,630,631,632,633,634,635,636,637,638,639,640,641,642,643,644,645,646,647,648,649,650,651,652,653,654,655,656,657,658,659,660,661,662,663,664,665,666,667,668,669,670,671,672,673,674,675,676,677,678,679,680,681,682,683,684,685,686,687,688,689,690,691,692,693,694,695,696,697,698,699,700,701,702,703,704,705,706,707,708,709,710,711,712,713,714,715,716,717,718,719,720,721,722,723,724,725,726,727,728,729,730,731,732,733,734,735,736,737,738,739,740,741,742,743,744,745,746,747,748,749,750,751,752,753,754,755,756,757,758,759,760,761,762,763,764,765,766,767,768,769,770,771,772,773,774,775,776,777,778,779,780,781,782,783,784,785,786,787,788,789,790,791,792,793,794,795,796,797,798,799,800],"tree_info":[0,0,0,0,0,0,0,0,0,0,0,0,0,0,0,0,0,0,0,0,0,0,0,0,0,0,0,0,0,0,0,0,0,0,0,0,0,0,0,0,0,0,0,0,0,0,0,0,0,0,0,0,0,0,0,0,0,0,0,0,0,0,0,0,0,0,0,0,0,0,0,0,0,0,0,0,0,0,0,0,0,0,0,0,0,0,0,0,0,0,0,0,0,0,0,0,0,0,0,0,0,0,0,0,0,0,0,0,0,0,0,0,0,0,0,0,0,0,0,0,0,0,0,0,0,0,0,0,0,0,0,0,0,0,0,0,0,0,0,0,0,0,0,0,0,0,0,0,0,0,0,0,0,0,0,0,0,0,0,0,0,0,0,0,0,0,0,0,0,0,0,0,0,0,0,0,0,0,0,0,0,0,0,0,0,0,0,0,0,0,0,0,0,0,0,0,0,0,0,0,0,0,0,0,0,0,0,0,0,0,0,0,0,0,0,0,0,0,0,0,0,0,0,0,0,0,0,0,0,0,0,0,0,0,0,0,0,0,0,0,0,0,0,0,0,0,0,0,0,0,0,0,0,0,0,0,0,0,0,0,0,0,0,0,0,0,0,0,0,0,0,0,0,0,0,0,0,0,0,0,0,0,0,0,0,0,0,0,0,0,0,0,0,0,0,0,0,0,0,0,0,0,0,0,0,0,0,0,0,0,0,0,0,0,0,0,0,0,0,0,0,0,0,0,0,0,0,0,0,0,0,0,0,0,0,0,0,0,0,0,0,0,0,0,0,0,0,0,0,0,0,0,0,0,0,0,0,0,0,0,0,0,0,0,0,0,0,0,0,0,0,0,0,0,0,0,0,0,0,0,0,0,0,0,0,0,0,0,0,0,0,0,0,0,0,0,0,0,0,0,0,0,0,0,0,0,0,0,0,0,0,0,0,0,0,0,0,0,0,0,0,0,0,0,0,0,0,0,0,0,0,0,0,0,0,0,0,0,0,0,0,0,0,0,0,0,0,0,0,0,0,0,0,0,0,0,0,0,0,0,0,0,0,0,0,0,0,0,0,0,0,0,0,0,0,0,0,0,0,0,0,0,0,0,0,0,0,0,0,0,0,0,0,0,0,0,0,0,0,0,0,0,0,0,0,0,0,0,0,0,0,0,0,0,0,0,0,0,0,0,0,0,0,0,0,0,0,0,0,0,0,0,0,0,0,0,0,0,0,0,0,0,0,0,0,0,0,0,0,0,0,0,0,0,0,0,0,0,0,0,0,0,0,0,0,0,0,0,0,0,0,0,0,0,0,0,0,0,0,0,0,0,0,0,0,0,0,0,0,0,0,0,0,0,0,0,0,0,0,0,0,0,0,0,0,0,0,0,0,0,0,0,0,0,0,0,0,0,0,0,0,0,0,0,0,0,0,0,0,0,0,0,0,0,0,0,0,0,0,0,0,0,0,0,0,0,0,0,0,0,0,0,0,0,0,0,0,0,0,0,0,0,0,0,0,0,0,0,0,0,0,0,0,0,0,0,0,0,0,0,0,0,0,0,0,0,0,0,0,0,0,0,0,0,0,0,0,0,0,0,0,0,0,0,0,0,0,0,0,0,0,0,0,0,0,0,0,0,0,0,0,0,0,0,0,0,0,0,0,0,0,0,0,0,0,0,0,0,0,0,0,0,0,0,0,0,0,0,0,0,0,0,0,0,0,0,0,0,0,0,0,0,0,0,0,0,0,0,0,0,0,0,0,0,0,0,0,0,0,0,0,0,0,0,0,0,0,0,0,0,0,0,0,0,0,0,0,0,0,0],"trees":[{"base_weights":[7.200765E-3,-1.2719117E0,2.209436E0,-2.5714103E-2,5.837681E-2,1.8935916E0,2.7210867E0,2.069416E0,1.3520759E0,2.9051206E0,2.1519122E0,2.5946936E-2,4.3834414E-2,3.8899772E-2,2.0951733E-2,4.3560863E-2,5.996091E-2,4.7003463E-2,3.0604254E-2],"categories":[],"categories_nodes":[],"categories_segments":[],"categories_sizes":[],"default_left":[0,0,0,0,0,0,0,0,0,0,0,0,0,0,0,0,0,0,0],"id":0,"left_children":[1,3,5,-1,-1,7,9,11,13,15,17,-1,-1,-1,-1,-1,-1,-1,-1],"loss_changes":[5.3738777E4,7.3178516E2,1.0720195E3,0E0,0E0,3.8119922E2,2.049707E2,2.740127E2,1.7270093E2,5.7546875E1,4.1171875E1,0E0,0E0,0E0,0E0,0E0,0E0,0E0,0E0],"parents":[2147483647,0,0,1,1,2,2,5,5,6,6,7,7,8,8,9,9,10,10],"right_children":[2,4,6,-1,-1,8,10,12,14,16,18,-1,-1,-1,-1,-1,-1,-1,-1],"split_conditions":[6.086956E-1,1E0,1E0,-2.5714103E-2,5.837681E-2,1.3401976E0,1.4285715E0,1.8937984E-1,6.993163E-4,3.8906935E-1,1.333787E0,2.5946936E-2,4.3834414E-2,3.8899772E-2,2.0951733E-2,4.3560863E-2,5.996091E-2,4.7003463E-2,3.0604254E-2],"split_indices":[18,16,0,0,0,12,14,4,13,4,12,0,0,0,0,0,0,0,0],"split_type":[0,0,0,0,0,0,0,0,0,0,0,0,0,0,0,0,0,0,0],"sum_hessian":[1.9056586E4,1.2056937E4,6.99965E3,1.2024768E4,3.216894E1,4.3594556E3,2.6401946E3,3.2668386E3,1.0926168E3,1.9614385E3,6.7875604E2,4.6484555E2,2.801993E3,3.502166E2,7.4240027E2,2.5240915E2,1.7090293E3,4.9111832E2,1.8763771E2],"tree_param":{"num_deleted":"0","num_feature":"26","num_nodes":"19","size_leaf_vector":"1"}},{"base_weights":[-3.758797E-3,-1.2636542E0,2.0829227E0,-2.5565397E-2,5.616923E-2,1.7916675E0,2.547654E0,2.0550478E0,1.522642E0,2.7196066E0,2.0119514E0,2.5687966E-2,4.381923E-2,6.004331E-2,2.9250411E-2,3.9770693E-2,5.6121223E-2,2.3595853E-2,4.2431176E-2],"categories":[],"categories_nodes":[],"categories_segments":[],"categories_sizes":[],"default_left":[0,0,0,0,0,0,0,0,0,0,0,0,0,0,0,0,0,0,0],"id":1,"left_children":[1,3,5,-1,-1,7,9,11,13,15,17,-1,-1,-1,-1,-1,-1,-1,-1],"loss_changes":[5.0354664E4,7.436875E2,9.216504E2,0E0,0E0,2.7819824E2,1.8928125E2,1.9804004E2,1.4757812E2,6.428906E1,3.3114746E1,0E0,0E0,0E0,0E0,0E0,0E0,0E0,0E0],"parents":[2147483647,0,0,1,1,2,2,5,5,6,6,7,7,8,8,9,9,10,10],"right_children":[2,4,6,-1,-1,8,10,12,14,16,18,-1,-1,-1,-1,-1,-1,-1,-1],"split_conditions":[6.086956E-1,1E0,1E0,-2.5565397E-2,5.616923E-2,9.0909094E-1,1.4285715E0,1.8937984E-1,2E0,3.8392192E-1,9.8600507E-1,2.5687966E-2,4.381923E-2,6.004331E-2,2.9250411E-2,3.9770693E-2,5.6121223E-2,2.3595853E-2,4.2431176E-2],"split_indices":[18,16,0,0,0,14,14,4,23,4,24,0,0,0,0,0,0,0,0],"split_type":[0,0,0,0,0,0,0,0,0,0,0,0,0,0,0,0,0,0,0],"sum_hessian":[1.9134148E4,1.1933718E4,7.200431E3,1.1898364E4,3.535351E1,4.458848E3,2.741583E3,2.2157598E3,2.2430884E3,2.0417202E3,6.9986285E2,3.500646E2,1.8656952E3,6.718255E1,2.1759058E3,2.4374284E2,1.7979774E3,9.726851E1,6.025943E2],"tree_param":{"num_deleted":"0","num_feature":"26","num_nodes":"19","size_leaf_vector":"1"}},{"base_weights":[-5.931889E-4,-1.2575679E0,2.0193818E0,-2.5423557E-2,5.2107956E-2,1.7364485E0,2.4646363E0,2.0013769E0,1.4637607E0,2.624533E0,1.9534585E0,2.5737574E-2,4.2438682E-2,5.9304465E-2,2.7959859E-2,2.8250715E-2,5.322341E-2,2.26847E-2,4.1179836E-2],"categories":[],"categories_nodes":[],"categories_segments":[],"categories_sizes":[],"default_left":[0,0,0,0,0,0,0,0,0,0,0,0,0,0,0,0,0,0,0],"id":2,"left_children":[1,3,5,-1,-1,7,9,11,13,15,17,-1,-1,-1,-1,-1,-1,-1,-1],"loss_changes":[4.8497188E4,6.495117E2,8.717363E2,0E0,0E0,2.9004004E2,1.700625E2,1.6052734E2,1.736294E2,4.8220703E1,3.1989014E1,0E0,0E0,0E0,0E0,0E0,0E0,0E0,0E0],"parents":[2147483647,0,0,1,1,2,2,5,5,6,6,7,7,8,8,9,9,10,10],"right_children":[2,4,6,-1,-1,8,10,12,14,16,18,-1,-1,-1,-1,-1,-1,-1,-1],"split_conditions":[6.086956E-1,1E0,1E0,-2.5423557E-2,5.2107956E-2,9.0909094E-1,1.4285715E0,1.8937984E-1,2E0,1.4359823E-1,9.8600507E-1,2.5737574E-2,4.2438682E-2,5.9304465E-2,2.7959859E-2,2.8250715E-2,5.322341E-2,2.26847E-2,4.1179836E-2],"split_indices":[18,16,0,0,0,14,14,4,23,4,24,0,0,0,0,0,0,0,0],"split_type":[0,0,0,0,0,0,0,0,0,0,0,0,0,0,0,0,0,0,0],"sum_hessian":[1.9081066E4,1.1764874E4,7.3161924E3,1.1730771E4,3.410272E1,4.506235E3,2.8099578E3,2.2497627E3,2.2564722E3,2.105958E3,7.0399994E2,3.4404886E2,1.9057139E3,7.491471E1,2.1815574E3,7.500112E1,2.0309568E3,9.590965E1,6.080903E2],"tree_param":{"num_deleted":"0","num_feature":"26","num_nodes":"19","size_leaf_vector":"1"}},{"base_weights":[-0E0,-1.1730114E0,1.8943548E0,-2.5298923E-2,6.318654E-2,1.6230592E0,2.3337336E0,5.4357326E-1,1.7056099E0,2.564758E0,2.0274482E0,2.471758E-2,-3.1482924E-3,3.6741517E-2,2.6125662E-2,1.9887969E-2,5.23047E-2,4.3090943E-2,3.0803375E-2],"categories":[],"categories_nodes":[],"categories_segments":[],"categories_sizes":[],"default_left":[0,0,0,0,0,0,0,0,0,0,0,0,0,0,0,0,0,0,0],"id":3,"left_children":[1,3,5,-1,-1,7,9,11,13,15,17,-1,-1,-1,-1,-1,-1,-1,-1],"loss_changes":[4.2383547E4,4.7282676E3,8.236289E2,0E0,0E0,3.9125E2,1.3402148E2,1.6875287E2,1.910332E2,8.813867E1,3.6074707E1,0E0,0E0,0E0,0E0,0E0,0E0,0E0,0E0],"parents":[2147483647,0,0,1,1,2,2,5,5,6,6,7,7,8,8,9,9,10,10],"right_children":[2,4,6,-1,-1,8,10,12,14,16,18,-1,-1,-1,-1,-1,-1,-1,-1],"split_conditions":[1E0,1E0,1E0,-2.5298923E-2,6.318654E-2,1.5E1,1.018868E0,1.018868E0,1.333787E0,1.7052516E-1,1.333787E0,2.471758E-2,-3.1482924E-3,3.6741517E-2,2.6125662E-2,1.9887969E-2,5.23047E-2,4.3090943E-2,3.0803375E-2],"split_indices":[23,16,0,0,0,23,14,14,12,4,12,0,0,0,0,0,0,0,0],"split_type":[0,0,0,0,0,0,0,0,0,0,0,0,0,0,0,0,0,0,0],"sum_hessian":[1.9054225E4,1.1770507E4,7.2837183E3,1.1533306E4,2.3720198E2,4.535038E3,2.7486802E3,3.292771E2,4.2057607E3,1.5210883E3,1.2275918E3,1.6326088E2,1.6601622E2,3.13323E3,1.072531E3,5.505107E1,1.4660372E3,9.4324176E2,2.8434998E2],"tree_param":{"num_deleted":"0","num_feature":"26","num_nodes":"19","size_leaf_vector":"1"}},{"base_weights":[1.5039325E-3,-1.2418935E0,1.8656356E0,-2.5147438E-2,4.901661E-2,2.008496E0,1.3754665E0,5.9061714E-2,1.9439282E0,1.9677137E0,1.0127835E0,4.3903343E-2,3.4189444E-2,3.1332295E-2,4.5187235E-2,2.7063182E-2,-2.2657048E-2],"categories":[],"categories_nodes":[],"categories_segments":[],"categories_sizes":[],"default_left":[0,0,0,0,0,0,0,0,0,0,0,0,0,0,0,0,0],"id":4,"left_children":[1,3,5,-1,-1,7,9,-1,11,13,15,-1,-1,-1,-1,-1,-1],"loss_changes":[4.4255863E4,6.8303906E2,5.0061523E2,0E0,0E0,2.9210156E2,3.519619E2,0E0,2.813125E2,3.3622314E1,8.2912585E2,0E0,0E0,0E0,0E0,0E0,0E0],"parents":[2147483647,0,0,1,1,2,2,5,5,6,6,8,8,9,9,10,10],"right_children":[2,4,6,-1,-1,8,10,-1,12,14,16,-1,-1,-1,-1,-1,-1],"split_conditions":[6.086956E-1,1E0,1.333787E0,-2.5147438E-2,4.901661E-2,3E0,6.993163E-4,5.9061714E-2,8.8235295E-1,9.050279E-1,1E0,4.3903343E-2,3.4189444E-2,3.1332295E-2,4.5187235E-2,2.7063182E-2,-2.2657048E-2],"split_indices":[18,16,12,0,0,23,13,0,14,24,16,0,0,0,0,0,0],"split_type":[0,0,0,0,0,0,0,0,0,0,0,0,0,0,0,0,0],"sum_hessian":[1.9072912E4,1.1442737E4,7.630174E3,1.1402081E4,4.065623E1,5.881071E3,1.7491028E3,3.456776E2,5.535393E3,6.4540796E2,1.103695E3,2.6275735E3,2.9078198E3,3.0142972E2,3.439782E2,9.565733E2,1.471216E2],"tree_param":{"num_deleted":"0","num_feature":"26","num_nodes":"17","size_leaf_vector":"1"}},{"base_weights":[-5.866073E-3,-1.2364333E0,1.7890273E0,-2.502324E-2,4.6885114E-2,1.3370264E0,1.9263829E0,4.8518475E-2,1.2582034E0,2.1643548E0,1.6001458E0,-0E0,2.7506044E-2,4.5278553E-2,3.3722006E-2,3.5163272E-2,2.261201E-2],"categories":[],"categories_nodes":[],"categories_segments":[],"categories_sizes":[],"default_left":[0,0,0,0,0,0,0,0,0,0,0,0,0,0,0,0,0],"id":5,"left_children":[1,3,5,-1,-1,7,9,-1,11,13,15,-1,-1,-1,-1,-1,-1],"loss_changes":[4.1951895E4,6.214707E2,4.4731836E2,0E0,0E0,1.1973242E2,4.1577148E2,0E0,2.5516602E2,1.1482617E2,1.6204443E2,0E0,0E0,0E0,0E0,0E0,0E0],"parents":[2147483647,0,0,1,1,2,2,5,5,6,6,8,8,9,9,10,10],"right_children":[2,4,6,-1,-1,8,10,-1,12,14,16,-1,-1,-1,-1,-1,-1],"split_conditions":[6.086956E-1,1E0,3.8906935E-1,-2.502324E-2,4.6885114E-2,2E0,1.018868E0,4.8518475E-2,1.5E1,1.3461622E0,1.333787E0,-0E0,2.7506044E-2,4.5278553E-2,3.3722006E-2,3.5163272E-2,2.261201E-2],"split_indices":[18,16,4,0,0,23,14,0,23,12,12,0,0,0,0,0,0],"split_type":[0,0,0,0,0,0,0,0,0,0,0,0,0,0,0,0,0],"sum_hessian":[1.8974098E4,1.1259134E4,7.714963E3,1.1220046E4,3.9088295E1,1.8264617E3,5.8885015E3,1.0147648E2,1.7249852E3,3.3687273E3,2.519774E3,1.4796487E2,1.5770204E3,2.7538538E3,6.148736E2,1.8615851E3,6.5818896E2],"tree_param":{"num_deleted":"0","num_feature":"26","num_nodes":"17","size_leaf_vector":"1"}},{"base_weights":[-5.1282416E-3,-1.2276654E0,1.718773E0,-1.2353424E0,3.823355E-2,1.4731655E0,2.1058881E0,3.2114014E-2,-2.480658E-2,1.5957377E0,1.090577E0,2.206224E0,1.6505883E0,2.1864025E-2,3.4459677E-2,8.202422E-3,2.5422672E-2,2.8560335E-2,4.507557E-2,2.0963201E-2,3.5478417E-2],"categories":[],"categories_nodes":[],"categories_segments":[],"categories_sizes":[],"default_left":[0,0,0,0,0,0,0,0,0,0,0,0,0,0,0,0,0,0,0,0,0],"id":6,"left_children":[1,3,5,7,-1,9,11,-1,-1,13,15,17,19,-1,-1,-1,-1,-1,-1,-1,-1],"loss_changes":[3.9991203E4,2.8985156E2,7.1035156E2,1.7619727E2,0E0,2.0481445E2,9.427051E1,0E0,0E0,2.0893848E2,1.4047034E2,5.1089844E1,1.9627441E1,0E0,0E0,0E0,0E0,0E0,0E0,0E0,0E0],"parents":[2147483647,0,0,1,1,2,2,3,3,5,5,6,6,9,9,10,10,11,11,12,12],"right_children":[2,4,6,8,-1,10,12,-1,-1,14,16,18,20,-1,-1,-1,-1,-1,-1,-1,-1],"split_conditions":[6.086956E-1,9.271523E-2,1E0,-1.6666667E-1,3.823355E-2,1.3401976E0,1.333787E0,3.2114014E-2,-2.480658E-2,2.787359E-1,1E0,2.4479367E-1,-6.0341624E-4,2.1864025E-2,3.4459677E-2,8.202422E-3,2.5422672E-2,2.8560335E-2,4.507557E-2,2.0963201E-2,3.5478417E-2],"split_indices":[18,20,0,25,0,12,12,0,0,4,17,4,5,0,0,0,0,0,0,0,0],"split_type":[0,0,0,0,0,0,0,0,0,0,0,0,0,0,0,0,0,0,0,0,0],"sum_hessian":[1.8955812E4,1.1093024E4,7.862789E3,1.1072649E4,2.0375204E1,4.843208E3,3.019581E3,1.3073952E1,1.1059575E4,3.6400774E3,1.2031307E3,2.4391975E3,5.8038354E2,7.580245E2,2.882053E3,2.614828E2,9.41648E2,1.6076143E2,2.278436E3,1.17525154E2,4.6285837E2],"tree_param":{"num_deleted":"0","num_feature":"26","num_nodes":"21","size_leaf_vector":"1"}},{"base_weights":[-7.095331E-3,-1.1454245E0,1.6254244E0,-1.2130678E0,5.433686E-2,1.3963163E0,1.988657E0,4.824703E-2,-2.470491E-2,4.4533646E-1,1.4717069E0,2.2099879E0,1.6949577E0,2.0816743E-2,-2.9243894E-3,2.0129863E-2,3.0887572E-2,1.8971808E-2,4.4988587E-2,3.637541E-2,2.436674E-2],"categories":[],"categories_nodes":[],"categories_segments":[],"categories_sizes":[],"default_left":[0,0,0,0,0,0,0,0,0,0,0,0,0,0,0,0,0,0,0,0,0],"id":7,"left_children":[1,3,5,7,-1,9,11,-1,-1,13,15,17,19,-1,-1,-1,-1,-1,-1,-1,-1],"loss_changes":[3.519508E4,2.9454111E3,6.12916E2,9.098545E2,0E0,3.3430762E2,1.485918E2,0E0,0E0,1.3345384E2,1.2974316E2,5.504541E1,5.015796E1,0E0,0E0,0E0,0E0,0E0,0E0,0E0,0E0],"parents":[2147483647,0,0,1,1,2,2,3,3,5,5,6,6,9,9,10,10,11,11,12,12],"right_children":[2,4,6,8,-1,10,12,-1,-1,14,16,18,20,-1,-1,-1,-1,-1,-1,-1,-1],"split_conditions":[1E0,9.271523E-2,1E0,-2.0289855E-1,5.433686E-2,1.5E1,1.032258E0,4.824703E-2,-2.470491E-2,1.018868E0,1.8937984E-1,1.7052516E-1,1.333787E0,2.0816743E-2,-2.9243894E-3,2.0129863E-2,3.0887572E-2,1.8971808E-2,4.4988587E-2,3.637541E-2,2.436674E-2],"split_indices":[23,20,0,19,0,23,14,0,0,14,4,4,12,0,0,0,0,0,0,0,0],"split_type":[0,0,0,0,0,0,0,0,0,0,0,0,0,0,0,0,0,0,0,0,0],"sum_hessian":[1.8919436E4,1.1149372E4,7.770064E3,1.0964714E4,1.8465791E2,4.7978057E3,2.9722583E3,5.9565712E1,1.0905148E4,3.5943808E2,4.4383677E3,1.6538594E3,1.3183989E3,1.770218E2,1.8241628E2,6.2343396E2,3.8149338E3,5.9277992E1,1.5945814E3,1.0208537E3,2.9754526E2],"tree_param":{"num_deleted":"0","num_feature":"26","num_nodes":"21","size_leaf_vector":"1"}},{"base_weights":[-3.34186E-3,-1.2181642E0,1.6067648E0,-2.4652937E-2,4.5776095E-2,1.3851111E0,1.9507699E0,1.6184345E0,1.16354E0,2.1288881E0,1.7063739E0,1.9757347E-2,3.4440115E-2,4.8111375E-2,2.2258272E-2,2.4203736E-2,4.3676108E-2,4.8565004E-2,3.21181E-2],"categories":[],"categories_nodes":[],"categories_segments":[],"categories_sizes":[],"default_left":[0,0,0,0,0,0,0,0,0,0,0,0,0,0,0,0,0,0,0],"id":8,"left_children":[1,3,5,-1,-1,7,9,11,13,15,17,-1,-1,-1,-1,-1,-1,-1,-1],"loss_changes":[3.7106484E4,5.753203E2,5.883203E2,0E0,0E0,2.3404395E2,9.393262E1,1.3463477E2,1.299331E2,5.6975586E1,5.3809814E1,0E0,0E0,0E0,0E0,0E0,0E0,0E0,0E0],"parents":[2147483647,0,0,1,1,2,2,5,5,6,6,7,7,8,8,9,9,10,10],"right_children":[2,4,6,-1,-1,8,10,12,14,16,18,-1,-1,-1,-1,-1,-1,-1,-1],"split_conditions":[6.086956E-1,1E0,1E0,-2.4652937E-2,4.5776095E-2,8.8235295E-1,1.032258E0,1.8937984E-1,2E0,2.6414207E-1,3E0,1.9757347E-2,3.4440115E-2,4.8111375E-2,2.2258272E-2,2.4203736E-2,4.3676108E-2,4.8565004E-2,3.21181E-2],"split_indices":[18,16,0,0,0,14,14,4,23,4,23,0,0,0,0,0,0,0,0],"split_type":[0,0,0,0,0,0,0,0,0,0,0,0,0,0,0,0,0,0,0],"sum_hessian":[1.8951049E4,1.0803503E4,8.1475454E3,1.0766098E4,3.7405132E1,4.9890293E3,3.1585166E3,2.3949634E3,2.5940657E3,1.7776532E3,1.3808633E3,3.5546976E2,2.0394935E3,8.183074E1,2.512235E3,1.15317E2,1.6623362E3,1.3796638E2,1.242897E3],"tree_param":{"num_deleted":"0","num_feature":"26","num_nodes":"19","size_leaf_vector":"1"}},{"base_weights":[6.804041E-3,-1.2112999E0,1.5624437E0,-2.4540503E-2,4.313888E-2,1.351987E0,1.8891464E0,1.5192344E0,1.0904797E0,2.0050335E0,1.5249527E0,2.1367652E-2,3.287312E-2,2.4489667E-2,1.0863853E-2,2.1343172E-2,4.065529E-2,3.3340555E-2,2.1276833E-2],"categories":[],"categories_nodes":[],"categories_segments":[],"categories_sizes":[],"default_left":[0,0,0,0,0,0,0,0,0,0,0,0,0,0,0,0,0,0,0],"id":9,"left_children":[1,3,5,-1,-1,7,9,11,13,15,17,-1,-1,-1,-1,-1,-1,-1,-1],"loss_changes":[3.581577E4,5.860254E2,5.3872266E2,0E0,0E0,2.0072559E2,9.84082E1,1.4939307E2,1.3829712E2,3.4770508E1,3.0787354E1,0E0,0E0,0E0,0E0,0E0,0E0,0E0,0E0],"parents":[2147483647,0,0,1,1,2,2,5,5,6,6,7,7,8,8,9,9,10,10],"right_children":[2,4,6,-1,-1,8,10,12,14,16,18,-1,-1,-1,-1,-1,-1,-1,-1],"split_conditions":[6.086956E-1,1E0,1E0,-2.4540503E-2,4.313888E-2,1.018868E0,1.4285715E0,2.787359E-1,1E0,1.4359823E-1,1.333787E0,2.1367652E-2,3.287312E-2,2.4489667E-2,1.0863853E-2,2.1343172E-2,4.065529E-2,3.3340555E-2,2.1276833E-2],"split_indices":[18,16,0,0,0,14,14,4,16,4,12,0,0,0,0,0,0,0,0],"split_type":[0,0,0,0,0,0,0,0,0,0,0,0,0,0,0,0,0,0,0],"sum_hessian":[1.8880475E4,1.0589536E4,8.290938E3,1.0547245E4,4.22908E1,5.0775586E3,3.2133794E3,3.062919E3,2.0146398E3,2.3993545E3,8.140249E2,6.866672E2,2.3762517E3,1.6055033E3,4.0913647E2,8.231595E1,2.3170383E3,5.989804E2,2.1504453E2],"tree_param":{"num_deleted":"0","num_feature":"26","num_nodes":"19","size_leaf_vector":"1"}},{"base_weights":[2.0823928E-3,-1.2035168E0,1.5038422E0,-2.4428703E-2,4.440983E-2,1.3036833E0,1.8139939E0,1.4133998E0,9.680974E-1,1.8943229E0,1.4552679E0,1.8792791E-2,3.0676207E-2,2.850214E-2,1.4402497E-2,1.707366E-2,3.8490612E-2,3.9907172E-2,2.1629618E-2],"categories":[],"categories_nodes":[],"categories_segments":[],"categories_sizes":[],"default_left":[0,0,0,0,0,0,0,0,0,0,0,0,0,0,0,0,0,0,0],"id":10,"left_children":[1,3,5,-1,-1,7,9,11,13,15,17,-1,-1,-1,-1,-1,-1,-1,-1],"loss_changes":[3.4044703E4,6.64999E2,4.8997266E2,0E0,0E0,1.7039746E2,5.9532227E1,1.9963965E2,1.3276318E2,6.0432617E1,1.02124146E2,0E0,0E0,0E0,0E0,0E0,0E0,0E0,0E0],"parents":[2147483647,0,0,1,1,2,2,5,5,6,6,7,7,8,8,9,9,10,10],"right_children":[2,4,6,-1,-1,8,10,12,14,16,18,-1,-1,-1,-1,-1,-1,-1,-1],"split_conditions":[6.086956E-1,1E0,1E0,-2.4428703E-2,4.440983E-2,1.333787E0,1.333787E0,2.8346205E-1,6.993163E-4,1.4359823E-1,5.9792236E-4,1.8792791E-2,3.0676207E-2,2.850214E-2,1.4402497E-2,1.707366E-2,3.8490612E-2,3.9907172E-2,2.1629618E-2],"split_indices":[18,16,0,0,0,12,12,4,13,4,13,0,0,0,0,0,0,0,0],"split_type":[0,0,0,0,0,0,0,0,0,0,0,0,0,0,0,0,0,0,0],"sum_hessian":[1.8783492E4,1.0419481E4,8.364012E3,1.0372219E4,4.7262486E1,5.118943E3,3.2450686E3,3.829008E3,1.2899348E3,2.6118252E3,6.332434E2,7.9716705E2,3.031841E3,4.3419128E2,8.557436E2,8.37995E1,2.5280256E3,2.3907184E2,3.941716E2],"tree_param":{"num_deleted":"0","num_feature":"26","num_nodes":"19","size_leaf_vector":"1"}},{"base_weights":[-0E0,-1.122241E0,1.4240828E0,-2.4337478E-2,4.841359E-2,1.220989E0,1.7418731E0,3.921669E-1,1.2829435E0,3.867431E-2,1.4819075E0,2.3059241E-2,-4.8181912E-4,2.9129012E-2,2.1761758E-2,3.151569E-2,2.221371E-2],"categories":[],"categories_nodes":[],"categories_segments":[],"categories_sizes":[],"default_left":[0,0,0,0,0,0,0,0,0,0,0,0,0,0,0,0,0],"id":11,"left_children":[1,3,5,-1,-1,7,9,11,13,-1,15,-1,-1,-1,-1,-1,-1],"loss_changes":[2.990521E4,3.5361104E3,5.0504102E2,0E0,0E0,2.5187793E2,1.2350586E2,1.19444214E2,1.3827783E2,0E0,2.5945312E1,0E0,0E0,0E0,0E0,0E0,0E0],"parents":[2147483647,0,0,1,1,2,2,5,5,6,6,7,7,8,8,10,10],"right_children":[2,4,6,-1,-1,8,10,12,14,-1,16,-1,-1,-1,-1,-1,-1],"split_conditions":[1E0,1E0,1E0,-2.4337478E-2,4.841359E-2,1.5E1,1.032258E0,8.235294E-1,9.166667E-1,3.867431E-2,1.333787E0,2.3059241E-2,-4.8181912E-4,2.9129012E-2,2.1761758E-2,3.151569E-2,2.221371E-2],"split_indices":[23,16,0,0,0,23,14,14,14,0,12,0,0,0,0,0,0],"split_type":[0,0,0,0,0,0,0,0,0,0,0,0,0,0,0,0,0],"sum_hessian":[1.8692596E4,1.045616E4,8.236435E3,1.0191082E4,2.6507822E2,5.058414E3,3.1780205E3,3.5916174E2,4.6992524E3,1.7871274E3,1.3908932E3,1.2245571E2,2.3670604E2,2.4461213E3,2.253131E3,1.0799514E3,3.109418E2],"tree_param":{"num_deleted":"0","num_feature":"26","num_nodes":"17","size_leaf_vector":"1"}},{"base_weights":[-4.2401985E-3,-1.1944149E0,1.408573E0,-2.4220675E-2,4.0631045E-2,1.228059E0,1.6874132E0,1.498918E0,1.0874137E0,4.0212806E-2,1.5590854E0,1.6447948E-2,3.2068703E-2,4.5465525E-2,2.1016836E-2,3.189703E-2,1.7302725E-2],"categories":[],"categories_nodes":[],"categories_segments":[],"categories_sizes":[],"default_left":[0,0,0,0,0,0,0,0,0,0,0,0,0,0,0,0,0],"id":12,"left_children":[1,3,5,-1,-1,7,9,11,13,-1,15,-1,-1,-1,-1,-1,-1],"loss_changes":[3.1414426E4,5.6664746E2,4.0338477E2,0E0,0E0,1.7761621E2,9.94541E1,1.06046875E2,1.20438965E2,0E0,4.157959E1,0E0,0E0,0E0,0E0,0E0,0E0],"parents":[2147483647,0,0,1,1,2,2,5,5,6,6,7,7,8,8,10,10],"right_children":[2,4,6,-1,-1,8,10,12,14,-1,16,-1,-1,-1,-1,-1,-1],"split_conditions":[6.086956E-1,1E0,1E0,-2.4220675E-2,4.0631045E-2,7.3333335E-1,7.058824E-1,1.7539833E-1,1E0,4.0212806E-2,1.0174752E-3,1.6447948E-2,3.2068703E-2,4.5465525E-2,2.1016836E-2,3.189703E-2,1.7302725E-2],"split_indices":[18,16,0,0,0,14,14,4,23,0,5,0,0,0,0,0,0],"split_type":[0,0,0,0,0,0,0,0,0,0,0,0,0,0,0,0,0],"sum_hessian":[1.8662693E4,1.0131082E4,8.531611E3,1.0085989E4,4.509315E1,5.2160737E3,3.3155378E3,1.7448995E3,3.471174E3,8.961316E2,2.4194062E3,2.4792812E2,1.4969714E3,8.391477E1,3.3872593E3,2.2857349E3,1.3367143E2],"tree_param":{"num_deleted":"0","num_feature":"26","num_nodes":"17","size_leaf_vector":"1"}},{"base_weights":[-6.788412E-3,-1.1078379E0,1.333678E0,-1.1796916E0,4.4425394E-2,1.1536417E0,1.6140132E0,4.076928E-2,-2.4027914E-2,2.7384385E-1,1.2183753E0,1.7352706E0,1.2453662E0,1.5938155E-2,-5.1897517E-3,1.8368535E-2,2.6174644E-2,1.882338E-2,3.537504E-2,2.775569E-2,1.5702207E-2],"categories":[],"categories_nodes":[],"categories_segments":[],"categories_sizes":[],"default_left":[0,0,0,0,0,0,0,0,0,0,0,0,0,0,0,0,0,0,0,0,0],"id":13,"left_children":[1,3,5,7,-1,9,11,-1,-1,13,15,17,19,-1,-1,-1,-1,-1,-1,-1,-1],"loss_changes":[2.7366807E4,2.4595479E3,3.9784473E2,7.194199E2,0E0,2.8589502E2,1.1727832E2,0E0,0E0,1.05429214E2,1.12918945E2,4.1979492E1,3.9921387E1,0E0,0E0,0E0,0E0,0E0,0E0,0E0,0E0],"parents":[2147483647,0,0,1,1,2,2,3,3,5,5,6,6,9,9,10,10,11,11,12,12],"right_children":[2,4,6,8,-1,10,12,-1,-1,14,16,18,20,-1,-1,-1,-1,-1,-1,-1,-1],"split_conditions":[1E0,9.271523E-2,1E0,-2.0289855E-1,4.4425394E-2,1.5E1,1.4E0,4.076928E-2,-2.4027914E-2,1.018868E0,3.1711537E-1,1.8937984E-1,1.333787E0,1.5938155E-2,-5.1897517E-3,1.8368535E-2,2.6174644E-2,1.882338E-2,3.537504E-2,2.775569E-2,1.5702207E-2],"split_indices":[23,20,0,19,0,23,14,0,0,14,4,4,12,0,0,0,0,0,0,0,0],"split_type":[0,0,0,0,0,0,0,0,0,0,0,0,0,0,0,0,0,0,0,0,0],"sum_hessian":[1.85225E4,1.0171187E4,8.3513125E3,9.963203E3,2.0798312E2,5.1208794E3,3.230433E3,5.9902645E1,9.903301E3,3.566623E2,4.7642173E3,2.3988828E3,8.3155023E2,1.7946259E2,1.771997E2,1.1339014E3,3.630316E3,1.1124485E2,2.287638E3,6.163372E2,2.1521298E2],"tree_param":{"num_deleted":"0","num_feature":"26","num_nodes":"21","size_leaf_vector":"1"}},{"base_weights":[-5.0402237E-3,-1.1045433E0,1.2936475E0,-2.4030983E-2,4.4026036E-2,1.1135792E0,1.5742933E0,2.670435E-1,1.1775757E0,1.7401036E0,1.3499038E0,2.055594E-2,-3.6301743E-3,2.7897624E-2,2.1214368E-2,1.5737819E-2,3.538232E-2,2.0940393E-2,2.9050793E-2],"categories":[],"categories_nodes":[],"categories_segments":[],"categories_sizes":[],"default_left":[0,0,0,0,0,0,0,0,0,0,0,0,0,0,0,0,0,0,0],"id":14,"left_children":[1,3,5,-1,-1,7,9,11,13,15,17,-1,-1,-1,-1,-1,-1,-1,-1],"loss_changes":[2.6543182E4,3.2529004E3,4.0774316E2,0E0,0E0,2.772798E2,9.319141E1,1.3414581E2,1.0362695E2,3.2384277E1,2.495996E1,0E0,0E0,0E0,0E0,0E0,0E0,0E0,0E0],"parents":[2147483647,0,0,1,1,2,2,5,5,6,6,7,7,8,8,9,9,10,10],"right_children":[2,4,6,-1,-1,8,10,12,14,16,18,-1,-1,-1,-1,-1,-1,-1,-1],"split_conditions":[1E0,1E0,1E0,-2.4030983E-2,4.4026036E-2,1.5E1,1.032258E0,8.235294E-1,7.3333335E-1,1.7539833E-1,7.382082E-1,2.055594E-2,-3.6301743E-3,2.7897624E-2,2.1214368E-2,1.5737819E-2,3.538232E-2,2.0940393E-2,2.9050793E-2],"split_indices":[23,16,0,0,0,23,14,14,14,4,4,0,0,0,0,0,0,0,0],"split_type":[0,0,0,0,0,0,0,0,0,0,0,0,0,0,0,0,0,0,0],"sum_hessian":[1.8569076E4,1.0057319E4,8.511756E3,9.777385E3,2.7993448E2,5.2195728E3,3.2921836E3,3.726884E2,4.8468843E3,1.8492427E3,1.4429408E3,1.3510046E2,2.3758794E2,1.6507318E3,3.1961526E3,6.496485E1,1.7842778E3,3.9848587E2,1.044455E3],"tree_param":{"num_deleted":"0","num_feature":"26","num_nodes":"19","size_leaf_vector":"1"}},{"base_weights":[-0E0,-1.1790729E0,1.2935786E0,-2.3919033E-2,3.7164986E-2,1.1245476E0,1.5523052E0,1.2280265E0,7.9806596E-1,1.6230947E0,1.23898E0,1.4210778E-2,2.6125407E-2,2.5211329E-2,1.1093485E-2,2.6744833E-2,3.4630205E-2,3.4050427E-2,1.5737187E-2],"categories":[],"categories_nodes":[],"categories_segments":[],"categories_sizes":[],"default_left":[0,0,0,0,0,0,0,0,0,0,0,0,0,0,0,0,0,0,0],"id":15,"left_children":[1,3,5,-1,-1,7,9,11,13,15,17,-1,-1,-1,-1,-1,-1,-1,-1],"loss_changes":[2.8180328E4,5.1647656E2,3.6245996E2,0E0,0E0,1.6754688E2,5.0692383E1,1.5082959E2,1.3858405E2,5.67666E1,1.2483032E2,0E0,0E0,0E0,0E0,0E0,0E0,0E0,0E0],"parents":[2147483647,0,0,1,1,2,2,5,5,6,6,7,7,8,8,9,9,10,10],"right_children":[2,4,6,-1,-1,8,10,12,14,16,18,-1,-1,-1,-1,-1,-1,-1,-1],"split_conditions":[6.086956E-1,1E0,1E0,-2.3919033E-2,3.7164986E-2,1.3401976E0,1.333787E0,1.8937984E-1,6.8795343E-4,7.5636333E-1,7.0502755E-4,1.4210778E-2,2.6125407E-2,2.5211329E-2,1.1093485E-2,2.6744833E-2,3.4630205E-2,3.4050427E-2,1.5737187E-2],"split_indices":[18,16,0,0,0,12,12,4,13,4,13,0,0,0,0,0,0,0,0],"split_type":[0,0,0,0,0,0,0,0,0,0,0,0,0,0,0,0,0,0,0],"sum_hessian":[1.8456336E4,9.65673E3,8.799606E3,9.610047E3,4.668336E1,5.3594004E3,3.4402056E3,4.0439307E3,1.3154698E3,2.7668962E3,6.733093E2,5.4773083E2,3.4961997E3,4.363311E2,8.791388E2,8.025789E2,1.9643173E3,3.1661588E2,3.5669345E2],"tree_param":{"num_deleted":"0","num_feature":"26","num_nodes":"19","size_leaf_vector":"1"}},{"base_weights":[3.5155932E-3,-1.1748602E0,1.2626461E0,2.6032917E-2,-1.1798942E0,9.145602E-1,1.3659682E0,-2.3687389E-2,2.1142377E-2,3.5526797E-2,8.501565E-1,1.4741E0,9.5581275E-1,-1.9560514E-3,1.8784652E-2,3.2417636E-2,2.5015732E-2,8.048183E-3,2.1849014E-2],"categories":[],"categories_nodes":[],"categories_segments":[],"categories_sizes":[],"default_left":[0,0,0,0,0,0,0,0,0,0,0,0,0,0,0,0,0,0,0],"id":16,"left_children":[1,3,5,-1,7,9,11,-1,-1,-1,13,15,17,-1,-1,-1,-1,-1,-1],"loss_changes":[2.7236125E4,1.3331836E2,3.021328E2,0E0,1.0756152E2,9.431543E1,2.8347363E2,0E0,0E0,0E0,1.667312E2,1.5013184E2,1.02631226E2,0E0,0E0,0E0,0E0,0E0,0E0],"parents":[2147483647,0,0,1,1,2,2,4,4,5,5,6,6,10,10,11,11,12,12],"right_children":[2,4,6,-1,8,10,12,-1,-1,-1,14,16,18,-1,-1,-1,-1,-1,-1],"split_conditions":[6.086956E-1,-8.045977E-2,3.8906935E-1,2.6032917E-2,1.04477614E-1,2E0,1.333787E0,-2.3687389E-2,2.1142377E-2,3.5526797E-2,1.5E1,1.018868E0,1E0,-1.9560514E-3,1.8784652E-2,3.2417636E-2,2.5015732E-2,8.048183E-3,2.1849014E-2],"split_indices":[18,25,4,0,25,23,12,0,0,0,23,14,17,0,0,0,0,0,0],"split_type":[0,0,0,0,0,0,0,0,0,0,0,0,0,0,0,0,0,0,0],"sum_hessian":[1.833642E4,9.471479E3,8.864941E3,1.3182741E1,9.458296E3,2.0560627E3,6.808879E3,9.445001E3,1.3295322E1,1.22328545E2,1.9337343E3,5.363935E3,1.4449436E3,1.6408525E2,1.769649E3,3.1934026E3,2.1705325E3,2.968294E2,1.1481141E3],"tree_param":{"num_deleted":"0","num_feature":"26","num_nodes":"19","size_leaf_vector":"1"}},{"base_weights":[-4.0558693E-3,-1.1701462E0,1.2169218E0,-2.3730299E-2,3.500442E-2,1.0583271E0,1.4603189E0,1.1523854E0,7.6625115E-1,1.5642219E0,1.1468192E0,1.0567369E-2,2.4184605E-2,1.85212E-2,3.0913544E-3,2.5243226E-2,3.3056438E-2,3.009668E-2,1.9835418E-2],"categories":[],"categories_nodes":[],"categories_segments":[],"categories_sizes":[],"default_left":[0,0,0,0,0,0,0,0,0,0,0,0,0,0,0,0,0,0,0],"id":17,"left_children":[1,3,5,-1,-1,7,9,11,13,15,17,-1,-1,-1,-1,-1,-1,-1,-1],"loss_changes":[2.5998262E4,4.661582E2,3.2380762E2,0E0,0E0,1.3683008E2,9.024219E1,1.3525928E2,1.2940778E2,4.2547363E1,3.0619507E1,0E0,0E0,0E0,0E0,0E0,0E0,0E0,0E0],"parents":[2147483647,0,0,1,1,2,2,5,5,6,6,7,7,8,8,9,9,10,10],"right_children":[2,4,6,-1,-1,8,10,12,14,16,18,-1,-1,-1,-1,-1,-1,-1,-1],"split_conditions":[6.086956E-1,1E0,1E0,-2.3730299E-2,3.500442E-2,1.333787E0,1.4E0,1.221758E-1,1E0,6.366446E-1,8.2996386E-1,1.0567369E-2,2.4184605E-2,1.85212E-2,3.0913544E-3,2.5243226E-2,3.3056438E-2,3.009668E-2,1.9835418E-2],"split_indices":[18,16,0,0,0,12,14,4,16,4,12,0,0,0,0,0,0,0,0],"split_type":[0,0,0,0,0,0,0,0,0,0,0,0,0,0,0,0,0,0,0],"sum_hessian":[1.8240217E4,9.330863E3,8.909353E3,9.285439E3,4.5423294E1,5.431771E3,3.477582E3,4.0811875E3,1.3505834E3,2.5771602E3,9.004218E2,3.522693E2,3.7289182E3,1.0641527E3,2.8643063E2,6.241849E2,1.9529753E3,2.4190198E2,6.5851984E2],"tree_param":{"num_deleted":"0","num_feature":"26","num_nodes":"19","size_leaf_vector":"1"}},{"base_weights":[-3.5878196E-3,-1.1657833E0,1.1822398E0,-2.364119E-2,3.443835E-2,1.0222178E0,1.4267492E0,3.8321733E-2,9.9163795E-1,3.9221648E-2,1.3765175E0,1.8390967E-3,2.1044577E-2,2.8869305E-2,2.1572405E-2],"categories":[],"categories_nodes":[],"categories_segments":[],"categories_sizes":[],"default_left":[0,0,0,0,0,0,0,0,0,0,0,0,0,0,0],"id":18,"left_children":[1,3,5,-1,-1,7,9,-1,11,-1,13,-1,-1,-1,-1],"loss_changes":[2.5181113E4,4.530254E2,3.3434277E2,0E0,0E0,1.2568652E2,6.153174E1,0E0,2.8821094E2,0E0,4.478369E1,0E0,0E0,0E0,0E0],"parents":[2147483647,0,0,1,1,2,2,5,5,6,6,8,8,10,10],"right_children":[2,4,6,-1,-1,8,10,-1,12,-1,14,-1,-1,-1,-1],"split_conditions":[6.086956E-1,1E0,1E0,-2.364119E-2,3.443835E-2,2E0,2E0,3.8321733E-2,1.5E1,3.9221648E-2,1.333787E0,1.8390967E-3,2.1044577E-2,2.8869305E-2,2.1572405E-2],"split_indices":[18,16,0,0,0,23,23,0,23,0,12,0,0,0,0],"split_type":[0,0,0,0,0,0,0,0,0,0,0,0,0,0,0],"sum_hessian":[1.8251523E4,9.218547E3,9.032977E3,9.17344E3,4.5105995E1,5.4960234E3,3.5369526E3,1.592428E2,5.336781E3,2.6782077E2,3.269132E3,3.404086E2,4.996372E3,2.6323772E3,6.367548E2],"tree_param":{"num_deleted":"0","num_feature":"26","num_nodes":"15","size_leaf_vector":"1"}},{"base_weights":[-1.9845832E-3,-1.1608063E0,1.1538167E0,-2.3554053E-2,3.588527E-2,1.0074621E0,1.3802065E0,1.1494309E0,7.80969E-1,3.2328032E-2,1.2340009E0,1.33222435E-2,2.4605455E-2,9.697399E-3,1.8849524E-2,2.6249817E-2,1.7709399E-2],"categories":[],"categories_nodes":[],"categories_segments":[],"categories_sizes":[],"default_left":[0,0,0,0,0,0,0,0,0,0,0,0,0,0,0,0,0],"id":19,"left_children":[1,3,5,-1,-1,7,9,11,13,-1,15,-1,-1,-1,-1,-1,-1],"loss_changes":[2.4263045E4,4.7159863E2,2.8179004E2,0E0,0E0,1.6563232E2,9.619678E1,1.2027783E2,9.659619E1,0E0,4.489917E1,0E0,0E0,0E0,0E0,0E0,0E0],"parents":[2147483647,0,0,1,1,2,2,5,5,6,6,7,7,8,8,10,10],"right_children":[2,4,6,-1,-1,8,10,12,14,-1,16,-1,-1,-1,-1,-1,-1],"split_conditions":[6.086956E-1,1E0,1E0,-2.3554053E-2,3.588527E-2,1.018868E0,8.148148E-1,1.8937984E-1,9.334831E-1,3.2328032E-2,1.333787E0,1.33222435E-2,2.4605455E-2,9.697399E-3,1.8849524E-2,2.6249817E-2,1.7709399E-2],"split_indices":[18,16,0,0,0,14,14,4,24,0,12,0,0,0,0,0,0],"split_type":[0,0,0,0,0,0,0,0,0,0,0,0,0,0,0,0,0],"sum_hessian":[1.8095291E4,9.036682E3,9.058609E3,8.991959E3,4.4722397E1,5.5403003E3,3.5183096E3,3.3751409E3,2.1651592E3,1.301499E3,2.2168103E3,5.0042908E2,2.874712E3,7.826654E2,1.3824938E3,1.7820852E3,4.3472522E2],"tree_param":{"num_deleted":"0","num_feature":"26","num_nodes":"17","size_leaf_vector":"1"}},{"base_weights":[-2.2739803E-3,-1.1548158E0,1.1244261E0,3.2312665E-2,-1.1648465E0,9.722401E-1,1.3579992E0,-2.3371136E-2,1.6728101E-2,1.1007941E0,7.668689E-1,1.4546087E0,1.0454818E0,1.2637046E-2,2.3593344E-2,9.236665E-3,1.864005E-2,1.4905834E-2,2.9469192E-2,9.031129E-3,2.264243E-2],"categories":[],"categories_nodes":[],"categories_segments":[],"categories_sizes":[],"default_left":[0,0,0,0,0,0,0,0,0,0,0,0,0,0,0,0,0,0,0,0,0],"id":20,"left_children":[1,3,5,-1,7,9,11,-1,-1,13,15,17,19,-1,-1,-1,-1,-1,-1,-1,-1],"loss_changes":[2.3458215E4,2.661006E2,3.0681445E2,0E0,7.656055E1,1.3490039E2,8.7668945E1,0E0,0E0,1.1457617E2,1.02900024E2,2.0666992E1,3.7217224E1,0E0,0E0,0E0,0E0,0E0,0E0,0E0,0E0],"parents":[2147483647,0,0,1,1,2,2,4,4,5,5,6,6,9,9,10,10,11,11,12,12],"right_children":[2,4,6,-1,8,10,12,-1,-1,14,16,18,20,-1,-1,-1,-1,-1,-1,-1,-1],"split_conditions":[6.086956E-1,0E0,1E0,3.2312665E-2,2.0588236E-1,1.018868E0,1.4285715E0,-2.3371136E-2,1.6728101E-2,1.8937984E-1,9.334831E-1,1.3484855E-1,9.8600507E-1,1.2637046E-2,2.3593344E-2,9.236665E-3,1.864005E-2,1.4905834E-2,2.9469192E-2,9.031129E-3,2.264243E-2],"split_indices":[18,19,0,0,20,14,14,0,0,4,24,4,24,0,0,0,0,0,0,0,0],"split_type":[0,0,0,0,0,0,0,0,0,0,0,0,0,0,0,0,0,0,0,0,0],"sum_hessian":[1.804462E4,8.92077E3,9.12385E3,2.5688297E1,8.895082E3,5.5608364E3,3.5630127E3,8.883771E3,1.1310063E1,3.38723E3,2.1736064E3,2.6888535E3,8.741592E2,5.0431064E2,2.8829194E3,7.810065E2,1.3925999E3,8.284996E1,2.6060037E3,1.2213216E2,7.52027E2],"tree_param":{"num_deleted":"0","num_feature":"26","num_nodes":"21","size_leaf_vector":"1"}},{"base_weights":[-6.6691414E-3,-1.0667307E0,1.0655878E0,-2.3407549E-2,3.840195E-2,9.1623455E-1,1.2988672E0,1.8154286E-1,9.7016495E-1,1.607048E0,1.19108E0,1.6871428E-2,-3.6922153E-3,2.1107428E-2,1.4144387E-2,1.46460375E-2,3.280854E-2,2.7365303E-2,2.0947058E-2],"categories":[],"categories_nodes":[],"categories_segments":[],"categories_sizes":[],"default_left":[0,0,0,0,0,0,0,0,0,0,0,0,0,0,0,0,0,0,0],"id":21,"left_children":[1,3,5,-1,-1,7,9,11,13,15,17,-1,-1,-1,-1,-1,-1,-1,-1],"loss_changes":[2.0424559E4,2.8185283E3,2.9487695E2,0E0,0E0,2.1325732E2,9.010791E1,9.739417E1,1.03385254E2,8.42334E0,4.7175293E1,0E0,0E0,0E0,0E0,0E0,0E0,0E0,0E0],"parents":[2147483647,0,0,1,1,2,2,5,5,6,6,7,7,8,8,9,9,10,10],"right_children":[2,4,6,-1,-1,8,10,12,14,16,18,-1,-1,-1,-1,-1,-1,-1,-1],"split_conditions":[1E0,1E0,1E0,-2.3407549E-2,3.840195E-2,1.5E1,6.744186E-1,8.235294E-1,1.333787E0,2.220339E-1,9.252342E-1,1.6871428E-2,-3.6922153E-3,2.1107428E-2,1.4144387E-2,1.46460375E-2,3.280854E-2,2.7365303E-2,2.0947058E-2],"split_indices":[23,16,0,0,0,23,14,14,12,4,12,0,0,0,0,0,0,0,0],"split_type":[0,0,0,0,0,0,0,0,0,0,0,0,0,0,0,0,0,0,0],"sum_hessian":[1.794895E4,9.026767E3,8.922184E3,8.730557E3,2.9621014E2,5.4748516E3,3.447332E3,3.7992288E2,5.0949287E3,8.524346E2,2.5948975E3,1.3259901E2,2.4732385E2,3.819494E3,1.2754347E3,4.1965675E1,8.104689E2,1.1177876E3,1.4771097E3],"tree_param":{"num_deleted":"0","num_feature":"26","num_nodes":"19","size_leaf_vector":"1"}},{"base_weights":[3.7551105E-3,-1.1481026E0,1.069243E0,-2.3307087E-2,3.259059E-2,9.2823297E-1,1.2860516E0,1.0877491E0,7.599936E-1,1.3833227E0,9.752292E-1,1.2361331E-2,2.3254387E-2,1.0288282E-2,1.8021494E-2,1.9420253E-2,2.8709225E-2,2.6407264E-2,1.6490808E-2],"categories":[],"categories_nodes":[],"categories_segments":[],"categories_sizes":[],"default_left":[0,0,0,0,0,0,0,0,0,0,0,0,0,0,0,0,0,0,0],"id":22,"left_children":[1,3,5,-1,-1,7,9,11,13,15,17,-1,-1,-1,-1,-1,-1,-1,-1],"loss_changes":[2.1981963E4,4.304453E2,2.6811523E2,0E0,0E0,1.4046484E2,9.170801E1,9.088086E1,8.966846E1,4.0155273E1,3.190802E1,0E0,0E0,0E0,0E0,0E0,0E0,0E0,0E0],"parents":[2147483647,0,0,1,1,2,2,5,5,6,6,7,7,8,8,9,9,10,10],"right_children":[2,4,6,-1,-1,8,10,12,14,16,18,-1,-1,-1,-1,-1,-1,-1,-1],"split_conditions":[6.086956E-1,1E0,1E0,-2.3307087E-2,3.259059E-2,9.0909094E-1,1.4285715E0,1.8937984E-1,9.334831E-1,3.8906935E-1,8.3775836E-1,1.2361331E-2,2.3254387E-2,1.0288282E-2,1.8021494E-2,1.9420253E-2,2.8709225E-2,2.6407264E-2,1.6490808E-2],"split_indices":[18,16,0,0,0,14,14,4,24,4,12,0,0,0,0,0,0,0,0],"split_type":[0,0,0,0,0,0,0,0,0,0,0,0,0,0,0,0,0,0,0],"sum_hessian":[1.7891098E4,8.595828E3,9.29527E3,8.549253E3,4.6574497E1,5.669759E3,3.6255105E3,2.8761729E3,2.7935862E3,2.7301704E3,8.953403E2,4.1229553E2,2.4638772E3,1.0414232E3,1.752163E3,3.328217E2,2.3973486E3,2.444845E2,6.508558E2],"tree_param":{"num_deleted":"0","num_feature":"26","num_nodes":"19","size_leaf_vector":"1"}},{"base_weights":[3.3628664E-3,-1.0566068E0,1.0227339E0,-2.3249652E-2,3.692595E-2,8.8462836E-1,1.2362094E0,1.8562071E-1,9.357613E-1,2.999898E-2,1.1305746E0,2.2032645E-2,-2.086707E-3,2.2009624E-2,1.6738482E-2,2.4416968E-2,1.9112438E-2],"categories":[],"categories_nodes":[],"categories_segments":[],"categories_sizes":[],"default_left":[0,0,0,0,0,0,0,0,0,0,0,0,0,0,0,0,0],"id":23,"left_children":[1,3,5,-1,-1,7,9,11,13,-1,15,-1,-1,-1,-1,-1,-1],"loss_changes":[1.9261299E4,2.705753E3,2.5275977E2,0E0,0E0,1.9471387E2,7.638086E1,1.0781021E2,7.116553E1,0E0,2.4616943E1,0E0,0E0,0E0,0E0,0E0,0E0],"parents":[2147483647,0,0,1,1,2,2,5,5,6,6,7,7,8,8,10,10],"right_children":[2,4,6,-1,-1,8,10,12,14,-1,16,-1,-1,-1,-1,-1,-1],"split_conditions":[1E0,1E0,1E0,-2.3249652E-2,3.692595E-2,1.5E1,7.058824E-1,4E0,7.619048E-1,2.999898E-2,1.4E0,2.2032645E-2,-2.086707E-3,2.2009624E-2,1.6738482E-2,2.4416968E-2,1.9112438E-2],"split_indices":[23,16,0,0,0,23,14,23,14,0,14,0,0,0,0,0,0],"split_type":[0,0,0,0,0,0,0,0,0,0,0,0,0,0,0,0,0],"sum_hessian":[1.7806305E4,8.72818E3,9.078126E3,8.427493E3,3.006863E2,5.5490435E3,3.5290823E3,3.840701E2,5.164973E3,9.660946E2,2.5629878E3,8.7271576E1,2.9679852E2,1.8913352E3,3.273638E3,1.6436611E3,9.193266E2],"tree_param":{"num_deleted":"0","num_feature":"26","num_nodes":"17","size_leaf_vector":"1"}},{"base_weights":[4.1298044E-4,-1.1386393E0,1.0172645E0,2.6613938E-2,-1.1476892E0,8.677499E-1,1.2440083E0,-2.3036812E-2,1.7225256E-2,6.058031E-1,9.356322E-1,9.408387E-1,1.297194E0,9.534686E-3,1.7599327E-2,2.491305E-2,1.6660012E-2,9.922836E-3,1.9889032E-2,1.5526471E-2,2.6610378E-2],"categories":[],"categories_nodes":[],"categories_segments":[],"categories_sizes":[],"default_left":[0,0,0,0,0,0,0,0,0,0,0,0,0,0,0,0,0,0,0,0,0],"id":24,"left_children":[1,3,5,-1,7,9,11,-1,-1,13,15,17,19,-1,-1,-1,-1,-1,-1,-1,-1],"loss_changes":[2.050884E4,2.0152051E2,3.0217285E2,0E0,7.994336E1,9.218994E1,4.2810547E1,0E0,0E0,3.5652313E1,1.2813599E2,6.21521E0,3.9385742E1,0E0,0E0,0E0,0E0,0E0,0E0,0E0,0E0],"parents":[2147483647,0,0,1,1,2,2,4,4,5,5,6,6,9,9,10,10,11,11,12,12],"right_children":[2,4,6,-1,8,10,12,-1,-1,14,16,18,20,-1,-1,-1,-1,-1,-1,-1,-1],"split_conditions":[6.086956E-1,0E0,1E0,2.6613938E-2,2.0588236E-1,2.787359E-1,-4.4296033E-4,-2.3036812E-2,1.7225256E-2,-9.363785E-1,5.068481E-4,1.0274721E0,2.1234396E-1,9.534686E-3,1.7599327E-2,2.491305E-2,1.6660012E-2,9.922836E-3,1.9889032E-2,1.5526471E-2,2.6610378E-2],"split_indices":[18,19,0,0,20,4,5,0,0,19,13,4,4,0,0,0,0,0,0,0,0],"split_type":[0,0,0,0,0,0,0,0,0,0,0,0,0,0,0,0,0,0,0,0,0],"sum_hessian":[1.7687002E4,8.340742E3,9.346261E3,2.431645E1,8.316425E3,5.666724E3,3.6795369E3,8.304526E3,1.1898841E1,1.1927599E3,4.4739644E3,5.8267334E2,3.0968635E3,8.345565E2,3.582033E2,1.0801838E3,3.3937808E3,7.773556E1,5.049378E2,2.0443922E2,2.8924243E3],"tree_param":{"num_deleted":"0","num_feature":"26","num_nodes":"21","size_leaf_vector":"1"}},{"base_weights":[-1.4163017E-3,-1.1353778E0,9.817541E-1,2.7036794E-2,-1.1448622E0,3.3845708E-2,9.451121E-1,-2.2980431E-2,1.5844613E-2,7.376301E-1,1.0690401E0,-1.1995295E-3,1.6135981E-2,2.652873E-2,1.898081E-2],"categories":[],"categories_nodes":[],"categories_segments":[],"categories_sizes":[],"default_left":[0,0,0,0,0,0,0,0,0,0,0,0,0,0,0],"id":25,"left_children":[1,3,5,-1,7,-1,9,-1,-1,11,13,-1,-1,-1,-1],"loss_changes":[1.9699938E4,2.0865723E2,2.251084E2,0E0,7.5737305E1,0E0,2.205459E2,0E0,0E0,1.9026624E2,1.564956E2,0E0,0E0,0E0,0E0],"parents":[2147483647,0,0,1,1,2,2,4,4,6,6,9,9,10,10],"right_children":[2,4,6,-1,8,-1,10,-1,-1,12,14,-1,-1,-1,-1],"split_conditions":[6.086956E-1,0E0,2E0,2.7036794E-2,2.0588236E-1,3.3845708E-2,6.443599E-1,-2.2980431E-2,1.5844613E-2,1.5E1,7.3913044E-1,-1.1995295E-3,1.6135981E-2,2.652873E-2,1.898081E-2],"split_indices":[18,19,23,0,20,0,4,0,0,23,14,0,0,0,0],"split_type":[0,0,0,0,0,0,0,0,0,0,0,0,0,0,0],"sum_hessian":[1.7649777E4,8.196569E3,9.453208E3,2.495974E1,8.171609E3,4.3875732E2,9.014451E3,8.15919E3,1.241914E1,3.4029084E3,5.6115425E3,2.6935165E2,3.133557E3,1.7470197E3,3.864523E3],"tree_param":{"num_deleted":"0","num_feature":"26","num_nodes":"15","size_leaf_vector":"1"}},{"base_weights":[-8.250368E-4,-1.1326458E0,9.6614546E-1,-2.3014287E-2,3.020714E-2,3.3841006E-2,9.2903644E-1,5.930546E-1,1.0078566E0,-4.8619946E-3,1.3408389E-2,2.1979207E-2,1.3604229E-2],"categories":[],"categories_nodes":[],"categories_segments":[],"categories_sizes":[],"default_left":[0,0,0,0,0,0,0,0,0,0,0,0,0],"id":26,"left_children":[1,3,5,-1,-1,-1,7,9,11,-1,-1,-1,-1],"loss_changes":[1.914672E4,4.0161914E2,2.3314648E2,0E0,0E0,0E0,2.2914062E2,1.14987854E2,2.0597656E2,0E0,0E0,0E0,0E0],"parents":[2147483647,0,0,1,1,2,2,6,6,7,7,8,8],"right_children":[2,4,6,-1,-1,-1,8,10,12,-1,-1,-1,-1],"split_conditions":[6.086956E-1,1E0,2E0,-2.3014287E-2,3.020714E-2,3.3841006E-2,3.3223593E-1,1.5E1,1.333787E0,-4.8619946E-3,1.3408389E-2,2.1979207E-2,1.3604229E-2],"split_indices":[18,16,23,0,0,0,4,23,12,0,0,0,0],"split_type":[0,0,0,0,0,0,0,0,0,0,0,0,0],"sum_hessian":[1.7474277E4,8.05104E3,9.423236E3,8.002733E3,4.8306854E1,4.33986E2,8.98925E3,1.7291447E3,7.260106E3,1.4243561E2,1.5867091E3,5.657388E3,1.6027177E3],"tree_param":{"num_deleted":"0","num_feature":"26","num_nodes":"13","size_leaf_vector":"1"}},{"base_weights":[-4.306176E-3,-1.0384942E0,9.141698E-1,-2.295846E-2,3.358748E-2,7.787884E-1,1.127123E0,9.2202924E-2,8.288991E-1,1.405411E0,1.0289227E0,1.0764765E-2,-7.179847E-3,1.8060695E-2,1.201341E-2,2.8920244E-2,1.4811027E-2,1.6219284E-2,2.2446016E-2],"categories":[],"categories_nodes":[],"categories_segments":[],"categories_sizes":[],"default_left":[0,0,0,0,0,0,0,0,0,0,0,0,0,0,0,0,0,0,0],"id":27,"left_children":[1,3,5,-1,-1,7,9,11,13,15,17,-1,-1,-1,-1,-1,-1,-1,-1],"loss_changes":[1.6557572E4,2.4570156E3,2.5353857E2,0E0,0E0,1.9286475E2,7.794629E1,8.287526E1,8.109131E1,9.0998535E0,4.1449707E1,0E0,0E0,0E0,0E0,0E0,0E0,0E0,0E0],"parents":[2147483647,0,0,1,1,2,2,5,5,6,6,7,7,8,8,9,9,10,10],"right_children":[2,4,6,-1,-1,8,10,12,14,16,18,-1,-1,-1,-1,-1,-1,-1,-1],"split_conditions":[1E0,1E0,1E0,-2.295846E-2,3.358748E-2,1.5E1,6.744186E-1,1.018868E0,1.333787E0,1.6503605E0,8.121563E-1,1.0764765E-2,-7.179847E-3,1.8060695E-2,1.201341E-2,2.8920244E-2,1.4811027E-2,1.6219284E-2,2.2446016E-2],"split_indices":[23,16,0,0,0,23,14,14,12,12,4,0,0,0,0,0,0,0,0],"split_type":[0,0,0,0,0,0,0,0,0,0,0,0,0,0,0,0,0,0,0],"sum_hessian":[1.7411025E4,8.190046E3,9.2209795E3,7.8793154E3,3.1073044E2,5.6714287E3,3.549551E3,3.9042194E2,5.281007E3,8.858043E2,2.6637466E3,1.9759258E2,1.9282935E2,3.9572422E3,1.3237645E3,8.2091583E2,6.488849E1,8.343999E2,1.8293467E3],"tree_param":{"num_deleted":"0","num_feature":"26","num_nodes":"19","size_leaf_vector":"1"}},{"base_weights":[1.7381308E-3,-1.124629E0,9.1523373E-1,-2.2871498E-2,3.0735992E-2,6.183899E-1,9.893117E-1,2.6271882E-2,5.660003E-1,1.0763633E0,6.700765E-1,-6.9333264E-3,1.29883755E-2,2.6893083E-2,1.992026E-2,2.375436E-2,8.905483E-3],"categories":[],"categories_nodes":[],"categories_segments":[],"categories_sizes":[],"default_left":[0,0,0,0,0,0,0,0,0,0,0,0,0,0,0,0,0],"id":28,"left_children":[1,3,5,-1,-1,7,9,-1,11,13,15,-1,-1,-1,-1,-1,-1],"loss_changes":[1.785317E4,4.0854785E2,2.0137354E2,0E0,0E0,5.967267E1,2.0178662E2,0E0,1.4215295E2,1.1098242E2,1.8574835E2,0E0,0E0,0E0,0E0,0E0,0E0],"parents":[2147483647,0,0,1,1,2,2,5,5,6,6,8,8,9,9,10,10],"right_children":[2,4,6,-1,-1,8,10,-1,12,14,16,-1,-1,-1,-1,-1,-1],"split_conditions":[6.086956E-1,1E0,3.4209275E-1,-2.2871498E-2,3.0735992E-2,2E0,1.333787E0,2.6271882E-2,1.5E1,6.467066E-1,6.82418E-4,-6.9333264E-3,1.29883755E-2,2.6893083E-2,1.992026E-2,2.375436E-2,8.905483E-3],"split_indices":[18,16,4,0,0,23,12,0,23,14,13,0,0,0,0,0,0],"split_type":[0,0,0,0,0,0,0,0,0,0,0,0,0,0,0,0,0],"sum_hessian":[1.7331578E4,7.759448E3,9.57213E3,7.7110107E3,4.843773E1,1.9357416E3,7.6363887E3,1.161068E2,1.8196348E3,5.976647E3,1.659742E3,1.477371E2,1.6718976E3,1.3354204E3,4.6412266E3,4.8688483E2,1.172857E3],"tree_param":{"num_deleted":"0","num_feature":"26","num_nodes":"17","size_leaf_vector":"1"}},{"base_weights":[-1.8877869E-3,-1.1217251E0,8.947721E-1,-2.2796966E-2,2.8977498E-2,7.640492E-1,1.0964241E0,8.442653E-1,5.136704E-1,5.401781E-1,1.1152599E0,9.093883E-3,1.8355532E-2,1.307066E-2,-0E0,-0E0,1.5093993E-2,2.3119628E-2,1.6514106E-2],"categories":[],"categories_nodes":[],"categories_segments":[],"categories_sizes":[],"default_left":[0,0,0,0,0,0,0,0,0,0,0,0,0,0,0,0,0,0,0],"id":29,"left_children":[1,3,5,-1,-1,7,9,11,13,15,17,-1,-1,-1,-1,-1,-1,-1,-1],"loss_changes":[1.7306736E4,3.7298633E2,2.4018555E2,0E0,0E0,1.1034888E2,2.979834E1,1.1924585E2,1.0535892E2,1.6241035E1,2.8937988E1,0E0,0E0,0E0,0E0,0E0,0E0,0E0,0E0],"parents":[2147483647,0,0,1,1,2,2,5,5,6,6,7,7,8,8,9,9,10,10],"right_children":[2,4,6,-1,-1,8,10,12,14,16,18,-1,-1,-1,-1,-1,-1,-1,-1],"split_conditions":[6.086956E-1,1E0,1E0,-2.2796966E-2,2.8977498E-2,1.3401976E0,1.3484855E-1,2.2668557E-1,1E0,1E0,2.488889E0,9.093883E-3,1.8355532E-2,1.307066E-2,-0E0,-0E0,1.5093993E-2,2.3119628E-2,1.6514106E-2],"split_indices":[18,16,0,0,0,12,4,4,16,24,15,0,0,0,0,0,0,0,0],"split_type":[0,0,0,0,0,0,0,0,0,0,0,0,0,0,0,0,0,0,0],"sum_hessian":[1.7215393E4,7.654908E3,9.560484E3,7.607617E3,4.729131E1,5.8354204E3,3.7250635E3,4.3954907E3,1.4399299E3,1.3520613E2,3.5898574E3,7.134808E2,3.6820098E3,1.1324196E3,3.0751047E2,4.230234E1,9.290379E1,3.114955E3,4.7490225E2],"tree_param":{"num_deleted":"0","num_feature":"26","num_nodes":"19","size_leaf_vector":"1"}},{"base_weights":[-3.9359196E-3,-1.118488E0,8.71911E-1,-2.2743262E-2,2.9971745E-2,7.422299E-1,1.0733926E0,8.607888E-1,5.586496E-1,3.13111E-2,1.0283996E0,7.6492256E-3,1.810155E-2,3.7973298E-4,1.2444315E-2,2.3249699E-2,1.6977163E-2],"categories":[],"categories_nodes":[],"categories_segments":[],"categories_sizes":[],"default_left":[0,0,0,0,0,0,0,0,0,0,0,0,0,0,0,0,0],"id":30,"left_children":[1,3,5,-1,-1,7,9,11,13,-1,15,-1,-1,-1,-1,-1,-1],"loss_changes":[1.6720156E4,3.8472363E2,2.3897021E2,0E0,0E0,1.20178955E2,6.1240234E1,6.902759E1,7.886029E1,0E0,6.91062E1,0E0,0E0,0E0,0E0,0E0,0E0],"parents":[2147483647,0,0,1,1,2,2,5,5,6,6,7,7,8,8,10,10],"right_children":[2,4,6,-1,-1,8,10,12,14,-1,16,-1,-1,-1,-1,-1,-1],"split_conditions":[6.086956E-1,1E0,1E0,-2.2743262E-2,2.9971745E-2,1.018868E0,2E0,1.0962493E-1,1.5E1,3.13111E-2,1.032258E0,7.6492256E-3,1.810155E-2,3.7973298E-4,1.2444315E-2,2.3249699E-2,1.6977163E-2],"split_indices":[18,16,0,0,0,14,23,4,23,0,14,0,0,0,0,0,0],"split_type":[0,0,0,0,0,0,0,0,0,0,0,0,0,0,0,0,0],"sum_hessian":[1.7107705E4,7.52779E3,9.579916E3,7.4808267E3,4.6963463E1,5.863021E3,3.7168948E3,3.5333481E3,2.3296729E3,2.7930276E2,3.437592E3,3.1142368E2,3.2219246E3,2.5017671E2,2.0794963E3,1.9301937E3,1.5073984E3],"tree_param":{"num_deleted":"0","num_feature":"26","num_nodes":"17","size_leaf_vector":"1"}},{"base_weights":[-1.650665E-3,-1.1125271E0,8.5899806E-1,-2.26676E-2,2.942657E-2,9.318274E-1,6.105183E-1,5.8920383E-1,1.0061704E0,1.0521083E0,3.4185576E-1,9.140987E-3,1.7116724E-2,2.4855528E-2,1.826432E-2,1.3135309E-2,2.261882E-2,1.19481785E-2,-2.6213352E-2],"categories":[],"categories_nodes":[],"categories_segments":[],"categories_sizes":[],"default_left":[0,0,0,0,0,0,0,0,0,0,0,0,0,0,0,0,0,0,0],"id":31,"left_children":[1,3,5,-1,-1,7,9,11,13,15,17,-1,-1,-1,-1,-1,-1,-1,-1],"loss_changes":[1.6267087E4,4.1624023E2,1.6469385E2,0E0,0E0,1.790586E2,2.5556439E2,4.0895355E1,1.1743555E2,1.4788696E1,5.9357837E2,0E0,0E0,0E0,0E0,0E0,0E0,0E0,0E0],"parents":[2147483647,0,0,1,1,2,2,5,5,6,6,7,7,8,8,9,9,10,10],"right_children":[2,4,6,-1,-1,8,10,12,14,16,18,-1,-1,-1,-1,-1,-1,-1,-1],"split_conditions":[6.086956E-1,1E0,1.333787E0,-2.26676E-2,2.942657E-2,3.2229885E-1,6.8795343E-4,1.0891352E0,7E-1,3.9789966E-1,1E0,9.140987E-3,1.7116724E-2,2.4855528E-2,1.826432E-2,1.3135309E-2,2.261882E-2,1.19481785E-2,-2.6213352E-2],"split_indices":[18,16,12,0,0,4,13,12,14,24,16,0,0,0,0,0,0,0,0],"split_type":[0,0,0,0,0,0,0,0,0,0,0,0,0,0,0,0,0,0,0],"sum_hessian":[1.699393E4,7.418259E3,9.57567E3,7.365206E3,5.305287E1,7.377714E3,2.1979563E3,1.336118E3,6.0415957E3,8.1755994E2,1.3803962E3,9.1650244E2,4.1961563E2,1.6631088E3,4.378487E3,1.5565236E2,6.619076E2,1.2020945E3,1.783018E2],"tree_param":{"num_deleted":"0","num_feature":"26","num_nodes":"19","size_leaf_vector":"1"}},{"base_weights":[-1.3736972E-3,-1.1132423E0,8.407524E-1,-2.260519E-2,2.6190728E-2,7.137245E-1,1.0372213E0,3.0945545E-2,6.8580115E-1,1.2667005E0,9.4639033E-1,-1.165307E-3,1.4716787E-2,3.9948183E-3,2.5580322E-2,2.6310869E-2,1.7843625E-2],"categories":[],"categories_nodes":[],"categories_segments":[],"categories_sizes":[],"default_left":[0,0,0,0,0,0,0,0,0,0,0,0,0,0,0,0,0],"id":32,"left_children":[1,3,5,-1,-1,7,9,-1,11,13,15,-1,-1,-1,-1,-1,-1],"loss_changes":[1.5799546E4,3.1430273E2,2.2868994E2,0E0,0E0,1.21520996E2,6.1573486E1,0E0,2.1396118E2,7.9589844E0,3.8404785E1,0E0,0E0,0E0,0E0,0E0,0E0],"parents":[2147483647,0,0,1,1,2,2,5,5,6,6,8,8,9,9,10,10],"right_children":[2,4,6,-1,-1,8,10,-1,12,14,16,-1,-1,-1,-1,-1,-1],"split_conditions":[6.086956E-1,1E0,1E0,-2.260519E-2,2.6190728E-2,2E0,7.058824E-1,3.0945545E-2,1.5E1,5.24602E-1,4E0,-1.165307E-3,1.4716787E-2,3.9948183E-3,2.5580322E-2,2.6310869E-2,1.7843625E-2],"split_indices":[18,16,0,0,0,23,14,0,23,12,23,0,0,0,0,0,0],"split_type":[0,0,0,0,0,0,0,0,0,0,0,0,0,0,0,0,0],"sum_hessian":[1.6853266E4,7.263001E3,9.590266E3,7.2184595E3,4.4541267E1,5.858761E3,3.7315044E3,1.6994394E2,5.6888174E3,1.0151962E3,2.716308E3,3.558424E2,5.3329746E3,1.5402306E1,9.9979395E2,3.1329068E2,2.4030176E3],"tree_param":{"num_deleted":"0","num_feature":"26","num_nodes":"17","size_leaf_vector":"1"}},{"base_weights":[-3.8816908E-3,-1.0148723E0,7.9380155E-1,-2.2573045E-2,3.137833E-2,6.74528E-1,9.825327E-1,1.01360135E-1,7.146029E-1,1.125139E0,7.951327E-1,1.1231819E-2,-7.4741608E-3,1.793588E-2,1.2376505E-2,1.1326379E-2,2.3468915E-2,1.1693138E-2,1.7369252E-2],"categories":[],"categories_nodes":[],"categories_segments":[],"categories_sizes":[],"default_left":[0,0,0,0,0,0,0,0,0,0,0,0,0,0,0,0,0,0,0],"id":33,"left_children":[1,3,5,-1,-1,7,9,11,13,15,17,-1,-1,-1,-1,-1,-1,-1,-1],"loss_changes":[1.3566011E4,2.1981357E3,2.016919E2,0E0,0E0,1.3084912E2,8.3749756E1,8.859428E1,8.591504E1,4.4435547E1,1.6728577E1,0E0,0E0,0E0,0E0,0E0,0E0,0E0,0E0],"parents":[2147483647,0,0,1,1,2,2,5,5,6,6,7,7,8,8,9,9,10,10],"right_children":[2,4,6,-1,-1,8,10,12,14,16,18,-1,-1,-1,-1,-1,-1,-1,-1],"split_conditions":[1E0,1E0,1E0,-2.2573045E-2,3.137833E-2,1.5E1,1.032258E0,1.018868E0,7.3333335E-1,3.2229885E-1,7.382082E-1,1.1231819E-2,-7.4741608E-3,1.793588E-2,1.2376505E-2,1.1326379E-2,2.3468915E-2,1.1693138E-2,1.7369252E-2],"split_indices":[23,16,0,0,0,23,14,14,14,4,4,0,0,0,0,0,0,0,0],"split_type":[0,0,0,0,0,0,0,0,0,0,0,0,0,0,0,0,0,0,0],"sum_hessian":[1.6801342E4,7.4098364E3,9.391506E3,7.1034346E3,3.064017E2,5.7892046E3,3.602301E3,3.8388675E2,5.405318E3,2.0111543E3,1.5911469E3,1.9620158E2,1.8768517E2,1.826458E3,3.57886E3,1.7343771E2,1.8377166E3,4.4135278E2,1.1497941E3],"tree_param":{"num_deleted":"0","num_feature":"26","num_nodes":"19","size_leaf_vector":"1"}},{"base_weights":[7.02401E-4,-1.1041223E0,8.030569E-1,-2.249785E-2,2.7731858E-2,2.9527618E-2,7.696354E-1,4.7730628E-1,8.386709E-1,-6.5547144E-3,1.0976529E-2,1.9336078E-2,1.31475935E-2],"categories":[],"categories_nodes":[],"categories_segments":[],"categories_sizes":[],"default_left":[0,0,0,0,0,0,0,0,0,0,0,0,0],"id":34,"left_children":[1,3,5,-1,-1,-1,7,9,11,-1,-1,-1,-1],"loss_changes":[1.4857133E4,3.7980273E2,2.0266553E2,0E0,0E0,0E0,1.8054541E2,1.05916534E2,1.6425293E2,0E0,0E0,0E0,0E0],"parents":[2147483647,0,0,1,1,2,2,6,6,7,7,8,8],"right_children":[2,4,6,-1,-1,-1,8,10,12,-1,-1,-1,-1],"split_conditions":[6.086956E-1,1E0,2E0,-2.249785E-2,2.7731858E-2,2.9527618E-2,3.3223593E-1,1.5E1,1.032258E0,-6.5547144E-3,1.0976529E-2,1.9336078E-2,1.31475935E-2],"split_indices":[18,16,23,0,0,0,4,23,14,0,0,0,0],"split_type":[0,0,0,0,0,0,0,0,0,0,0,0,0],"sum_hessian":[1.6740729E4,7.0402305E3,9.700497E3,6.9882417E3,5.1988895E1,4.3548315E2,9.265015E3,1.790652E3,7.4743623E3,1.4089774E2,1.6497543E3,4.3473677E3,3.1269944E3],"tree_param":{"num_deleted":"0","num_feature":"26","num_nodes":"13","size_leaf_vector":"1"}},{"base_weights":[-4.226113E-3,-1.101838E0,7.7654344E-1,-2.2435939E-2,2.7222773E-2,6.627361E-1,9.5478433E-1,8.184999E-1,5.465859E-1,1.0298469E0,7.119277E-1,1.1971147E-2,1.9338395E-2,2.9166285E-2,1.0280597E-2,1.3236601E-2,2.1540303E-2,1.7922472E-2,1.0699587E-2],"categories":[],"categories_nodes":[],"categories_segments":[],"categories_sizes":[],"default_left":[0,0,0,0,0,0,0,0,0,0,0,0,0,0,0,0,0,0,0],"id":35,"left_children":[1,3,5,-1,-1,7,9,11,13,15,17,-1,-1,-1,-1,-1,-1,-1,-1],"loss_changes":[1.4260201E4,3.5483496E2,1.8764746E2,0E0,0E0,1.0085889E2,5.770874E1,7.34729E1,9.123096E1,3.8740967E1,2.2531464E1,0E0,0E0,0E0,0E0,0E0,0E0,0E0,0E0],"parents":[2147483647,0,0,1,1,2,2,5,5,6,6,7,7,8,8,9,9,10,10],"right_children":[2,4,6,-1,-1,8,10,12,14,16,18,-1,-1,-1,-1,-1,-1,-1,-1],"split_conditions":[6.086956E-1,1E0,1E0,-2.2435939E-2,2.7222773E-2,8.235294E-1,1.4375E0,4.9924597E-1,2E0,3.8392192E-1,7.176893E-4,1.1971147E-2,1.9338395E-2,2.9166285E-2,1.0280597E-2,1.3236601E-2,2.1540303E-2,1.7922472E-2,1.0699587E-2],"split_indices":[18,16,0,0,0,14,14,4,23,4,13,0,0,0,0,0,0,0,0],"split_type":[0,0,0,0,0,0,0,0,0,0,0,0,0,0,0,0,0,0,0],"sum_hessian":[1.6619281E4,6.9073394E3,9.711941E3,6.858022E3,4.931715E1,5.962971E3,3.7489707E3,2.513945E3,3.4490261E3,2.8327715E3,9.161992E2,1.0386213E3,1.4753237E3,1.0169507E2,3.347331E3,3.437186E2,2.489053E3,4.2345453E2,4.927447E2],"tree_param":{"num_deleted":"0","num_feature":"26","num_nodes":"19","size_leaf_vector":"1"}},{"base_weights":[-3.4502884E-3,-1.0981619E0,7.6433957E-1,-2.2379827E-2,2.703818E-2,2.8286517E-2,7.311022E-1,8.0536455E-1,4.7546926E-1,2.0061042E-2,1.4432203E-2,1.2536726E-2,-2.708067E-3],"categories":[],"categories_nodes":[],"categories_segments":[],"categories_sizes":[],"default_left":[0,0,0,0,0,0,0,0,0,0,0,0,0],"id":36,"left_children":[1,3,5,-1,-1,-1,7,9,11,-1,-1,-1,-1],"loss_changes":[1.3906717E4,3.6278516E2,1.9543164E2,0E0,0E0,0E0,1.6966602E2,1.07958984E2,1.9768701E2,0E0,0E0,0E0,0E0],"parents":[2147483647,0,0,1,1,2,2,6,6,7,7,8,8],"right_children":[2,4,6,-1,-1,-1,8,10,12,-1,-1,-1,-1],"split_conditions":[6.086956E-1,1E0,2E0,-2.2379827E-2,2.703818E-2,2.8286517E-2,1.333787E0,7.1428573E-1,1E0,2.0061042E-2,1.4432203E-2,1.2536726E-2,-2.708067E-3],"split_indices":[18,16,23,0,0,0,12,14,16,0,0,0,0],"split_type":[0,0,0,0,0,0,0,0,0,0,0,0,0],"sum_hessian":[1.652482E4,6.8114233E3,9.713397E3,6.7602E3,5.1223293E1,4.4939423E2,9.264003E3,7.155868E3,2.1081348E3,2.0897458E3,5.0661226E3,1.6919116E3,4.1622314E2],"tree_param":{"num_deleted":"0","num_feature":"26","num_nodes":"13","size_leaf_vector":"1"}},{"base_weights":[1.3458662E-3,-1.0968566E0,7.4956185E-1,-2.2324549E-2,2.4783785E-2,6.3331604E-1,9.3040806E-1,7.68113E-1,4.9298167E-1,1.0069196E0,6.901616E-1,1.1775099E-2,1.7760906E-2,2.7994737E-2,9.172937E-3,1.3428541E-2,2.0996155E-2,1.988661E-2,1.1265564E-2],"categories":[],"categories_nodes":[],"categories_segments":[],"categories_sizes":[],"default_left":[0,0,0,0,0,0,0,0,0,0,0,0,0,0,0,0,0,0,0],"id":37,"left_children":[1,3,5,-1,-1,7,9,11,13,15,17,-1,-1,-1,-1,-1,-1,-1,-1],"loss_changes":[1.3552882E4,3.160005E2,1.9724805E2,0E0,0E0,1.0739258E2,5.970996E1,5.722412E1,8.2641174E1,3.0695068E1,2.8282013E1,0E0,0E0,0E0,0E0,0E0,0E0,0E0,0E0],"parents":[2147483647,0,0,1,1,2,2,5,5,6,6,7,7,8,8,9,9,10,10],"right_children":[2,4,6,-1,-1,8,10,12,14,16,18,-1,-1,-1,-1,-1,-1,-1,-1],"split_conditions":[6.086956E-1,1E0,1E0,-2.2324549E-2,2.4783785E-2,9.0909094E-1,1.4285715E0,4.9924597E-1,2E0,3.8392192E-1,8.3403176E-1,1.1775099E-2,1.7760906E-2,2.7994737E-2,9.172937E-3,1.3428541E-2,2.0996155E-2,1.988661E-2,1.1265564E-2],"split_indices":[18,16,0,0,0,14,14,4,23,4,12,0,0,0,0,0,0,0,0],"split_type":[0,0,0,0,0,0,0,0,0,0,0,0,0,0,0,0,0,0,0],"sum_hessian":[1.64747E4,6.672998E3,9.801701E3,6.6241475E3,4.8850697E1,6.000639E3,3.801062E3,3.030618E3,2.970021E3,2.852414E3,9.486479E2,1.2447976E3,1.7858203E3,9.172456E1,2.8782964E3,3.4747543E2,2.5049387E3,2.5447766E2,6.941702E2],"tree_param":{"num_deleted":"0","num_feature":"26","num_nodes":"19","size_leaf_vector":"1"}},{"base_weights":[2.8813758E-3,-1.091418E0,7.332092E-1,2.3851046E-2,-1.1023035E0,2.7695477E-2,6.9998884E-1,-2.2143079E-2,1.3394646E-2,7.7205783E-1,4.5538846E-1,1.3291505E-2,1.873368E-2,1.6852131E-2,4.7213007E-3],"categories":[],"categories_nodes":[],"categories_segments":[],"categories_sizes":[],"default_left":[0,0,0,0,0,0,0,0,0,0,0,0,0,0,0],"id":38,"left_children":[1,3,5,-1,7,-1,9,-1,-1,11,13,-1,-1,-1,-1],"loss_changes":[1.3098594E4,1.7604736E2,1.9893408E2,0E0,6.4453125E1,0E0,1.5933398E2,0E0,0E0,1.1837109E2,1.7970438E2,0E0,0E0,0E0,0E0],"parents":[2147483647,0,0,1,1,2,2,4,4,6,6,9,9,10,10],"right_children":[2,4,6,-1,8,-1,10,-1,-1,12,14,-1,-1,-1,-1],"split_conditions":[6.086956E-1,-9.589041E-2,2E0,2.3851046E-2,2.0588236E-1,2.7695477E-2,1.333787E0,-2.2143079E-2,1.3394646E-2,1E0,6.993163E-4,1.3291505E-2,1.873368E-2,1.6852131E-2,4.7213007E-3],"split_indices":[18,19,23,0,20,0,12,0,0,0,13,0,0,0,0],"split_type":[0,0,0,0,0,0,0,0,0,0,0,0,0,0,0],"sum_hessian":[1.6370571E4,6.549432E3,9.821139E3,2.5046125E1,6.5243857E3,4.5378638E2,9.367353E3,6.5114434E3,1.2942346E1,7.212517E3,2.1548352E3,4.4014077E3,2.8111099E3,7.65608E2,1.3892272E3],"tree_param":{"num_deleted":"0","num_feature":"26","num_nodes":"15","size_leaf_vector":"1"}},{"base_weights":[2.1917108E-3,-1.0900754E0,7.2081393E-1,-2.221867E-2,2.6016735E-2,6.0924566E-1,8.955291E-1,6.836139E-1,3.7492824E-1,1.3112632E0,8.570377E-1,6.4785844E-3,1.5055131E-2,1.5351499E-2,3.3968734E-3,8.304774E-3,2.6984172E-2,1.2244813E-2,1.8339584E-2],"categories":[],"categories_nodes":[],"categories_segments":[],"categories_sizes":[],"default_left":[0,0,0,0,0,0,0,0,0,0,0,0,0,0,0,0,0,0,0],"id":39,"left_children":[1,3,5,-1,-1,7,9,11,13,15,17,-1,-1,-1,-1,-1,-1,-1,-1],"loss_changes":[1.276792E4,3.3594873E2,1.8281592E2,0E0,0E0,1.0034497E2,4.516919E1,1.087229E2,1.1605153E2,1.0142822E0,4.2796143E1,0E0,0E0,0E0,0E0,0E0,0E0,0E0,0E0],"parents":[2147483647,0,0,1,1,2,2,5,5,6,6,7,7,8,8,9,9,10,10],"right_children":[2,4,6,-1,-1,8,10,12,14,16,18,-1,-1,-1,-1,-1,-1,-1,-1],"split_conditions":[6.086956E-1,1E0,1E0,-2.221867E-2,2.6016735E-2,1.3401976E0,2E0,2.2668557E-1,6.993163E-4,1.4765823E-1,5.7061076E-1,6.4785844E-3,1.5055131E-2,1.5351499E-2,3.3968734E-3,8.304774E-3,2.6984172E-2,1.2244813E-2,1.8339584E-2],"split_indices":[18,16,0,0,0,12,23,4,13,4,4,0,0,0,0,0,0,0,0],"split_type":[0,0,0,0,0,0,0,0,0,0,0,0,0,0,0,0,0,0,0],"sum_hessian":[1.6247302E4,6.4443237E3,9.802978E3,6.3947266E3,4.959707E1,6.017004E3,3.7859736E3,4.5463594E3,1.4706447E3,2.8840222E2,3.4975713E3,7.4687E2,3.7994893E3,4.91829E2,9.788157E2,1.8710846E1,2.6969138E2,7.165867E2,2.7809846E3],"tree_param":{"num_deleted":"0","num_feature":"26","num_nodes":"19","size_leaf_vector":"1"}},{"base_weights":[-3.8808968E-3,-9.909611E-1,6.790145E-1,-2.2190513E-2,2.8328728E-2,5.692495E-1,8.537655E-1,-0E0,6.111023E-1,9.368524E-1,5.9743196E-1,9.751909E-3,-8.270129E-3,1.5139111E-2,1.0672143E-2,7.761771E-3,1.9169446E-2,5.391349E-3,1.3456949E-2],"categories":[],"categories_nodes":[],"categories_segments":[],"categories_sizes":[],"default_left":[0,0,0,0,0,0,0,0,0,0,0,0,0,0,0,0,0,0,0],"id":40,"left_children":[1,3,5,-1,-1,7,9,11,13,15,17,-1,-1,-1,-1,-1,-1,-1,-1],"loss_changes":[1.0892732E4,1.9014844E3,1.7547412E2,0E0,0E0,1.398695E2,6.9225586E1,8.603996E1,5.5503906E1,2.6077393E1,1.9265747E1,0E0,0E0,0E0,0E0,0E0,0E0,0E0,0E0],"parents":[2147483647,0,0,1,1,2,2,5,5,6,6,7,7,8,8,9,9,10,10],"right_children":[2,4,6,-1,-1,8,10,12,14,16,18,-1,-1,-1,-1,-1,-1,-1,-1],"split_conditions":[1E0,1E0,1E0,-2.2190513E-2,2.8328728E-2,1.5E1,1.4285715E0,7E0,7.3333335E-1,1.7539833E-1,1.1739645E0,9.751909E-3,-8.270129E-3,1.5139111E-2,1.0672143E-2,7.761771E-3,1.9169446E-2,5.391349E-3,1.3456949E-2],"split_indices":[23,16,0,0,0,23,14,23,14,4,24,0,0,0,0,0,0,0,0],"split_type":[0,0,0,0,0,0,0,0,0,0,0,0,0,0,0,0,0,0,0],"sum_hessian":[1.6138678E4,6.5988677E3,9.53981E3,6.295057E3,3.0381033E2,5.892574E3,3.6472358E3,4.0627957E2,5.4862944E3,2.7284856E3,9.187504E2,1.8699072E2,2.1928885E2,1.8642014E3,3.622093E3,1.1411047E2,2.614375E3,1.8532503E2,7.3342535E2],"tree_param":{"num_deleted":"0","num_feature":"26","num_nodes":"19","size_leaf_vector":"1"}},{"base_weights":[3.07386E-4,-1.0852565E0,6.8917006E-1,-2.210821E-2,2.313814E-2,2.6730802E-2,6.5657854E-1,4.1080767E-1,7.295105E-1,-6.5665185E-3,9.5640635E-3,1.7574303E-2,1.1698266E-2],"categories":[],"categories_nodes":[],"categories_segments":[],"categories_sizes":[],"default_left":[0,0,0,0,0,0,0,0,0,0,0,0,0],"id":41,"left_children":[1,3,5,-1,-1,-1,7,9,11,-1,-1,-1,-1],"loss_changes":[1.2029489E4,2.948579E2,1.9491699E2,0E0,0E0,0E0,1.6310449E2,1.1040924E2,1.4781152E2,0E0,0E0,0E0,0E0],"parents":[2147483647,0,0,1,1,2,2,6,6,7,7,8,8],"right_children":[2,4,6,-1,-1,-1,8,10,12,-1,-1,-1,-1],"split_conditions":[6.086956E-1,1E0,2E0,-2.210821E-2,2.313814E-2,2.6730802E-2,3.8906935E-1,1.5E1,9.166667E-1,-6.5665185E-3,9.5640635E-3,1.7574303E-2,1.1698266E-2],"split_indices":[18,16,23,0,0,0,4,23,14,0,0,0,0],"split_type":[0,0,0,0,0,0,0,0,0,0,0,0,0],"sum_hessian":[1.6067469E4,6.2343047E3,9.833164E3,6.1846743E3,4.9630253E1,4.4919913E2,9.383965E3,2.1688792E3,7.215086E3,1.7552188E2,1.9933573E3,3.5191738E3,3.6959119E3],"tree_param":{"num_deleted":"0","num_feature":"26","num_nodes":"13","size_leaf_vector":"1"}},{"base_weights":[-4.126836E-3,-1.0828323E0,6.653351E-1,2.268742E-2,-1.0929707E0,1.2668666E0,6.349626E-1,-2.1958616E-2,1.2470876E-2,2.6474735E-2,6.2782466E-1,7.418115E-1,4.8422977E-1,1.970587E-2,-2.829822E-3,8.191083E-3,1.6418904E-2,-2.2472257E-3,1.1006249E-2],"categories":[],"categories_nodes":[],"categories_segments":[],"categories_sizes":[],"default_left":[0,0,0,0,0,0,0,0,0,0,0,0,0,0,0,0,0,0,0],"id":42,"left_children":[1,3,5,-1,7,9,11,-1,-1,-1,13,15,17,-1,-1,-1,-1,-1,-1],"loss_changes":[1.1566683E4,1.5020898E2,1.6868555E2,0E0,5.9836426E1,4.5668335E0,1.4582715E2,0E0,0E0,0E0,1.9480043E1,1.385647E2,1.5714722E2,0E0,0E0,0E0,0E0,0E0,0E0],"parents":[2147483647,0,0,1,1,2,2,4,4,5,5,6,6,10,10,11,11,12,12],"right_children":[2,4,6,-1,8,10,12,-1,-1,-1,14,16,18,-1,-1,-1,-1,-1,-1],"split_conditions":[6.086956E-1,0E0,2E0,2.268742E-2,1.04477614E-1,9.5142797E-4,1.018868E0,-2.1958616E-2,1.2470876E-2,2.6474735E-2,1.2066193E0,3.1711537E-1,1.5E1,1.970587E-2,-2.829822E-3,8.191083E-3,1.6418904E-2,-2.2472257E-3,1.1006249E-2],"split_indices":[18,19,23,0,25,13,14,0,0,0,12,4,23,0,0,0,0,0,0],"split_type":[0,0,0,0,0,0,0,0,0,0,0,0,0,0,0,0,0,0,0],"sum_hessian":[1.5995823E4,6.124391E3,9.871432E3,2.1931417E1,6.10246E3,4.5173788E2,9.419694E3,6.089632E3,1.282798E1,4.0210895E2,4.962895E1,5.481548E3,3.9381465E3,3.3742523E1,1.5886423E1,1.0711511E3,4.4103965E3,3.8900052E2,3.549146E3],"tree_param":{"num_deleted":"0","num_feature":"26","num_nodes":"19","size_leaf_vector":"1"}},{"base_weights":[3.019516E-3,-1.0801458E0,6.606778E-1,-2.2016307E-2,2.3502931E-2,5.529705E-1,8.3075196E-1,6.2226415E-1,3.3939475E-1,2.439642E-2,7.952792E-1,2.5732262E-2,1.1904408E-2,1.4202123E-2,2.8561705E-3,1.6957102E-2,1.1372916E-2],"categories":[],"categories_nodes":[],"categories_segments":[],"categories_sizes":[],"default_left":[0,0,0,0,0,0,0,0,0,0,0,0,0,0,0,0,0],"id":43,"left_children":[1,3,5,-1,-1,7,9,11,13,-1,15,-1,-1,-1,-1,-1,-1],"loss_changes":[1.1345776E4,2.9324658E2,1.7420898E2,0E0,0E0,8.632703E1,3.8937256E1,7.1062256E1,1.084017E2,0E0,3.441626E1,0E0,0E0,0E0,0E0,0E0,0E0],"parents":[2147483647,0,0,1,1,2,2,5,5,6,6,7,7,8,8,10,10],"right_children":[2,4,6,-1,-1,8,10,12,14,-1,16,-1,-1,-1,-1,-1,-1],"split_conditions":[6.086956E-1,1E0,1E0,-2.2016307E-2,2.3502931E-2,1.333787E0,2E0,3E0,6.993163E-4,2.439642E-2,1.333787E0,2.5732262E-2,1.1904408E-2,1.4202123E-2,2.8561705E-3,1.6957102E-2,1.1372916E-2],"split_indices":[18,16,0,0,0,12,23,23,13,0,12,0,0,0,0,0,0],"split_type":[0,0,0,0,0,0,0,0,0,0,0,0,0,0,0,0,0],"sum_hessian":[1.5908352E4,6.006372E3,9.9019795E3,5.9577754E3,4.8596813E1,6.0958037E3,3.8061753E3,4.581016E3,1.5147877E3,2.8541824E2,3.520757E3,1.5807486E2,4.4229414E3,5.1234344E2,1.0024443E3,2.8283755E3,6.923815E2],"tree_param":{"num_deleted":"0","num_feature":"26","num_nodes":"17","size_leaf_vector":"1"}},{"base_weights":[9.6523034E-4,-1.0790192E0,6.478132E-1,-2.19796E-2,2.3218941E-2,5.436717E-1,8.1189317E-1,1.2217845E0,5.215474E-1,1.0423459E0,7.310951E-1,2.516785E-2,3.981554E-3,-2.1038887E-3,1.1263591E-2,8.312365E-3,2.144234E-2,1.0531142E-2,1.6511673E-2],"categories":[],"categories_nodes":[],"categories_segments":[],"categories_sizes":[],"default_left":[0,0,0,0,0,0,0,0,0,0,0,0,0,0,0,0,0,0,0],"id":44,"left_children":[1,3,5,-1,-1,7,9,11,13,15,17,-1,-1,-1,-1,-1,-1,-1,-1],"loss_changes":[1.1025438E4,2.7693408E2,1.6157178E2,0E0,0E0,8.131433E1,5.9690674E1,1.382782E0,1.555951E2,1.0442383E1,4.8174072E1,0E0,0E0,0E0,0E0,0E0,0E0,0E0,0E0],"parents":[2147483647,0,0,1,1,2,2,5,5,6,6,7,7,8,8,9,9,10,10],"right_children":[2,4,6,-1,-1,8,10,12,14,16,18,-1,-1,-1,-1,-1,-1,-1,-1],"split_conditions":[6.086956E-1,1E0,1E0,-2.19796E-2,2.3218941E-2,2E0,6.857143E-1,1.6242254E0,1.5E1,2.5932854E-1,8.121563E-1,2.516785E-2,3.981554E-3,-2.1038887E-3,1.1263591E-2,8.312365E-3,2.144234E-2,1.0531142E-2,1.6511673E-2],"split_indices":[18,16,0,0,0,23,14,24,23,4,4,0,0,0,0,0,0,0,0],"split_type":[0,0,0,0,0,0,0,0,0,0,0,0,0,0,0,0,0,0,0],"sum_hessian":[1.5763739E4,5.9012217E3,9.862518E3,5.855033E3,4.6188786E1,6.0670723E3,3.7954453E3,1.7170421E2,5.8953677E3,9.479467E2,2.8474985E3,1.6165752E2,1.0046699E1,3.6327176E2,5.532096E3,5.2818726E1,8.95128E2,9.2723126E2,1.9202673E3],"tree_param":{"num_deleted":"0","num_feature":"26","num_nodes":"19","size_leaf_vector":"1"}},{"base_weights":[-2.745319E-3,-1.0763913E0,6.2832314E-1,-2.192885E-2,2.2748202E-2,1.1409421E0,5.9629226E-1,2.4235394E-2,6.4080155E-1,9.483121E-2,6.334131E-1,1.9332755E-2,-1.6690446E-2,-2.9110718E-3,1.2538035E-2,1.1083398E-2,1.5445875E-2],"categories":[],"categories_nodes":[],"categories_segments":[],"categories_sizes":[],"default_left":[0,0,0,0,0,0,0,0,0,0,0,0,0,0,0,0,0],"id":45,"left_children":[1,3,5,-1,-1,7,9,-1,11,13,15,-1,-1,-1,-1,-1,-1],"loss_changes":[1.0616833E4,2.6991016E2,1.5173267E2,0E0,0E0,8.567383E0,1.7126758E2,0E0,5.394789E1,8.593651E1,8.841748E1,0E0,0E0,0E0,0E0,0E0,0E0],"parents":[2147483647,0,0,1,1,2,2,5,5,6,6,8,8,9,9,10,10],"right_children":[2,4,6,-1,-1,8,10,-1,12,14,16,-1,-1,-1,-1,-1,-1],"split_conditions":[6.086956E-1,1E0,3E0,-2.192885E-2,2.2748202E-2,8.6654414E-4,1.5E1,2.4235394E-2,1.333787E0,1.2787405E0,1E0,1.9332755E-2,-1.6690446E-2,-2.9110718E-3,1.2538035E-2,1.1083398E-2,1.5445875E-2],"split_indices":[18,16,23,0,0,13,23,0,12,24,0,0,0,0,0,0,0],"split_type":[0,0,0,0,0,0,0,0,0,0,0,0,0,0,0,0,0],"sum_hessian":[1.5648278E4,5.7913994E3,9.856879E3,5.7453125E3,4.6086895E1,5.5565137E2,9.301228E3,4.7075735E2,8.489398E1,6.4723395E2,8.653994E3,7.347097E1,1.1423012E1,4.4823212E2,1.9900183E2,5.550989E3,3.1030054E3],"tree_param":{"num_deleted":"0","num_feature":"26","num_nodes":"17","size_leaf_vector":"1"}},{"base_weights":[-9.7543886E-4,-9.736749E-1,5.994518E-1,-2.190979E-2,2.4711642E-2,4.3324018E-1,6.9942456E-1,2.4917029E-2,4.7634947E-1,7.81503E-1,3.969992E-1,1.3243731E-2,-9.202197E-3,2.1129664E-2,8.979905E-3,1.9019026E-2,1.3562818E-2,1.0940832E-2,-6.0825422E-3],"categories":[],"categories_nodes":[],"categories_segments":[],"categories_sizes":[],"default_left":[0,0,0,0,0,0,0,0,0,0,0,0,0,0,0,0,0,0,0],"id":46,"left_children":[1,3,5,-1,-1,7,9,11,13,15,17,-1,-1,-1,-1,-1,-1,-1,-1],"loss_changes":[9.108476E3,1.615415E3,1.5490771E2,0E0,0E0,6.321228E1,1.4338599E2,1.15959045E2,4.462616E1,7.262573E1,1.3949133E2,0E0,0E0,0E0,0E0,0E0,0E0,0E0,0E0],"parents":[2147483647,0,0,1,1,2,2,5,5,6,6,7,7,8,8,9,9,10,10],"right_children":[2,4,6,-1,-1,8,10,12,14,16,18,-1,-1,-1,-1,-1,-1,-1,-1],"split_conditions":[1E0,1E0,6.366446E-1,-2.190979E-2,2.4711642E-2,1.5E1,1.333787E0,5E0,1.7E1,8E-1,1E0,1.3243731E-2,-9.202197E-3,2.1129664E-2,8.979905E-3,1.9019026E-2,1.3562818E-2,1.0940832E-2,-6.0825422E-3],"split_indices":[23,16,4,0,0,23,12,23,23,14,16,0,0,0,0,0,0,0,0],"split_type":[0,0,0,0,0,0,0,0,0,0,0,0,0,0,0,0,0,0,0],"sum_hessian":[1.5574487E4,5.943332E3,9.631155E3,5.6383877E3,3.049443E2,3.6447876E3,5.986368E3,3.5399448E2,3.2907932E3,4.6908213E3,1.2955468E3,1.5319058E2,2.008039E2,1.2794606E2,3.162847E3,1.7388531E3,2.951968E3,1.0713302E3,2.242165E2],"tree_param":{"num_deleted":"0","num_feature":"26","num_nodes":"19","size_leaf_vector":"1"}},{"base_weights":[1.7597425E-3,-1.0684427E0,6.0730135E-1,-2.1830287E-2,2.2704193E-2,5.0284916E-1,7.717818E-1,6.815787E-1,4.120085E-1,1.0009392E0,6.943041E-1,1.01518035E-2,1.6049474E-2,2.3756871E-2,7.8121996E-3,8.985641E-3,2.0600287E-2,2.1369254E-2,1.29943E-2],"categories":[],"categories_nodes":[],"categories_segments":[],"categories_sizes":[],"default_left":[0,0,0,0,0,0,0,0,0,0,0,0,0,0,0,0,0,0,0],"id":47,"left_children":[1,3,5,-1,-1,7,9,11,13,15,17,-1,-1,-1,-1,-1,-1,-1,-1],"loss_changes":[1.0055989E4,2.9735303E2,1.638623E2,0E0,0E0,9.401807E1,5.7547607E1,3.605591E1,5.987262E1,7.4422607E0,3.794861E1,0E0,0E0,0E0,0E0,0E0,0E0,0E0,0E0],"parents":[2147483647,0,0,1,1,2,2,5,5,6,6,7,7,8,8,9,9,10,10],"right_children":[2,4,6,-1,-1,8,10,12,14,16,18,-1,-1,-1,-1,-1,-1,-1,-1],"split_conditions":[6.086956E-1,1E0,1E0,-2.1830287E-2,2.2704193E-2,7.3333335E-1,6.744186E-1,4.9924597E-1,1E0,2.5932854E-1,3E0,1.01518035E-2,1.6049474E-2,2.3756871E-2,7.8121996E-3,8.985641E-3,2.0600287E-2,2.1369254E-2,1.29943E-2],"split_indices":[18,16,0,0,0,14,14,4,23,4,23,0,0,0,0,0,0,0,0],"split_type":[0,0,0,0,0,0,0,0,0,0,0,0,0,0,0,0,0,0,0],"sum_hessian":[1.5498665E4,5.596593E3,9.902071E3,5.544498E3,5.2094955E1,6.088405E3,3.8136672E3,2.0223582E3,4.0660464E3,9.269638E2,2.8867034E3,8.5721265E2,1.1651455E3,9.199677E1,3.9740496E3,5.8090794E1,8.68873E2,2.7815503E2,2.6085483E3],"tree_param":{"num_deleted":"0","num_feature":"26","num_nodes":"19","size_leaf_vector":"1"}},{"base_weights":[3.0999316E-3,-5.8144176E-1,6.164068E-1,-2.1824542E-2,5.595314E-1,5.321285E-1,7.589237E-1,7.281097E-1,3.799568E-2,9.3970615E-1,5.055691E-1,8.3186245E-1,5.414843E-1,9.249757E-3,1.83328E-2,1.1663588E-2,-2.9283132E-2,1.9676141E-2,4.705857E-3,8.9505175E-3,1.3255683E-2,2.0361843E-2,1.5435855E-2,1.5447361E-2,8.417498E-3],"categories":[],"categories_nodes":[],"categories_segments":[],"categories_sizes":[],"default_left":[0,0,0,0,0,0,0,0,0,0,0,0,0,0,0,0,0,0,0,0,0,0,0,0,0],"id":48,"left_children":[1,3,5,-1,7,9,11,13,15,17,19,21,23,-1,-1,-1,-1,-1,-1,-1,-1,-1,-1,-1,-1],"loss_changes":[5.5147124E3,4.5872407E3,8.35603E1,0E0,2.1246161E2,4.388965E1,3.6486694E1,8.5062256E1,5.0533493E2,3.7891693E0,3.5834717E1,1.1378418E1,1.4642212E1,0E0,0E0,0E0,0E0,0E0,0E0,0E0,0E0,0E0,0E0,0E0,0E0],"parents":[2147483647,0,0,1,1,2,2,4,4,5,5,6,6,7,7,8,8,9,9,10,10,11,11,12,12],"right_children":[2,4,6,-1,8,10,12,14,16,18,20,22,24,-1,-1,-1,-1,-1,-1,-1,-1,-1,-1,-1,-1],"split_conditions":[1E0,1E0,1E0,-2.1824542E-2,8.419558E-4,0E0,1.4285715E0,9.050279E-1,1.333787E0,-9.956682E-1,5E-1,6E-1,8.524299E-1,9.249757E-3,1.83328E-2,1.1663588E-2,-2.9283132E-2,1.9676141E-2,4.705857E-3,8.9505175E-3,1.3255683E-2,2.0361843E-2,1.5435855E-2,1.5447361E-2,8.417498E-3],"split_indices":[17,16,0,0,13,11,14,24,12,3,6,14,12,0,0,0,0,0,0,0,0,0,0,0,0],"split_type":[0,0,0,0,0,0,0,0,0,0,0,0,0,0,0,0,0,0,0,0,0,0,0,0,0],"sum_hessian":[1.5362402E4,7.864254E3,7.498148E3,5.4371367E3,2.4271174E3,4.7503633E3,2.747785E3,1.8283392E3,5.9877814E2,2.6497507E2,4.485388E3,2.0295347E3,7.182502E2,7.777294E2,1.0506099E3,4.447954E2,1.539827E2,2.4295868E2,2.2016396E1,3.3133132E3,1.1720751E3,4.4796378E2,1.5815709E3,2.2222375E2,4.960264E2],"tree_param":{"num_deleted":"0","num_feature":"26","num_nodes":"25","size_leaf_vector":"1"}},{"base_weights":[1.677655E-3,-9.6590215E-1,5.682828E-1,-2.1783378E-2,2.347422E-2,7.4705595E-1,4.8256907E-1,6.515948E-1,9.182541E-1,5.516289E-1,2.4591117E-1,1.7361606E-2,1.1906455E-2,1.8978382E-2,6.203831E-3,8.835857E-3,1.4143894E-2,1.333789E-2,9.1609615E-4],"categories":[],"categories_nodes":[],"categories_segments":[],"categories_sizes":[],"default_left":[0,0,0,0,0,0,0,0,0,0,0,0,0,0,0,0,0,0,0],"id":49,"left_children":[1,3,5,-1,-1,7,9,11,13,15,17,-1,-1,-1,-1,-1,-1,-1,-1],"loss_changes":[8.39734E3,1.5043784E3,1.4199512E2,0E0,0E0,4.1629883E1,1.04373535E2,1.6704468E1,1.4672607E1,8.11875E1,1.2530453E2,0E0,0E0,0E0,0E0,0E0,0E0,0E0,0E0],"parents":[2147483647,0,0,1,1,2,2,5,5,6,6,7,7,8,8,9,9,10,10],"right_children":[2,4,6,-1,-1,8,10,12,14,16,18,-1,-1,-1,-1,-1,-1,-1,-1],"split_conditions":[1E0,1E0,7.3333335E-1,-2.1783378E-2,2.347422E-2,1E0,1.333787E0,-5.555556E-1,1.7079927E0,1E0,6.82418E-4,1.7361606E-2,1.1906455E-2,1.8978382E-2,6.203831E-3,8.835857E-3,1.4143894E-2,1.333789E-2,9.1609615E-4],"split_indices":[23,16,14,0,0,0,12,6,12,0,13,0,0,0,0,0,0,0,0],"split_type":[0,0,0,0,0,0,0,0,0,0,0,0,0,0,0,0,0,0,0],"sum_hessian":[1.5298463E4,5.6461216E3,9.652342E3,5.344084E3,3.020377E2,3.0955208E3,6.556821E3,2.0257135E3,1.0698071E3,5.058829E3,1.4979918E3,3.8082504E2,1.6448885E3,1.00997845E3,5.982871E1,2.9952861E3,2.063543E3,4.7189612E2,1.0260957E3],"tree_param":{"num_deleted":"0","num_feature":"26","num_nodes":"19","size_leaf_vector":"1"}},{"base_weights":[-1.834716E-3,-9.6145153E-1,5.499954E-1,-2.1743027E-2,2.4275767E-2,4.5972028E-1,6.965858E-1,-1.6810568E-2,4.9574447E-1,8.239015E-1,5.3224665E-1,1.0006698E-2,-6.3633374E-3,1.3192465E-2,8.916635E-3,1.6768605E-2,5.44937E-3,1.2969739E-2,8.193965E-3],"categories":[],"categories_nodes":[],"categories_segments":[],"categories_sizes":[],"default_left":[0,0,0,0,0,0,0,0,0,0,0,0,0,0,0,0,0,0,0],"id":50,"left_children":[1,3,5,-1,-1,7,9,11,13,15,17,-1,-1,-1,-1,-1,-1,-1,-1],"loss_changes":[8.0438755E3,1.5295581E3,1.220813E2,0E0,0E0,1.04127075E2,6.920679E1,6.790176E1,4.054944E1,1.1755981E1,1.8404785E1,0E0,0E0,0E0,0E0,0E0,0E0,0E0,0E0],"parents":[2147483647,0,0,1,1,2,2,5,5,6,6,7,7,8,8,9,9,10,10],"right_children":[2,4,6,-1,-1,8,10,12,14,16,18,-1,-1,-1,-1,-1,-1,-1,-1],"split_conditions":[1E0,1E0,1E0,-2.1743027E-2,2.4275767E-2,1.5E1,1.032258E0,8.235294E-1,6.27451E-1,1.17E2,7.238073E-4,1.0006698E-2,-6.3633374E-3,1.3192465E-2,8.916635E-3,1.6768605E-2,5.44937E-3,1.2969739E-2,8.193965E-3],"split_indices":[23,16,0,0,0,23,14,14,14,23,13,0,0,0,0,0,0,0,0],"split_type":[0,0,0,0,0,0,0,0,0,0,0,0,0,0,0,0,0,0,0],"sum_hessian":[1.5168612E4,5.536682E3,9.631931E3,5.239812E3,2.9686984E2,5.995012E3,3.6369182E3,4.178236E2,5.5771885E3,2.0198275E3,1.6170907E3,1.4895996E2,2.6886365E2,1.2642013E3,4.3129873E3,1.9593717E3,6.045587E1,7.99504E2,8.1758673E2],"tree_param":{"num_deleted":"0","num_feature":"26","num_nodes":"19","size_leaf_vector":"1"}},{"base_weights":[-1.082732E-3,-9.595609E-1,5.418223E-1,-2.170366E-2,2.2456074E-2,4.396894E-1,7.07198E-1,-2.0072395E-3,4.7312522E-1,9.3502045E-1,6.2799454E-1,8.283164E-3,-8.947342E-3,1.0714847E-2,5.5585937E-3,4.650834E-3,1.9368898E-2,1.3894952E-2,6.626806E-3],"categories":[],"categories_nodes":[],"categories_segments":[],"categories_sizes":[],"default_left":[0,0,0,0,0,0,0,0,0,0,0,0,0,0,0,0,0,0,0],"id":51,"left_children":[1,3,5,-1,-1,7,9,11,13,15,17,-1,-1,-1,-1,-1,-1,-1,-1],"loss_changes":[7.8564766E3,1.4404653E3,1.5735571E2,0E0,0E0,8.943115E1,5.69563E1,8.112591E1,6.5009155E1,1.6852417E1,5.0086792E1,0E0,0E0,0E0,0E0,0E0,0E0,0E0,0E0],"parents":[2147483647,0,0,1,1,2,2,5,5,6,6,7,7,8,8,9,9,10,10],"right_children":[2,4,6,-1,-1,8,10,12,14,16,18,-1,-1,-1,-1,-1,-1,-1,-1],"split_conditions":[1E0,1E0,1E0,-2.170366E-2,2.2456074E-2,1.5E1,6.744186E-1,1.018868E0,1.3401976E0,-7.674597E-4,1.333787E0,8.283164E-3,-8.947342E-3,1.0714847E-2,5.5585937E-3,4.650834E-3,1.9368898E-2,1.3894952E-2,6.626806E-3],"split_indices":[23,16,0,0,0,23,14,14,12,5,12,0,0,0,0,0,0,0,0],"split_type":[0,0,0,0,0,0,0,0,0,0,0,0,0,0,0,0,0,0,0],"sum_hessian":[1.5076483E4,5.450262E3,9.626221E3,5.1455947E3,3.0466757E2,5.981093E3,3.645128E3,4.1735104E2,5.5637417E3,9.059449E2,2.739183E3,2.1378758E2,2.0356346E2,4.1914624E3,1.3722794E3,4.7479626E1,8.584653E2,2.2195737E3,5.1960925E2],"tree_param":{"num_deleted":"0","num_feature":"26","num_nodes":"19","size_leaf_vector":"1"}},{"base_weights":[-2.2726841E-3,-9.5739657E-1,5.317506E-1,-2.1665448E-2,2.2712205E-2,2.9928908E-1,6.011646E-1,6.842234E-1,2.2012822E-1,8.465295E-1,5.0518256E-1,-3.8563965E-3,1.7503617E-2,-6.9227647E-3,5.546477E-3,2.0237695E-2,1.4405086E-2,1.2069647E-2,4.14668E-3],"categories":[],"categories_nodes":[],"categories_segments":[],"categories_sizes":[],"default_left":[0,0,0,0,0,0,0,0,0,0,0,0,0,0,0,0,0,0,0],"id":52,"left_children":[1,3,5,-1,-1,7,9,11,13,15,17,-1,-1,-1,-1,-1,-1,-1,-1],"loss_changes":[7.665917E3,1.4323628E3,1.5190942E2,0E0,0E0,6.50204E1,1.6740747E2,6.559935E1,6.1683037E1,3.2291504E1,1.5386426E2,0E0,0E0,0E0,0E0,0E0,0E0,0E0,0E0],"parents":[2147483647,0,0,1,1,2,2,5,5,6,6,7,7,8,8,9,9,10,10],"right_children":[2,4,6,-1,-1,8,10,12,14,16,18,-1,-1,-1,-1,-1,-1,-1,-1],"split_conditions":[1E0,1E0,3.8906935E-1,-2.1665448E-2,2.2712205E-2,2.3118948E-4,5.3287164E-4,9.607473E-2,1.5E1,8.095238E-1,1.333787E0,-3.8563965E-3,1.7503617E-2,-6.9227647E-3,5.546477E-3,2.0237695E-2,1.4405086E-2,1.2069647E-2,4.14668E-3],"split_indices":[23,16,4,0,0,13,13,4,23,14,12,0,0,0,0,0,0,0,0],"split_type":[0,0,0,0,0,0,0,0,0,0,0,0,0,0,0,0,0,0,0],"sum_hessian":[1.5007838E4,5.380463E3,9.627375E3,5.0806846E3,2.9977832E2,2.232579E3,7.3947954E3,3.6346478E2,1.8691144E3,2.051466E3,5.3433296E3,6.3097027E1,3.0036774E2,1.636279E2,1.7054865E3,8.510535E2,1.2004125E3,4.0046787E3,1.3386509E3],"tree_param":{"num_deleted":"0","num_feature":"26","num_nodes":"19","size_leaf_vector":"1"}},{"base_weights":[3.5325221E-3,-1.0561051E0,5.410194E-1,-2.1587264E-2,1.9996285E-2,2.2269975E-2,5.1244354E-1,6.430287E-1,3.9830434E-1,8.280869E-3,1.4995474E-2,-1.0615528E-3,8.938141E-3],"categories":[],"categories_nodes":[],"categories_segments":[],"categories_sizes":[],"default_left":[0,0,0,0,0,0,0,0,0,0,0,0,0],"id":53,"left_children":[1,3,5,-1,-1,-1,7,9,11,-1,-1,-1,-1],"loss_changes":[8.529909E3,2.5192627E2,1.5363501E2,0E0,0E0,0E0,1.3677881E2,1.02139404E2,1.1285437E2,0E0,0E0,0E0,0E0],"parents":[2147483647,0,0,1,1,2,2,6,6,7,7,8,8],"right_children":[2,4,6,-1,-1,-1,8,10,12,-1,-1,-1,-1],"split_conditions":[6.086956E-1,1E0,2E0,-2.1587264E-2,1.9996285E-2,2.2269975E-2,8.8235295E-1,4.9924597E-1,1.5E1,8.280869E-3,1.4995474E-2,-1.0615528E-3,8.938141E-3],"split_indices":[18,16,23,0,0,0,14,4,23,0,0,0,0],"split_type":[0,0,0,0,0,0,0,0,0,0,0,0,0],"sum_hessian":[1.495858E4,5.0295728E3,9.929007E3,4.9789697E3,5.0603E1,4.5067554E2,9.478332E3,4.3909004E3,5.087431E3,1.4175515E3,2.9733489E3,4.9045157E2,4.5969795E3],"tree_param":{"num_deleted":"0","num_feature":"26","num_nodes":"13","size_leaf_vector":"1"}},{"base_weights":[2.6207329E-3,-1.0548521E0,5.292344E-1,-2.1555332E-2,2.061242E-2,3.146886E-1,5.946423E-1,1.6606627E-2,2.7972135E-1,6.6610354E-1,3.3711702E-1,-6.990091E-3,6.7344373E-3,1.7894413E-2,1.2016072E-2,9.086251E-3,-2.5598952E-3],"categories":[],"categories_nodes":[],"categories_segments":[],"categories_sizes":[],"default_left":[0,0,0,0,0,0,0,0,0,0,0,0,0,0,0,0,0],"id":54,"left_children":[1,3,5,-1,-1,7,9,-1,11,13,15,-1,-1,-1,-1,-1,-1],"loss_changes":[8.263848E3,2.4692139E2,1.3535986E2,0E0,0E0,3.771118E1,1.3515747E2,0E0,8.053552E1,7.991455E1,9.236296E1,0E0,0E0,0E0,0E0,0E0,0E0],"parents":[2147483647,0,0,1,1,2,2,5,5,6,6,8,8,9,9,10,10],"right_children":[2,4,6,-1,-1,8,10,-1,12,14,16,-1,-1,-1,-1,-1,-1],"split_conditions":[6.086956E-1,1E0,3.8906935E-1,-2.1555332E-2,2.061242E-2,2E0,1.333787E0,1.6606627E-2,1.5E1,6.467066E-1,1E0,-6.990091E-3,6.7344373E-3,1.7894413E-2,1.2016072E-2,9.086251E-3,-2.5598952E-3],"split_indices":[18,16,4,0,0,23,12,0,23,14,16,0,0,0,0,0,0],"split_type":[0,0,0,0,0,0,0,0,0,0,0,0,0,0,0,0,0],"sum_hessian":[1.482142E4,4.9226353E3,9.898785E3,4.874863E3,4.777248E1,2.3334556E3,7.565329E3,1.3011177E2,2.2033438E3,5.9035176E3,1.6618116E3,1.7584096E2,2.0275028E3,1.2765681E3,4.626949E3,1.3309745E3,3.308372E2],"tree_param":{"num_deleted":"0","num_feature":"26","num_nodes":"17","size_leaf_vector":"1"}},{"base_weights":[-6.4781005E-4,-1.0523763E0,5.150388E-1,-2.1524994E-2,1.974523E-2,4.2137676E-1,6.660231E-1,4.8857635E-1,2.1027769E-1,7.5777537E-1,5.251798E-1,5.919089E-4,1.0616139E-2,1.2036779E-2,1.4717142E-4,1.11144455E-2,1.804035E-2,2.9106021E-3,1.2625517E-2],"categories":[],"categories_nodes":[],"categories_segments":[],"categories_sizes":[],"default_left":[0,0,0,0,0,0,0,0,0,0,0,0,0,0,0,0,0,0,0],"id":55,"left_children":[1,3,5,-1,-1,7,9,11,13,15,17,-1,-1,-1,-1,-1,-1,-1,-1],"loss_changes":[8.0024023E3,2.4720752E2,1.349878E2,0E0,0E0,8.472974E1,4.2094482E1,8.8767334E1,1.1857707E2,5.758838E1,5.8991455E1,0E0,0E0,0E0,0E0,0E0,0E0,0E0,0E0],"parents":[2147483647,0,0,1,1,2,2,5,5,6,6,7,7,8,8,9,9,10,10],"right_children":[2,4,6,-1,-1,8,10,12,14,16,18,-1,-1,-1,-1,-1,-1,-1,-1],"split_conditions":[6.086956E-1,1E0,1E0,-2.1524994E-2,1.974523E-2,1.3401976E0,7.891962E-4,1.1798725E-1,6.993163E-4,7.478308E-1,1.4298325E0,5.919089E-4,1.0616139E-2,1.2036779E-2,1.4717142E-4,1.11144455E-2,1.804035E-2,2.9106021E-3,1.2625517E-2],"split_indices":[18,16,0,0,0,12,13,4,13,4,4,0,0,0,0,0,0,0,0],"split_type":[0,0,0,0,0,0,0,0,0,0,0,0,0,0,0,0,0,0,0],"sum_hessian":[1.4732743E4,4.8449907E3,9.887753E3,4.794575E3,5.041521E1,6.133831E3,3.7539216E3,4.6355645E3,1.498267E3,2.2379844E3,1.5159373E3,3.9600223E2,4.239562E3,5.0134174E2,9.9692523E2,9.581747E2,1.2798098E3,3.4040707E2,1.1755302E3],"tree_param":{"num_deleted":"0","num_feature":"26","num_nodes":"19","size_leaf_vector":"1"}},{"base_weights":[-2.5263391E-3,-9.439583E-1,4.8951337E-1,-2.1519847E-2,2.166889E-2,4.0020502E-1,6.3662297E-1,-8.164241E-2,4.365129E-1,7.050611E-1,4.2633587E-1,8.685705E-3,-7.647044E-3,1.1421417E-2,7.3563755E-3,1.47473095E-2,7.824451E-3,1.7882055E-3,1.0202584E-2],"categories":[],"categories_nodes":[],"categories_segments":[],"categories_sizes":[],"default_left":[0,0,0,0,0,0,0,0,0,0,0,0,0,0,0,0,0,0,0],"id":56,"left_children":[1,3,5,-1,-1,7,9,11,13,15,17,-1,-1,-1,-1,-1,-1,-1,-1],"loss_changes":[6.77446E3,1.3555972E3,1.2153174E2,0E0,0E0,1.0621405E2,4.6567993E1,6.7603096E1,4.7733643E1,2.2180908E1,2.4230011E1,0E0,0E0,0E0,0E0,0E0,0E0,0E0,0E0],"parents":[2147483647,0,0,1,1,2,2,5,5,6,6,7,7,8,8,9,9,10,10],"right_children":[2,4,6,-1,-1,8,10,12,14,16,18,-1,-1,-1,-1,-1,-1,-1,-1],"split_conditions":[1E0,1E0,1E0,-2.1519847E-2,2.166889E-2,1.5E1,1.4375E0,8.235294E-1,7.2727275E-1,2.5277777E0,1.2421442E0,8.685705E-3,-7.647044E-3,1.1421417E-2,7.3563755E-3,1.47473095E-2,7.824451E-3,1.7882055E-3,1.0202584E-2],"split_indices":[23,16,0,0,0,23,14,14,14,15,24,0,0,0,0,0,0,0,0],"split_type":[0,0,0,0,0,0,0,0,0,0,0,0,0,0,0,0,0,0,0],"sum_hessian":[1.4602717E4,5.010631E3,9.592086E3,4.7095986E3,3.010322E2,6.000226E3,3.5918596E3,4.157093E2,5.584517E3,2.6849883E3,9.068711E2,1.4899158E2,2.667177E2,1.85287E3,3.731647E3,2.4163936E3,2.6859473E2,1.8948943E2,7.173817E2],"tree_param":{"num_deleted":"0","num_feature":"26","num_nodes":"19","size_leaf_vector":"1"}},{"base_weights":[9.424966E-4,-9.430526E-1,4.8389322E-1,-2.1485431E-2,2.1499207E-2,5.511237E-1,2.5583467E-1,2.4746874E-1,6.2036276E-1,6.0449374E-1,5.6585196E-2,6.7870384E-3,-6.2727235E-4,1.7148416E-2,1.1301209E-2,9.689834E-3,1.6526956E-2,5.6057423E-3,-2.824209E-2],"categories":[],"categories_nodes":[],"categories_segments":[],"categories_sizes":[],"default_left":[0,0,0,0,0,0,0,0,0,0,0,0,0,0,0,0,0,0,0],"id":57,"left_children":[1,3,5,-1,-1,7,9,11,13,15,17,-1,-1,-1,-1,-1,-1,-1,-1],"loss_changes":[6.643454E3,1.3173403E3,1.448252E2,0E0,0E0,1.529851E2,1.5262158E2,3.6640915E1,7.149341E1,1.475177E1,4.7084177E2,0E0,0E0,0E0,0E0,0E0,0E0,0E0,0E0],"parents":[2147483647,0,0,1,1,2,2,5,5,6,6,7,7,8,8,9,9,10,10],"right_children":[2,4,6,-1,-1,8,10,12,14,16,18,-1,-1,-1,-1,-1,-1,-1,-1],"split_conditions":[1E0,1E0,1.333787E0,-2.1485431E-2,2.1499207E-2,3.3223593E-1,6.993163E-4,1E0,3.8415668E-4,6.670269E-1,1E0,6.7870384E-3,-6.2727235E-4,1.7148416E-2,1.1301209E-2,9.689834E-3,1.6526956E-2,5.6057423E-3,-2.824209E-2],"split_indices":[23,16,12,0,0,4,13,16,13,4,16,0,0,0,0,0,0,0,0],"split_type":[0,0,0,0,0,0,0,0,0,0,0,0,0,0,0,0,0,0,0],"sum_hessian":[1.455408E4,4.921212E3,9.632868E3,4.626074E3,2.9513763E2,7.4219736E3,2.2108943E3,1.3919712E3,6.0300024E3,7.929555E2,1.4179387E3,1.0507286E3,3.412426E2,1.1063455E3,4.923657E3,5.411162E2,2.5183926E2,1.238718E3,1.7922069E2],"tree_param":{"num_deleted":"0","num_feature":"26","num_nodes":"19","size_leaf_vector":"1"}},{"base_weights":[-9.917835E-4,-1.048808E0,4.8263413E-1,-2.1407396E-2,1.7772345E-2,3.907406E-1,6.318424E-1,8.066792E-1,3.6441103E-1,7.658444E-1,5.582156E-1,8.153176E-3,1.8761449E-2,8.408777E-3,3.8492759E-3,2.024517E-2,1.43842315E-2,3.445213E-3,1.1828949E-2],"categories":[],"categories_nodes":[],"categories_segments":[],"categories_sizes":[],"default_left":[0,0,0,0,0,0,0,0,0,0,0,0,0,0,0,0,0,0,0],"id":58,"left_children":[1,3,5,-1,-1,7,9,11,13,15,17,-1,-1,-1,-1,-1,-1,-1,-1],"loss_changes":[7.370554E3,2.0177783E2,1.3189551E2,0E0,0E0,6.2522827E1,3.0245972E1,1.2140015E1,5.4279907E1,4.1883545E0,2.9235779E1,0E0,0E0,0E0,0E0,0E0,0E0,0E0,0E0],"parents":[2147483647,0,0,1,1,2,2,5,5,6,6,7,7,8,8,9,9,10,10],"right_children":[2,4,6,-1,-1,8,10,12,14,16,18,-1,-1,-1,-1,-1,-1,-1,-1],"split_conditions":[6.086956E-1,1E0,1E0,-2.1407396E-2,1.7772345E-2,0E0,8.6770874E-1,-5.428571E0,1.333787E0,9E0,6.2434745E-1,8.153176E-3,1.8761449E-2,8.408777E-3,3.8492759E-3,2.024517E-2,1.43842315E-2,3.445213E-3,1.1828949E-2],"split_indices":[18,16,0,0,0,11,12,19,12,23,24,0,0,0,0,0,0,0,0],"split_type":[0,0,0,0,0,0,0,0,0,0,0,0,0,0,0,0,0,0,0],"sum_hessian":[1.45225E4,4.5837876E3,9.938713E3,4.5387827E3,4.500506E1,6.181363E3,3.75735E3,3.4582898E2,5.8355337E3,1.2894136E3,2.4679365E3,9.960172E1,2.4622725E2,4.381702E3,1.4538318E3,1.6540956E2,1.124004E3,2.0532373E2,2.2626128E3],"tree_param":{"num_deleted":"0","num_feature":"26","num_nodes":"19","size_leaf_vector":"1"}},{"base_weights":[-0E0,-5.4736704E-1,4.9723384E-1,-9.801322E-1,3.8275385E-1,6.449752E-1,4.3615702E-1,7.8645337E-1,-2.1239683E-2,5.4376E-1,-5.4138627E-2,5.350981E-1,8.124721E-1,3.6774513E-1,5.3565055E-1,1.7068971E-2,-2.7144137E-3,2.0892767E-3,1.4754093E-2,-8.396624E-3,7.236211E-3,1.4604399E-2,6.2877443E-3,1.653616E-2,2.0196508E-3,1.1425172E-2,5.845947E-3,1.3934153E-2,8.716656E-3],"categories":[],"categories_nodes":[],"categories_segments":[],"categories_sizes":[],"default_left":[0,0,0,0,0,0,0,0,0,0,0,0,0,0,0,0,0,0,0,0,0,0,0,0,0,0,0,0,0],"id":59,"left_children":[1,3,5,7,9,11,13,15,-1,17,19,21,23,25,27,-1,-1,-1,-1,-1,-1,-1,-1,-1,-1,-1,-1,-1,-1],"loss_changes":[3.9321116E3,2.7725813E3,6.3349854E1,6.880381E2,1.5525354E2,3.3155884E1,3.296277E1,1.5730988E1,0E0,1.3418628E2,9.217363E1,5.398929E1,5.864441E0,4.6386322E1,2.9510437E1,0E0,0E0,0E0,0E0,0E0,0E0,0E0,0E0,0E0,0E0,0E0,0E0,0E0,0E0],"parents":[2147483647,0,0,1,1,2,2,3,3,4,4,5,5,6,6,7,7,9,9,10,10,11,11,12,12,13,13,14,14],"right_children":[2,4,6,8,10,12,14,16,-1,18,20,22,24,26,28,-1,-1,-1,-1,-1,-1,-1,-1,-1,-1,-1,-1,-1,-1],"split_conditions":[1E0,9.271523E-2,7.1428573E-1,-2.0289855E-1,8.196533E-4,1.2059807E0,1.3366766E0,1.43863E-3,-2.1239683E-2,3.471185E-1,1.6983935E0,5.647288E-4,7.39346E-3,3.73786E-4,1.1472111E-3,1.7068971E-2,-2.7144137E-3,2.0892767E-3,1.4754093E-2,-8.396624E-3,7.236211E-3,1.4604399E-2,6.2877443E-3,1.653616E-2,2.0196508E-3,1.1425172E-2,5.845947E-3,1.3934153E-2,8.716656E-3],"split_indices":[17,20,14,19,13,4,4,13,0,4,4,13,13,13,13,0,0,0,0,0,0,0,0,0,0,0,0,0,0],"split_type":[0,0,0,0,0,0,0,0,0,0,0,0,0,0,0,0,0,0,0,0,0,0,0,0,0,0,0,0,0],"sum_hessian":[1.44275625E4,6.865703E3,7.5618594E3,4.686697E3,2.1790063E3,2.1742139E3,5.3876455E3,2.0264099E2,4.4840557E3,1.5937866E3,5.852198E2,1.3454761E3,8.2873773E2,3.232226E3,2.1554192E3,1.9163304E2,1.100795E1,4.9600482E2,1.0977817E3,3.1393265E2,2.712871E2,6.970737E2,6.4840234E2,8.0802496E2,2.071276E1,8.492439E2,2.3829822E3,7.941746E2,1.3612446E3],"tree_param":{"num_deleted":"0","num_feature":"26","num_nodes":"29","size_leaf_vector":"1"}},{"base_weights":[7.354594E-4,-1.0439126E0,4.6885026E-1,-2.1354428E-2,1.8450914E-2,1.0158547E0,4.425413E-1,1.0487468E0,3.0107743E-1,2.9945934E-1,5.289097E-1,1.043998E-2,2.2266146E-2,1.4052677E-2,-5.066747E-3,-5.672564E-3,7.014908E-3,1.4541809E-2,8.404276E-3],"categories":[],"categories_nodes":[],"categories_segments":[],"categories_sizes":[],"default_left":[0,0,0,0,0,0,0,0,0,0,0,0,0,0,0,0,0,0,0],"id":60,"left_children":[1,3,5,-1,-1,7,9,11,13,15,17,-1,-1,-1,-1,-1,-1,-1,-1],"loss_changes":[7.0158193E3,2.1796631E2,1.3520679E2,0E0,0E0,4.571289E0,1.1386987E2,5.1108093E0,1.0741268E1,1.08752045E2,1.2148035E2,0E0,0E0,0E0,0E0,0E0,0E0,0E0,0E0],"parents":[2147483647,0,0,1,1,2,2,5,5,6,6,7,7,8,8,9,9,10,10],"right_children":[2,4,6,-1,-1,8,10,12,14,16,18,-1,-1,-1,-1,-1,-1,-1,-1],"split_conditions":[6.086956E-1,1E0,2E0,-2.1354428E-2,1.8450914E-2,1.7601439E0,6.366446E-1,2.1234396E-1,5.647288E-4,1.5E1,7.364346E-4,1.043998E-2,2.2266146E-2,1.4052677E-2,-5.066747E-3,-5.672564E-3,7.014908E-3,1.4541809E-2,8.404276E-3],"split_indices":[18,16,23,0,0,12,4,4,13,23,13,0,0,0,0,0,0,0,0],"split_type":[0,0,0,0,0,0,0,0,0,0,0,0,0,0,0,0,0,0,0],"sum_hessian":[1.4329176E4,4.4289434E3,9.900232E3,4.3814824E3,4.7461006E1,4.3356635E2,9.466666E3,4.073507E2,2.6215628E1,3.5889192E3,5.8777466E3,5.7777596E1,3.4957312E2,1.5745391E1,1.0470236E1,2.8333167E2,3.3055876E3,2.0552314E3,3.8225151E3],"tree_param":{"num_deleted":"0","num_feature":"26","num_nodes":"19","size_leaf_vector":"1"}},{"base_weights":[-2.4700942E-3,-1.0400975E0,4.5619577E-1,-2.1308558E-2,1.8282928E-2,9.699635E-1,4.31997E-1,1.0004519E0,1.7847314E-3,4.9010213E-2,4.6373487E-1,8.13996E-3,2.1053605E-2,1.6999027E-2,-1.9102893E-3,7.3287087E-3,1.1067824E-2],"categories":[],"categories_nodes":[],"categories_segments":[],"categories_sizes":[],"default_left":[0,0,0,0,0,0,0,0,0,0,0,0,0,0,0,0,0],"id":61,"left_children":[1,3,5,-1,-1,7,9,11,-1,13,15,-1,-1,-1,-1,-1,-1],"loss_changes":[6.7746807E3,2.2606982E2,1.15694336E2,0E0,0E0,8.531921E0,1.1356726E2,5.6441956E0,0E0,8.7852356E1,7.217786E1,0E0,0E0,0E0,0E0,0E0,0E0],"parents":[2147483647,0,0,1,1,2,2,5,5,6,6,7,7,9,9,10,10],"right_children":[2,4,6,-1,-1,8,10,12,-1,14,16,-1,-1,-1,-1,-1,-1],"split_conditions":[6.086956E-1,1E0,2E0,-2.1308558E-2,1.8282928E-2,1.8892274E0,1.5E1,1.8455057E-1,1.7847314E-3,0E0,8.584164E-1,8.13996E-3,2.1053605E-2,1.6999027E-2,-1.9102893E-3,7.3287087E-3,1.1067824E-2],"split_indices":[18,16,23,0,0,12,23,4,0,11,4,0,0,0,0,0,0],"split_type":[0,0,0,0,0,0,0,0,0,0,0,0,0,0,0,0,0],"sum_hessian":[1.4212363E4,4.354034E3,9.858329E3,4.303821E3,5.0213585E1,4.2214883E2,9.436181E3,4.0451532E2,1.76335E1,7.2889764E2,8.707283E3,4.2930405E1,3.6158493E2,1.060741E2,6.2282355E2,4.2107495E3,4.496533E3],"tree_param":{"num_deleted":"0","num_feature":"26","num_nodes":"17","size_leaf_vector":"1"}},{"base_weights":[-2.6118972E-3,-1.0425489E0,4.4569138E-1,-2.1290326E-2,1.6597822E-2,3.5560784E-1,5.924377E-1,4.860521E-1,2.5941482E-1,8.221827E-1,5.175668E-1,1.4008113E-2,8.67944E-3,1.7640862E-3,7.2375857E-3,1.6710792E-2,2.7340718E-3,1.7293775E-2,9.744123E-3],"categories":[],"categories_nodes":[],"categories_segments":[],"categories_sizes":[],"default_left":[0,0,0,0,0,0,0,0,0,0,0,0,0,0,0,0,0,0,0],"id":62,"left_children":[1,3,5,-1,-1,7,9,11,13,15,17,-1,-1,-1,-1,-1,-1,-1,-1],"loss_changes":[6.6044883E3,1.8485352E2,1.2681616E2,0E0,0E0,7.460895E1,5.7409668E1,2.3677856E1,6.1563156E1,5.1157227E0,2.3170044E1,0E0,0E0,0E0,0E0,0E0,0E0,0E0,0E0],"parents":[2147483647,0,0,1,1,2,2,5,5,6,6,7,7,8,8,9,9,10,10],"right_children":[2,4,6,-1,-1,8,10,12,14,16,18,-1,-1,-1,-1,-1,-1,-1,-1],"split_conditions":[6.086956E-1,1E0,1E0,-2.1290326E-2,1.6597822E-2,8.235294E-1,6.744186E-1,-5.555556E-1,9.334831E-1,1.17E2,2E0,1.4008113E-2,8.67944E-3,1.7640862E-3,7.2375857E-3,1.6710792E-2,2.7340718E-3,1.7293775E-2,9.744123E-3],"split_indices":[18,16,0,0,0,14,14,6,24,23,23,0,0,0,0,0,0,0,0],"split_type":[0,0,0,0,0,0,0,0,0,0,0,0,0,0,0,0,0,0,0],"sum_hessian":[1.41438955E4,4.2579224E3,9.885973E3,4.2138687E3,4.4053913E1,6.155278E3,3.7306946E3,2.5864954E3,3.5687827E3,8.858608E2,2.8448337E3,4.7374503E2,2.1127502E3,1.3504342E3,2.2183486E3,8.6392004E2,2.1940744E1,2.0140732E2,2.6434265E3],"tree_param":{"num_deleted":"0","num_feature":"26","num_nodes":"19","size_leaf_vector":"1"}},{"base_weights":[5.1001403E-3,-1.0363483E0,4.4435072E-1,-2.1252466E-2,1.8920256E-2,5.0160474E-1,2.5044692E-1,5.9777025E-2,5.358416E-1,6.243757E-1,2.184482E-2,-3.5905528E-3,8.165872E-3,1.4519612E-2,9.418786E-3,6.1836005E-3,1.46646155E-2,4.907414E-3,-2.8377878E-2],"categories":[],"categories_nodes":[],"categories_segments":[],"categories_sizes":[],"default_left":[0,0,0,0,0,0,0,0,0,0,0,0,0,0,0,0,0,0,0],"id":63,"left_children":[1,3,5,-1,-1,7,9,11,13,15,17,-1,-1,-1,-1,-1,-1,-1,-1],"loss_changes":[6.467656E3,2.2871533E2,1.0767175E2,0E0,0E0,1.14385864E2,1.9479362E2,4.843427E1,8.186975E1,2.5403809E1,4.6431824E2,0E0,0E0,0E0,0E0,0E0,0E0,0E0,0E0],"parents":[2147483647,0,0,1,1,2,2,5,5,6,6,7,7,8,8,9,9,10,10],"right_children":[2,4,6,-1,-1,8,10,12,14,16,18,-1,-1,-1,-1,-1,-1,-1,-1],"split_conditions":[6.086956E-1,1E0,1.333787E0,-2.1252466E-2,1.8920256E-2,1.3484855E-1,6.993163E-4,5.4695894E-4,6.744186E-1,5.138122E-1,1E0,-3.5905528E-3,8.165872E-3,1.4519612E-2,9.418786E-3,6.1836005E-3,1.46646155E-2,4.907414E-3,-2.8377878E-2],"split_indices":[18,16,12,0,0,4,13,13,14,24,16,0,0,0,0,0,0,0,0],"split_type":[0,0,0,0,0,0,0,0,0,0,0,0,0,0,0,0,0,0,0],"sum_hessian":[1.412081E4,4.1835664E3,9.937243E3,4.1344155E3,4.9150913E1,7.651731E3,2.285512E3,5.564605E2,7.0952705E3,8.5724243E2,1.4282695E3,3.2939536E2,2.2706514E2,1.7718248E3,5.3234453E3,2.3463115E2,6.226113E2,1.2448242E3,1.834453E2],"tree_param":{"num_deleted":"0","num_feature":"26","num_nodes":"19","size_leaf_vector":"1"}},{"base_weights":[2.6910647E-4,-9.2780626E-1,4.1781196E-1,-1.0243819E0,9.312616E-1,2.1483149E-1,4.7936612E-1,1.6968569E-2,-2.107549E-2,1.9414539E-2,-0E0,5.703642E-1,1.3739592E-1,6.9567037E-1,3.8323575E-1,-4.3283315E-5,1.581114E-2,-3.6958328E-3,4.8192306E-3,2.3026198E-2,1.3201973E-2,2.4054039E-3,9.799629E-3],"categories":[],"categories_nodes":[],"categories_segments":[],"categories_sizes":[],"default_left":[0,0,0,0,0,0,0,0,0,0,0,0,0,0,0,0,0,0,0,0,0,0,0],"id":64,"left_children":[1,3,5,7,9,11,13,-1,-1,-1,-1,15,17,19,21,-1,-1,-1,-1,-1,-1,-1,-1],"loss_changes":[5.4515957E3,7.933628E2,1.1885364E2,2.3806738E2,6.5516357E0,6.068676E1,1.4971228E2,0E0,0E0,0E0,0E0,5.211281E1,6.3737953E1,2.553711E1,1.4342572E2,0E0,0E0,0E0,0E0,0E0,0E0,0E0,0E0],"parents":[2147483647,0,0,1,1,2,2,3,3,4,4,5,5,6,6,11,11,12,12,13,13,14,14],"right_children":[2,4,6,8,10,12,14,-1,-1,-1,-1,16,18,20,22,-1,-1,-1,-1,-1,-1,-1,-1],"split_conditions":[1E0,9.271523E-2,3.8906935E-1,-2.0289855E-1,1.8533185E0,2.3501276E-4,5.6884176E-4,1.6968569E-2,-2.107549E-2,1.9414539E-2,-0E0,1.3484855E-1,1E0,4.5E-1,1.0673704E0,-4.3283315E-5,1.581114E-2,-3.6958328E-3,4.8192306E-3,2.3026198E-2,1.3201973E-2,2.4054039E-3,9.799629E-3],"split_indices":[23,20,4,19,12,13,13,0,0,0,0,4,17,14,4,0,0,0,0,0,0,0,0],"split_type":[0,0,0,0,0,0,0,0,0,0,0,0,0,0,0,0,0,0,0,0,0,0,0],"sum_hessian":[1.4050855E4,4.3546763E3,9.696179E3,4.14492E3,2.0975633E2,2.2741978E3,7.421981E3,5.8690105E1,4.0862297E3,1.9920374E2,1.0552607E1,3.9073193E2,1.883466E3,2.2580164E3,5.163965E3,1.0876037E2,2.8197156E2,4.5155283E2,1.4319131E3,1.3673143E2,2.121285E3,1.5025273E3,3.6614375E3],"tree_param":{"num_deleted":"0","num_feature":"26","num_nodes":"23","size_leaf_vector":"1"}},{"base_weights":[2.3330387E-3,-1.0345569E0,4.2574835E-1,-2.1200063E-2,1.802034E-2,3.4211355E-1,5.6241876E-1,3.844618E-1,7.367256E-2,6.3099897E-1,3.633103E-1,1.0702324E-2,6.6228434E-3,3.8296713E-3,-7.5484687E-3,1.3776707E-2,9.925578E-3,1.2637505E-2,5.133059E-3],"categories":[],"categories_nodes":[],"categories_segments":[],"categories_sizes":[],"default_left":[0,0,0,0,0,0,0,0,0,0,0,0,0,0,0,0,0,0,0],"id":65,"left_children":[1,3,5,-1,-1,7,9,11,13,15,17,-1,-1,-1,-1,-1,-1,-1,-1],"loss_changes":[6.129414E3,2.0921875E2,1.0961536E2,0E0,0E0,6.9127686E1,4.678772E1,3.934784E1,4.6148758E1,1.572229E1,2.4936264E1,0E0,0E0,0E0,0E0,0E0,0E0,0E0,0E0],"parents":[2147483647,0,0,1,1,2,2,5,5,6,6,7,7,8,8,9,9,10,10],"right_children":[2,4,6,-1,-1,8,10,12,14,16,18,-1,-1,-1,-1,-1,-1,-1,-1],"split_conditions":[6.086956E-1,1E0,1E0,-2.1200063E-2,1.802034E-2,1.6363636E0,1.4285715E0,6.27451E-1,1E0,9.431057E-4,8.3775836E-1,1.0702324E-2,6.6228434E-3,3.8296713E-3,-7.5484687E-3,1.3776707E-2,9.925578E-3,1.2637505E-2,5.133059E-3],"split_indices":[18,16,0,0,0,14,14,14,16,13,12,0,0,0,0,0,0,0,0],"split_type":[0,0,0,0,0,0,0,0,0,0,0,0,0,0,0,0,0,0,0],"sum_hessian":[1.3943845E4,4.0374612E3,9.906384E3,3.9905557E3,4.6905407E1,6.1764194E3,3.7299639E3,5.3246504E3,8.517693E2,2.7507644E3,9.7919934E2,1.3584586E3,3.9661917E3,6.834612E2,1.6830812E2,1.8853795E3,8.653851E2,2.590108E2,7.2018854E2],"tree_param":{"num_deleted":"0","num_feature":"26","num_nodes":"19","size_leaf_vector":"1"}},{"base_weights":[2.660987E-3,-1.0325631E0,4.1803405E-1,1.6789502E-2,-1.0454392E0,8.778E-1,3.9086124E-1,-2.1014972E-2,7.3518488E-3,3.0458516E-1,9.2309386E-1,-3.8618032E-2,4.2217508E-1,1.0815561E-2,-4.5105488E-5,2.1418866E-2,1.3621727E-2,-5.306461E-3,9.513671E-3,5.167409E-3,9.432318E-3],"categories":[],"categories_nodes":[],"categories_segments":[],"categories_sizes":[],"default_left":[0,0,0,0,0,0,0,0,0,0,0,0,0,0,0,0,0,0,0,0,0],"id":66,"left_children":[1,3,5,-1,7,9,11,-1,-1,13,15,17,19,-1,-1,-1,-1,-1,-1,-1,-1],"loss_changes":[5.980369E3,1.0516943E2,1.1807178E2,0E0,3.4938965E1,8.8029175E0,1.2730359E2,0E0,0E0,5.2813406E0,6.8802185E0,7.585733E1,6.82926E1,0E0,0E0,0E0,0E0,0E0,0E0,0E0,0E0],"parents":[2147483647,0,0,1,1,2,2,4,4,5,5,6,6,9,9,10,10,11,11,12,12],"right_children":[2,4,6,-1,8,10,12,-1,-1,14,16,18,20,-1,-1,-1,-1,-1,-1,-1,-1],"split_conditions":[6.086956E-1,0E0,3E0,1.6789502E-2,2.0588236E-1,1.4765823E-1,1.5E1,-2.1014972E-2,7.3518488E-3,7.87767E-2,4.899985E-4,1.2787405E0,