{"learner":{"attributes":{"best_iteration":"4","best_score":"0.9550039934687289","scikit_learn":"{\"_estimator_type\": \"classifier\"}"},"feature_names":["dist_pdh_atr","dist_pdl_atr","dist_pwh_atr","dist_pwl_atr","dist_vah_atr","dist_val_atr","dist_ldn_hi_atr","dist_ldn_lo_atr","dist_asia_hi_atr","dist_asia_lo_atr","dist_poc_atr","near_any_level","level_type","above_level","below_level","mins_to_key_time","near_key_time","key_time_type","time_in_window","swept_above_level","swept_below_level","sweep_wick_ratio","bars_since_sweep","reclaimed_after_sweep","body_dir","wick_bias","upper_wick_atr","lower_wick_atr","sharp_reversal_bar","rejection_candle","outside_bar","atr_percentile","realized_vol","vol_spike","range_atr_ratio","momentum_5","momentum_15","slope_h1","h4_momentum","h4_hh_hl","inside_va","above_vah","below_val","dist_poc_signed","is_london","is_ny","is_pre_ny","hour_sin","hour_cos","broke_pdh","broke_pdl","broke_pwh","broke_pwl","broke_vah","broke_val","liq_above_count","liq_below_count"],"feature_types":["float","float","float","float","float","float","float","float","float","float","float","float","float","float","float","float","float","float","float","float","float","float","float","float","float","float","float","float","float","float","float","float","float","float","float","float","float","float","float","float","float","float","float","float","float","float","float","float","float","float","float","float","float","float","float","float","float"],"gradient_booster":{"model":{"cats":{"enc":[],"feature_segments":[],"sorted_idx":[]},"gbtree_model_param":{"num_parallel_tree":"1","num_trees":"85"},"iteration_indptr":[0,1,2,3,4,5,6,7,8,9,10,11,12,13,14,15,16,17,18,19,20,21,22,23,24,25,26,27,28,29,30,31,32,33,34,35,36,37,38,39,40,41,42,43,44,45,46,47,48,49,50,51,52,53,54,55,56,57,58,59,60,61,62,63,64,65,66,67,68,69,70,71,72,73,74,75,76,77,78,79,80,81,82,83,84,85],"tree_info":[0,0,0,0,0,0,0,0,0,0,0,0,0,0,0,0,0,0,0,0,0,0,0,0,0,0,0,0,0,0,0,0,0,0,0,0,0,0,0,0,0,0,0,0,0,0,0,0,0,0,0,0,0,0,0,0,0,0,0,0,0,0,0,0,0,0,0,0,0,0,0,0,0,0,0,0,0,0,0,0,0,0,0,0,0],"trees":[{"base_weights":[2.1780391E-1,7.802939E-1,-2.1102989E0,2.593525E-1,1.0536219E0,-5.4800034E-2,8.9468914E-1,9.522988E-1,-6.184091E-1,1.1866351E0,9.2029697E-1,9.477411E-1,3.1962916E-2,4.267944E-1,1.0633755E0,1.0752146E0,-5.4612264E-2,1.1396128E0,1.519177E-2,4.3457702E-1,1.0232966E0,5.867678E-1,1.0305173E0,-1.283712E0,4.9532542E-1,-7.3054275E-3,6.841618E-3,1.4202398E-2,1.1370799E-2,7.927793E-3,1.353161E-2,-1.8349986E-3,1.382726E-2,2.2673674E-3,1.05988495E-2,1.0888632E-2,1.4383096E-2,-3.79212E-3,7.82678E-3,7.789947E-3,1.27288615E-2,-2.9209976E-3,-2.5448894E-2,7.1238307E-3,-1.063732E-2],"categories":[],"categories_nodes":[],"categories_segments":[],"categories_sizes":[],"default_left":[0,0,0,0,0,0,0,0,0,0,0,0,0,0,0,0,0,0,0,0,0,0,0,0,0,0,0,0,0,0,0,0,0,0,0,0,0,0,0,0,0,0,0,0,0],"id":0,"left_children":[1,3,5,7,9,-1,11,13,15,17,19,21,23,25,27,29,-1,31,-1,33,35,37,39,41,43,-1,-1,-1,-1,-1,-1,-1,-1,-1,-1,-1,-1,-1,-1,-1,-1,-1,-1,-1,-1],"loss_changes":[8.454278E4,7.397621E3,9.2787234E4,1.0902191E4,5.8734766E2,0E0,2.5673584E2,5.7618945E2,5.273545E4,4.1373047E1,8.4669824E2,1.4875781E2,2.1485188E2,2.669428E2,9.7174805E1,1.0780615E2,0E0,1.811836E2,0E0,3.2801807E2,2.6896484E2,6.3814026E1,3.804785E1,6.868404E1,4.1472054E1,0E0,0E0,0E0,0E0,0E0,0E0,0E0,0E0,0E0,0E0,0E0,0E0,0E0,0E0,0E0,0E0,0E0,0E0,0E0,0E0],"parents":[2147483647,0,0,1,1,2,2,3,3,4,4,6,6,7,7,8,8,9,9,10,10,11,11,12,12,13,13,14,14,15,15,17,17,19,19,20,20,21,21,22,22,23,23,24,24],"right_children":[2,4,6,8,10,-1,12,14,16,18,20,22,24,26,28,30,-1,32,-1,34,36,38,40,42,44,-1,-1,-1,-1,-1,-1,-1,-1,-1,-1,-1,-1,-1,-1,-1,-1,-1,-1,-1,-1],"split_conditions":[8E0,1E0,1E0,1E0,-7.402181E-1,-5.4800034E-2,7.7439266E-1,1.5346346E-4,1E0,1E0,1.4050597E-4,1.5215822E-4,1.000433E-4,8.4651445E-5,4E0,1.6571023E-4,-5.4612264E-2,5.4310346E-1,1.519177E-2,1E0,1E0,-9.7222224E-2,1.0410256E0,-1.443299E1,7.2787E-3,-7.3054275E-3,6.841618E-3,1.4202398E-2,1.1370799E-2,7.927793E-3,1.353161E-2,-1.8349986E-3,1.382726E-2,2.2673674E-3,1.05988495E-2,1.0888632E-2,1.4383096E-2,-3.79212E-3,7.82678E-3,7.789947E-3,1.27288615E-2,-2.9209976E-3,-2.5448894E-2,7.1238307E-3,-1.063732E-2],"split_indices":[22,11,11,16,47,0,47,32,22,20,32,32,32,32,17,32,0,5,0,20,20,5,5,6,37,0,0,0,0,0,0,0,0,0,0,0,0,0,0,0,0,0,0,0,0],"split_type":[0,0,0,0,0,0,0,0,0,0,0,0,0,0,0,0,0,0,0,0,0,0,0,0,0,0,0,0,0,0,0,0,0,0,0,0,0,0,0,0,0,0,0,0,0],"sum_hessian":[6.453436E4,5.1983523E4,1.2550836E4,1.7899396E4,3.4084125E4,6.9027466E3,5.64809E3,1.0003457E4,7.89594E3,1.7007033E4,1.7077092E4,5.3175923E3,3.3049765E2,1.7587781E3,8.244679E3,5.524823E3,2.3711165E3,1.0810183E4,6.196851E3,3.0020835E3,1.4075008E4,1.0145472E3,4.303045E3,7.942274E1,2.5107492E2,2.0740887E2,1.5513693E3,3.9835906E3,4.261088E3,6.427739E2,4.8820493E3,1.0202458E2,1.0708158E4,1.953891E3,1.0481925E3,8.524114E3,5.550894E3,6.3423855E1,9.511233E2,3.406303E2,3.9624148E3,4.338327E1,3.6039467E1,2.4213626E2,8.9386635E0],"tree_param":{"num_deleted":"0","num_feature":"57","num_nodes":"45","size_leaf_vector":"1"}},{"base_weights":[2.122077E-1,7.739849E-1,-2.068337E0,1.0640124E0,1.2646097E-1,-3.3328412E0,8.5198176E-1,1.0933381E0,3.3653536E-1,4.2034644E-1,-2.792708E-1,-2.5474916E0,-3.7674253E0,-2.3136223E-2,8.7108636E-1,1.0218993E0,1.4393217E-2,5.7107764E-1,-1.032741E-1,-5.1928602E-2,9.584509E-1,-5.2190334E-2,9.1250277E-1,-5.2302297E-2,9.6409976E-1,-5.248148E-2,8.905083E-1,9.128565E-1,-5.1207656E-1,1.3258039E-2,1.0834683E-2,7.113764E-3,-5.6508514E-3,3.0802835E-3,-9.189003E-3,7.1214554E-3,1.26091745E-2,2.829905E-3,1.1692596E-2,1.012321E-3,1.2004798E-2,-1.3367529E-2,1.1566402E-2,1.1348832E-2,2.1251664E-3,2.537254E-3,-2.836952E-2],"categories":[],"categories_nodes":[],"categories_segments":[],"categories_sizes":[],"default_left":[0,0,0,0,0,0,0,0,0,0,0,0,0,0,0,0,0,0,0,0,0,0,0,0,0,0,0,0,0,0,0,0,0,0,0,0,0,0,0,0,0,0,0,0,0,0,0],"id":1,"left_children":[1,3,5,7,9,11,13,15,17,19,21,23,25,-1,27,29,-1,31,33,-1,35,-1,37,-1,39,-1,41,43,45,-1,-1,-1,-1,-1,-1,-1,-1,-1,-1,-1,-1,-1,-1,-1,-1,-1,-1],"loss_changes":[8.272067E4,9.7249E3,4.7164164E4,7.559453E2,1.9144329E3,2.9126328E3,2.2332104E2,2.414375E2,1.4670374E2,2.3829357E4,3.2759727E4,2.0485396E4,1.61670625E4,0E0,2.2871436E2,1.8772461E2,0E0,2.44747E1,1.217276E2,0E0,2.7134717E2,0E0,2.1361084E2,0E0,3.2022583E1,0E0,1.1062854E2,8.623682E1,1.6986395E2,0E0,0E0,0E0,0E0,0E0,0E0,0E0,0E0,0E0,0E0,0E0,0E0,0E0,0E0,0E0,0E0,0E0,0E0],"parents":[2147483647,0,0,1,1,2,2,3,3,4,4,5,5,6,6,7,7,8,8,9,9,10,10,11,11,12,12,14,14,15,15,17,17,18,18,20,20,22,22,24,24,26,26,27,27,28,28],"right_children":[2,4,6,8,10,12,14,16,18,20,22,24,26,-1,28,30,-1,32,34,-1,36,-1,38,-1,40,-1,42,44,46,-1,-1,-1,-1,-1,-1,-1,-1,-1,-1,-1,-1,-1,-1,-1,-1,-1,-1],"split_conditions":[8E0,1E0,1.6E1,2.0328174E2,3E0,2.1E1,-1.19504E2,1E0,4.4E1,1E0,1E0,1E0,1E0,-2.3136223E-2,1.24E2,5.059737E0,1.4393217E-2,-4.6561453E-1,2.732234E2,-5.1928602E-2,-2.4459143E1,-5.2190334E-2,-4.35E1,-5.2302297E-2,-1.4626198E1,-5.248148E-2,9.348915E-1,2.2798964E2,5.0714287E1,1.3258039E-2,1.0834683E-2,7.113764E-3,-5.6508514E-3,3.0802835E-3,-9.189003E-3,7.1214554E-3,1.26091745E-2,2.829905E-3,1.1692596E-2,1.012321E-3,1.2004798E-2,-1.3367529E-2,1.1566402E-2,1.1348832E-2,2.1251664E-3,2.537254E-3,-2.836952E-2],"split_indices":[22,22,15,3,22,22,4,45,15,11,11,11,11,0,15,7,0,48,3,0,4,0,4,0,6,0,5,3,9,0,0,0,0,0,0,0,0,0,0,0,0,0,0,0,0,0,0],"split_type":[0,0,0,0,0,0,0,0,0,0,0,0,0,0,0,0,0,0,0,0,0,0,0,0,0,0,0,0,0,0,0,0,0,0,0,0,0,0,0,0,0,0,0,0,0,0,0],"sum_hessian":[6.454213E4,5.1792617E4,1.2749512E4,3.576333E4,1.6029289E4,8.89636E3,3.853152E3,3.436908E4,1.394252E3,9.298536E3,6.7307524E3,3.2001763E3,5.6961836E3,1.7400547E1,3.8357515E3,2.0626752E4,1.3742326E4,9.099554E2,4.8429657E2,9.3762164E2,8.360915E3,1.5176936E3,5.213059E3,2.1097766E3,1.0903998E3,5.0414204E3,6.547633E2,3.7286755E3,1.070761E2,1.2087074E4,8.539678E3,8.9830865E2,1.1646703E1,3.165997E2,1.6769688E2,1.7101213E3,6.6507935E3,4.443222E2,4.768737E3,4.6973312E1,1.0434264E3,1.6144386E1,6.386189E2,3.5632961E3,1.6537921E2,8.38642E1,2.3211903E1],"tree_param":{"num_deleted":"0","num_feature":"57","num_nodes":"47","size_leaf_vector":"1"}},{"base_weights":[2.1975103E-1,-1.0405474E0,1.0240746E0,-2.334829E0,9.4345665E-1,1.071407E0,5.384282E-1,-3.13256E0,1.0912908E0,9.846602E-1,-0E0,1.1700646E0,9.511337E-1,6.062598E-1,-7.9351413E-1,-5.047807E-2,1.0355102E0,1.0965638E0,-1.4260624E-3,1.4141048E-2,8.3912706E-1,3.6132866E-1,-1.138938E0,1.1269767E0,1.5077511E-2,8.355651E-1,1.170984E0,6.942994E-1,2.9713044E-1,2.2434947E-1,-2.3490605E0,1.3642678E-2,8.763216E-3,1.3249886E-2,-1.02375825E-5,1.0606581E-2,4.4543776E-3,-5.783201E-3,6.9012125E-3,-6.0078773E-6,-2.182763E-2,1.1636593E-2,1.38889775E-2,5.6466595E-3,1.0689003E-2,1.4080575E-2,1.5503939E-3,7.1614967E-3,1.2029686E-2,-1.7187853E-3,9.462423E-3,5.4823635E-3,-8.938103E-3,-4.0131476E-2,-3.1171844E-3],"categories":[],"categories_nodes":[],"categories_segments":[],"categories_sizes":[],"default_left":[0,0,0,0,0,0,0,0,0,0,0,0,0,0,0,0,0,0,0,0,0,0,0,0,0,0,0,0,0,0,0,0,0,0,0,0,0,0,0,0,0,0,0,0,0,0,0,0,0,0,0,0,0,0,0],"id":2,"left_children":[1,3,5,7,9,11,13,15,17,19,21,23,25,27,29,-1,31,33,-1,-1,35,37,39,41,-1,43,45,47,49,51,53,-1,-1,-1,-1,-1,-1,-1,-1,-1,-1,-1,-1,-1,-1,-1,-1,-1,-1,-1,-1,-1,-1,-1,-1],"loss_changes":[6.570498E4,6.4871312E4,8.9934375E2,4.1823914E4,3.860293E2,4.100039E2,3.253745E2,5.5576562E4,2.1995117E1,2.5361816E2,1.8102597E2,5.1708984E1,3.9870898E2,8.748169E1,2.8827612E2,0E0,6.522046E1,2.626416E1,0E0,0E0,1.0885596E2,6.44129E1,7.806477E1,4.594336E1,0E0,2.0858008E2,9.522461E0,6.82124E1,1.7032146E2,2.9692184E1,1.3040677E2,0E0,0E0,0E0,0E0,0E0,0E0,0E0,0E0,0E0,0E0,0E0,0E0,0E0,0E0,0E0,0E0,0E0,0E0,0E0,0E0,0E0,0E0,0E0,0E0],"parents":[2147483647,0,0,1,1,2,2,3,3,4,4,5,5,6,6,7,7,8,8,9,9,10,10,11,11,12,12,13,13,14,14,16,16,17,17,20,20,21,21,22,22,23,23,25,25,26,26,27,27,28,28,29,29,30,30],"right_children":[2,4,6,8,10,12,14,16,18,20,22,24,26,28,30,-1,32,34,-1,-1,36,38,40,42,-1,44,46,48,50,52,54,-1,-1,-1,-1,-1,-1,-1,-1,-1,-1,-1,-1,-1,-1,-1,-1,-1,-1,-1,-1,-1,-1,-1,-1],"split_conditions":[1E0,1.6E1,1.5509268E2,1E0,2.1773685E2,-6.658817E-1,1.1E2,1E0,7.994536E1,-7.2837096E-1,6.1E1,1E0,1E0,5.6280494E-1,-1.383432E1,-5.047807E-2,-5.409745E-1,2.4107143E2,-1.4260624E-3,1.4141048E-2,7.7439266E-1,-3.9024998E1,-1.3162394E1,-1.3920546E1,1.5077511E-2,-4.35E1,1.675281E1,1E0,2E0,2.658228E-1,1.203125E0,1.3642678E-2,8.763216E-3,1.3249886E-2,-1.02375825E-5,1.0606581E-2,4.4543776E-3,-5.783201E-3,6.9012125E-3,-6.0078773E-6,-2.182763E-2,1.1636593E-2,1.38889775E-2,5.6466595E-3,1.0689003E-2,1.4080575E-2,1.5503939E-3,7.1614967E-3,1.2029686E-2,-1.7187853E-3,9.462423E-3,5.4823635E-3,-8.938103E-3,-4.0131476E-2,-3.1171844E-3],"split_indices":[11,15,3,20,3,47,15,19,1,47,15,20,20,47,6,0,47,3,0,0,47,4,6,4,0,4,4,20,55,26,35,0,0,0,0,0,0,0,0,0,0,0,0,0,0,0,0,0,0,0,0,0,0,0,0],"split_type":[0,0,0,0,0,0,0,0,0,0,0,0,0,0,0,0,0,0,0,0,0,0,0,0,0,0,0,0,0,0,0,0,0,0,0,0,0,0,0,0,0,0,0,0,0,0,0,0,0,0,0,0,0,0,0],"sum_hessian":[6.479319E4,2.5239416E4,3.9553773E4,1.5274109E4,9.965307E3,3.602417E4,3.529603E3,1.2390696E4,2.8834133E3,9.545919E3,4.1938828E2,1.9723785E4,1.6300388E4,3.366212E3,1.6339102E2,9.852475E3,2.5382212E3,2.8736704E3,9.7427435E0,4.0521045E3,5.4938145E3,3.258374E2,9.355088E1,1.3288202E4,6.435582E3,1.072781E4,5.572577E3,2.603358E3,7.6285406E2,1.0419509E2,5.919594E1,1.8759257E3,6.6229565E2,2.8556602E3,1.8010387E1,5.0005947E3,4.9321967E2,6.096025E1,2.6487714E2,4.0574753E1,5.2976128E1,2.2294775E3,1.1058725E4,1.4286803E3,9.29913E3,5.556356E3,1.6221106E1,2.0093254E3,5.9403253E2,4.046592E2,3.581949E2,9.0815025E1,1.3380066E1,3.4565414E1,2.4630522E1],"tree_param":{"num_deleted":"0","num_feature":"57","num_nodes":"55","size_leaf_vector":"1"}},{"base_weights":[2.1554758E-1,7.899336E-1,-1.8837695E0,1.0534068E0,1.8063608E-1,-3.0035796E0,8.359903E-1,1.4231705E-2,9.123996E-1,-4.8399296E-2,9.3834376E-1,-4.8562266E-2,9.62501E-1,9.1523963E-1,-9.461782E-3,9.525172E-1,4.2273542E-1,6.3621897E-1,1.0503539E0,1.1071144E0,6.749268E-1,1.0579638E0,8.008279E-1,-1.9773155E-2,1.1461632E-1,1.2662362E-2,9.685981E-3,7.4806367E-3,-1.1145601E-3,7.885317E-3,-1.764619E-2,1.2873669E-2,3.2137313E-3,-1.1181418E-2,1.3568519E-2,-7.269467E-4,8.672425E-3,6.067181E-3,1.3037903E-2,3.7014012E-3,1.01900175E-2,4.568415E-3,-1.2064109E-2],"categories":[],"categories_nodes":[],"categories_segments":[],"categories_sizes":[],"default_left":[0,0,0,0,0,0,0,0,0,0,0,0,0,0,0,0,0,0,0,0,0,0,0,0,0,0,0,0,0,0,0,0,0,0,0,0,0,0,0,0,0,0,0],"id":3,"left_children":[1,3,5,7,9,11,13,-1,15,-1,17,-1,19,21,23,25,27,29,31,33,35,37,39,-1,41,-1,-1,-1,-1,-1,-1,-1,-1,-1,-1,-1,-1,-1,-1,-1,-1,-1,-1],"loss_changes":[7.7825125E4,8.130297E3,4.226278E4,6.4404297E2,4.8937504E4,4.070436E4,2.7345093E2,0E0,3.302959E2,0E0,4.2822754E2,0E0,7.294824E1,4.6658447E1,7.791055E1,2.2312207E2,1.3912996E2,1.6615784E2,1.599707E2,7.7713135E1,2.7259552E1,1.5508179E1,4.4884277E1,0E0,1.0525708E2,0E0,0E0,0E0,0E0,0E0,0E0,0E0,0E0,0E0,0E0,0E0,0E0,0E0,0E0,0E0,0E0,0E0,0E0],"parents":[2147483647,0,0,1,1,2,2,3,3,4,4,5,5,6,6,8,8,10,10,12,12,13,13,14,14,15,15,16,16,17,17,18,18,19,19,20,20,21,21,22,22,24,24],"right_children":[2,4,6,8,10,12,14,-1,16,-1,18,-1,20,22,24,26,28,30,32,34,36,38,40,-1,42,-1,-1,-1,-1,-1,-1,-1,-1,-1,-1,-1,-1,-1,-1,-1,-1,-1,-1],"split_conditions":[7E0,1E0,1.6E1,-7.1325046E-1,1E0,1E0,7.7439266E-1,1.4231705E-2,-6.39439E-1,-4.8399296E-2,-1.8530745E1,-4.8562266E-2,-5.4829323E-1,-6.087614E-1,-1.0738637E2,1E0,4.346269E1,7.825738E1,7.6E1,9.348915E-1,-1.9310346E-1,6.442478E-1,-4.0624683E1,-1.9773155E-2,8.6581566E1,1.2662362E-2,9.685981E-3,7.4806367E-3,-1.1145601E-3,7.885317E-3,-1.764619E-2,1.2873669E-2,3.2137313E-3,-1.1181418E-2,1.3568519E-2,-7.269467E-4,8.672425E-3,6.067181E-3,1.3037903E-2,3.7014012E-3,1.01900175E-2,4.568415E-3,-1.2064109E-2],"split_indices":[22,22,15,47,11,11,47,0,48,0,4,0,47,47,4,19,1,38,15,5,5,5,43,0,5,0,0,0,0,0,0,0,0,0,0,0,0,0,0,0,0,0,0],"split_type":[0,0,0,0,0,0,0,0,0,0,0,0,0,0,0,0,0,0,0,0,0,0,0,0,0,0,0,0,0,0,0,0,0,0,0,0,0,0,0,0,0,0,0],"sum_hessian":[6.451634E4,5.0663055E4,1.3853285E4,3.536042E4,1.5302632E4,9.81261E3,4.0406748E3,1.8172432E4,1.718799E4,2.3239146E3,1.2978718E4,7.769188E3,2.0434221E3,3.6956357E3,3.4503912E2,1.5872175E4,1.3158159E3,3.5368337E3,9.441884E3,1.3322938E3,7.1112836E2,1.5925485E3,2.1030874E3,1.5052141E1,3.2998697E2,9.24936E3,6.6228145E3,9.481971E2,3.6761877E2,3.5112222E3,2.5611588E1,9.171732E3,2.7015164E2,8.9880085E0,1.3233058E3,4.062482E1,6.7050354E2,9.268799E1,1.4998605E3,1.9963313E2,1.9034542E3,2.7448117E2,5.5505814E1],"tree_param":{"num_deleted":"0","num_feature":"57","num_nodes":"43","size_leaf_vector":"1"}},{"base_weights":[2.1029425E-1,7.8238326E-1,-1.8451223E0,2.0354517E-1,1.0444602E0,-4.683004E-2,8.7203336E-1,-3.7637765E0,9.385826E-1,1.0743192E0,3.038626E-1,9.229632E-1,4.2160172E-2,1.1085108E-2,-4.668255E-2,3.5261473E-1,1.0339303E0,7.604444E-1,1.1314354E0,4.8645946E-1,-7.451277E-1,5.2227116E-1,9.945705E-1,-1.2347643E0,5.3525966E-1,-6.243069E-3,5.740929E-3,9.744599E-3,1.32699255E-2,9.742229E-3,1.868799E-3,1.4296724E-2,1.2509449E-2,7.1772916E-4,7.3697483E-3,-2.294329E-2,3.4286783E-3,-7.27396E-3,7.162308E-3,1.05547225E-2,1.3034575E-2,-1.6270659E-3,-2.9270483E-2,8.695601E-3,-3.7947414E-3],"categories":[],"categories_nodes":[],"categories_segments":[],"categories_sizes":[],"default_left":[0,0,0,0,0,0,0,0,0,0,0,0,0,0,0,0,0,0,0,0,0,0,0,0,0,0,0,0,0,0,0,0,0,0,0,0,0,0,0,0,0,0,0,0,0],"id":4,"left_children":[1,3,5,7,9,-1,11,13,15,17,19,21,23,-1,-1,25,27,29,31,33,35,37,39,41,43,-1,-1,-1,-1,-1,-1,-1,-1,-1,-1,-1,-1,-1,-1,-1,-1,-1,-1,-1,-1],"loss_changes":[7.5738016E4,7.6383145E3,7.844392E4,4.5878367E4,7.6015625E2,0E0,2.5341016E2,1.5065586E3,7.344121E2,5.833242E2,2.64948E2,1.5426807E2,2.3623355E2,0E0,0E0,2.0918338E2,1.673457E2,1.5734912E2,1.3089062E2,6.1949432E1,2.566605E2,7.95387E1,3.5385254E1,1.287365E2,4.753602E1,0E0,0E0,0E0,0E0,0E0,0E0,0E0,0E0,0E0,0E0,0E0,0E0,0E0,0E0,0E0,0E0,0E0,0E0,0E0,0E0],"parents":[2147483647,0,0,1,1,2,2,3,3,4,4,6,6,7,7,8,8,9,9,10,10,11,11,12,12,15,15,16,16,17,17,18,18,19,19,20,20,21,21,22,22,23,23,24,24],"right_children":[2,4,6,8,10,-1,12,14,16,18,20,22,24,-1,-1,26,28,30,32,34,36,38,40,42,44,-1,-1,-1,-1,-1,-1,-1,-1,-1,-1,-1,-1,-1,-1,-1,-1,-1,-1,-1,-1],"split_conditions":[7E0,1.5401539E-2,1E0,1E0,2.0328174E2,-4.683004E-2,7.7439266E-1,1E0,1.5747489E-4,1.6958584E-4,7.489557E-1,1.4050597E-4,1.0519857E-4,1.1085108E-2,-4.668255E-2,-6.381009E1,-1.7431374E1,7.7439266E-1,-7.1325046E-1,9.285951E-5,1.11704794E-4,-7.577936E1,2.799345E-4,-1.383432E1,9.76296E-1,-6.243069E-3,5.740929E-3,9.744599E-3,1.32699255E-2,9.742229E-3,1.868799E-3,1.4296724E-2,1.2509449E-2,7.1772916E-4,7.3697483E-3,-2.294329E-2,3.4286783E-3,-7.27396E-3,7.162308E-3,1.05547225E-2,1.3034575E-2,-1.6270659E-3,-2.9270483E-2,8.695601E-3,-3.7947414E-3],"split_indices":[22,21,11,11,3,0,47,22,32,32,47,32,32,0,0,4,4,47,47,32,32,4,32,6,47,0,0,0,0,0,0,0,0,0,0,0,0,0,0,0,0,0,0,0,0],"split_type":[0,0,0,0,0,0,0,0,0,0,0,0,0,0,0,0,0,0,0,0,0,0,0,0,0,0,0,0,0,0,0,0,0,0,0,0,0,0,0,0,0,0,0,0,0],"sum_hessian":[6.4384656E4,5.0372703E4,1.401195E4,1.5708021E4,3.4664684E4,7.9715435E3,6.0404067E3,2.4472053E3,1.3260815E4,3.3313457E4,1.3512269E3,5.6875986E3,3.5280777E2,6.187131E1,2.385334E3,1.8666293E3,1.1394187E4,5.160623E3,2.8152834E4,1.1579971E3,1.9322987E2,8.816444E2,4.8059546E3,9.2128334E1,2.6067944E2,2.2838556E2,1.6382438E3,2.8314448E3,8.562741E3,4.749443E3,4.111803E2,1.6717152E4,1.1435683E4,2.744014E2,8.8359564E2,8.673669E1,1.0649319E2,4.7697403E1,8.33947E2,2.197348E3,2.6086064E3,5.601782E1,3.6110516E1,2.1663559E2,4.4043854E1],"tree_param":{"num_deleted":"0","num_feature":"57","num_nodes":"45","size_leaf_vector":"1"}},{"base_weights":[2.0880927E-1,7.784146E-1,-1.8024393E0,1.0448699E0,1.7132024E-1,-4.5237064E-2,8.669503E-1,1.0708058E0,2.3213792E-1,-5.41589E-1,8.632665E-1,9.000203E-1,-6.9451106E-1,7.609981E-1,1.1308752E0,-7.688221E-1,4.4623467E-1,-1.4302039E0,-1.6289859E-1,3.4334162E-1,1.0002857E0,5.0814813E-1,1.0065825E0,-2.4942322E-2,-1.8638642E-1,3.1864336E-5,9.622486E-3,1.4258276E-2,1.2544646E-2,6.016323E-3,-1.3979505E-2,6.336457E-3,-1.3130854E-3,-1.9888343E-2,-3.1590716E-3,2.342094E-3,-8.46037E-3,-1.93383E-2,4.6759425E-3,6.5175453E-3,1.2434537E-2,-8.726734E-3,7.1268426E-3,7.4097705E-3,1.2473185E-2,2.0940586E-3,-1.8153101E-2],"categories":[],"categories_nodes":[],"categories_segments":[],"categories_sizes":[],"default_left":[0,0,0,0,0,0,0,0,0,0,0,0,0,0,0,0,0,0,0,0,0,0,0,0,0,0,0,0,0,0,0,0,0,0,0,0,0,0,0,0,0,0,0,0,0,0,0],"id":5,"left_children":[1,3,5,7,9,-1,11,13,15,17,19,21,23,25,27,29,31,33,35,37,39,41,43,-1,45,-1,-1,-1,-1,-1,-1,-1,-1,-1,-1,-1,-1,-1,-1,-1,-1,-1,-1,-1,-1,-1,-1],"loss_changes":[7.3475125E4,8.08033E3,7.438066E4,7.264844E2,7.534819E3,0E0,3.1852148E2,6.12125E2,2.3743335E2,2.5255762E3,5.4535693E2,2.3708105E2,8.2435394E1,1.6907202E2,1.18578125E2,1.06517876E2,4.2831146E1,5.8599414E2,1.0296042E3,1.5340413E2,9.0680664E1,1.414701E2,4.8035645E1,0E0,5.8272377E1,0E0,0E0,0E0,0E0,0E0,0E0,0E0,0E0,0E0,0E0,0E0,0E0,0E0,0E0,0E0,0E0,0E0,0E0,0E0,0E0,0E0,0E0],"parents":[2147483647,0,0,1,1,2,2,3,3,4,4,6,6,7,7,8,8,9,9,10,10,11,11,12,12,13,13,14,14,15,15,16,16,17,17,18,18,19,19,20,20,21,21,22,22,24,24],"right_children":[2,4,6,8,10,-1,12,14,16,18,20,22,24,26,28,30,32,34,36,38,40,42,44,-1,46,-1,-1,-1,-1,-1,-1,-1,-1,-1,-1,-1,-1,-1,-1,-1,-1,-1,-1,-1,-1,-1,-1],"split_conditions":[7E0,1E0,1E0,2.1773685E2,1.6E1,-4.5237064E-2,1.24E2,1.7209598E-4,8.2338236E-5,2.628368E-4,1.6836978E-4,1.588819E-4,8.2338236E-5,8.4651445E-5,4E0,2.8E-1,8.672222E1,-4.347826E-1,3E0,-2.4950495E0,1.2797784E0,-9.7222224E-2,1.0410256E0,-2.4942322E-2,7.116953E1,3.1864336E-5,9.622486E-3,1.4258276E-2,1.2544646E-2,6.016323E-3,-1.3979505E-2,6.336457E-3,-1.3130854E-3,-1.9888343E-2,-3.1590716E-3,2.342094E-3,-8.46037E-3,-1.93383E-2,4.6759425E-3,6.5175453E-3,1.2434537E-2,-8.726734E-3,7.1268426E-3,7.4097705E-3,1.2473185E-2,2.0940586E-3,-1.8153101E-2],"split_indices":[22,22,11,3,15,0,15,32,32,32,32,32,32,32,17,7,2,4,22,5,5,5,5,0,5,0,0,0,0,0,0,0,0,0,0,0,0,0,0,0,0,0,0,0,0,0,0],"split_type":[0,0,0,0,0,0,0,0,0,0,0,0,0,0,0,0,0,0,0,0,0,0,0,0,0,0,0,0,0,0,0,0,0,0,0,0,0,0,0,0,0,0,0,0,0,0,0],"sum_hessian":[6.4110895E4,4.9967855E4,1.4143036E4,3.4718062E4,1.5249793E4,8.139846E3,6.0031904E3,3.363833E4,1.0797366E3,7.5109805E3,7.738813E3,5.8849185E3,1.1827206E2,5.495039E3,2.8143287E4,1.831284E2,8.966081E2,2.232862E3,5.278118E3,1.6259078E3,6.1129053E3,1.2769711E3,4.6079473E3,2.0744825E1,9.752723E1,2.841982E2,5.210841E3,1.674119E4,1.1402099E4,4.1577393E1,1.4155101E2,7.852067E2,1.11401375E2,1.8633799E3,3.6948224E2,3.1810537E3,2.0970645E3,2.7248837E1,1.598659E3,4.6353012E2,5.649375E3,7.554854E1,1.2014225E3,3.8197046E2,4.2259766E3,8.3673836E1,1.3853394E1],"tree_param":{"num_deleted":"0","num_feature":"57","num_nodes":"47","size_leaf_vector":"1"}},{"base_weights":[1.9903675E-1,-1.013858E0,1.0026122E0,9.140809E-1,-2.1390738E0,4.3617263E-1,1.0736706E0,3.8822445E-1,1.0349107E0,1.0413412E0,-4.404607E-2,6.2857884E-1,-1.0018835E-1,9.483283E-1,1.1481181E0,5.4920703E-1,-5.068E-1,1.3957841E-2,9.174973E-1,1.1243364E0,8.2324916E-1,2.2403376E-1,7.279487E-1,-2.135783E0,8.608024E-3,8.279071E-1,1.0586609E0,1.1527073E0,2.1858053E-1,4.73275E-3,1.112547E-2,-0E0,-1.6879553E-2,1.1116753E-2,4.023114E-3,7.8146E-3,1.3678785E-2,1.17959105E-4,1.0608903E-2,5.4158987E-3,-7.5675882E-3,-1.1774059E-2,9.0098E-3,-6.4754863E-3,-3.4878638E-2,-5.6923917E-3,2.3566035E-3,5.3838333E-3,1.0554561E-2,1.3881793E-2,1.0902442E-2,1.4402836E-2,1.3182372E-2,8.359549E-3,-8.747854E-3],"categories":[],"categories_nodes":[],"categories_segments":[],"categories_sizes":[],"default_left":[0,0,0,0,0,0,0,0,0,0,0,0,0,0,0,0,0,0,0,0,0,0,0,0,0,0,0,0,0,0,0,0,0,0,0,0,0,0,0,0,0,0,0,0,0,0,0,0,0,0,0,0,0,0,0],"id":6,"left_children":[1,3,5,7,9,11,13,15,17,19,-1,21,23,25,27,29,31,-1,33,35,37,39,41,43,45,47,49,51,53,-1,-1,-1,-1,-1,-1,-1,-1,-1,-1,-1,-1,-1,-1,-1,-1,-1,-1,-1,-1,-1,-1,-1,-1,-1,-1],"loss_changes":[6.2014195E4,5.5031312E4,1.5317734E3,5.865762E2,7.80552E4,4.4445227E2,2.9994922E2,2.5841528E2,9.7387695E1,7.937793E1,0E0,1.2321631E2,2.5694934E2,1.5505762E2,8.492383E1,8.117255E1,1.2746859E2,0E0,1.4628906E1,1.5027832E1,7.176703E1,1.282894E2,1.0720288E2,4.665088E1,9.9704834E1,1.13211426E2,8.0509766E1,3.4041016E1,6.1018253E1,0E0,0E0,0E0,0E0,0E0,0E0,0E0,0E0,0E0,0E0,0E0,0E0,0E0,0E0,0E0,0E0,0E0,0E0,0E0,0E0,0E0,0E0,0E0,0E0,0E0,0E0],"parents":[2147483647,0,0,1,1,2,2,3,3,4,4,5,5,6,6,7,7,8,8,9,9,11,11,12,12,13,13,14,14,15,15,16,16,18,18,19,19,20,20,21,21,22,22,23,23,24,24,25,25,26,26,27,27,28,28],"right_children":[2,4,6,8,10,12,14,16,18,20,-1,22,24,26,28,30,32,-1,34,36,38,40,42,44,46,48,50,52,54,-1,-1,-1,-1,-1,-1,-1,-1,-1,-1,-1,-1,-1,-1,-1,-1,-1,-1,-1,-1,-1,-1,-1,-1,-1,-1],"split_conditions":[1E0,1E0,1.4050597E-4,1.5747489E-4,1E0,5.6280494E-1,2.799345E-4,7.489557E-1,-7.2837096E-1,-5.409745E-1,-4.404607E-2,-9.76296E-1,-1.19504E2,2.886598E-2,9.9405634E-1,-7.0090926E-1,-1.05E1,1.3957841E-2,1.92E2,1.7339997E-4,1.11704794E-4,1E0,-5.6930947E0,-1.383432E1,8.2338236E-5,1.3873874E0,1E0,1E0,1.2057804E1,4.73275E-3,1.112547E-2,-0E0,-1.6879553E-2,1.1116753E-2,4.023114E-3,7.8146E-3,1.3678785E-2,1.17959105E-4,1.0608903E-2,5.4158987E-3,-7.5675882E-3,-1.1774059E-2,9.0098E-3,-6.4754863E-3,-3.4878638E-2,-5.6923917E-3,2.3566035E-3,5.3838333E-3,1.0554561E-2,1.3881793E-2,1.0902442E-2,1.4402836E-2,1.3182372E-2,8.359549E-3,-8.747854E-3],"split_indices":[11,16,32,32,22,47,32,47,47,47,0,48,4,21,47,48,6,0,15,32,32,51,5,6,32,5,19,22,5,0,0,0,0,0,0,0,0,0,0,0,0,0,0,0,0,0,0,0,0,0,0,0,0,0,0],"split_type":[0,0,0,0,0,0,0,0,0,0,0,0,0,0,0,0,0,0,0,0,0,0,0,0,0,0,0,0,0,0,0,0,0,0,0,0,0,0,0,0,0,0,0,0,0,0,0,0,0,0,0,0,0,0,0],"sum_hessian":[6.36025E4,2.5343734E4,3.8258766E4,9.340407E3,1.6003327E4,4.277178E3,3.3981586E4,1.7577426E3,7.5826646E3,5.202182E3,1.08011455E4,3.1491604E3,1.1280177E3,1.2733978E4,2.124761E4,1.4956078E3,2.6213474E2,3.5649749E3,4.01769E3,3.7254304E3,1.4767516E3,6.3267126E2,2.5164893E3,4.682E1,1.0811976E3,6.1460776E3,6.5879E3,2.1138217E4,1.0939283E2,1.0821328E3,4.1347495E2,1.7412544E2,8.80093E1,3.9468384E3,7.085145E1,1.3910474E2,3.5863257E3,1.060033E2,1.3707482E3,5.0608545E2,1.2658585E2,2.543158E1,2.4910576E3,2.2735018E1,2.4084982E1,2.945711E2,7.866265E2,7.551397E2,5.390938E3,3.9267124E3,2.6611875E3,1.1104996E4,1.0033221E4,7.622557E1,3.316726E1],"tree_param":{"num_deleted":"0","num_feature":"57","num_nodes":"55","size_leaf_vector":"1"}},{"base_weights":[2.0933993E-1,8.279926E-1,-1.5573688E0,6.217481E-1,9.659982E-1,-2.548692E0,8.162522E-1,1.1009265E0,-3.4416738E-1,1.0009739E0,9.152511E-2,-1.5846853E0,-2.9218414E0,8.6226946E-1,-3.6634254E-1,1.1636564E0,9.4678545E-1,-3.8611997E-2,-9.4396424E-1,1.3852496E-2,8.908076E-1,3.8415828E-1,-1.515835E0,-1.1652721E0,-2.1397595E0,-2.3778522E0,-3.0885603E0,8.978109E-1,1.2666407E-1,-1.627985E-2,-2.4398211E-2,1.3985679E-2,3.4407823E-4,8.758267E-3,1.2846887E-2,-1.2868943E-2,5.4656516E-4,-7.7284784E-3,-1.8203054E-2,9.412029E-3,1.2201966E-2,4.698165E-5,8.019292E-3,-2.440785E-2,3.3152655E-3,-1.8399611E-2,-9.683095E-3,-1.5672904E-2,-2.770958E-2,-3.1198291E-2,-2.1205472E-2,-3.8643695E-2,-3.1562347E-2,1.2740839E-2,9.623087E-3,-1.6282104E-2,4.089052E-3,4.3215794E-3,-9.313728E-3],"categories":[],"categories_nodes":[],"categories_segments":[],"categories_sizes":[],"default_left":[0,0,0,0,0,0,0,0,0,0,0,0,0,0,0,0,0,0,0,0,0,0,0,0,0,0,0,0,0,0,0,0,0,0,0,0,0,0,0,0,0,0,0,0,0,0,0,0,0,0,0,0,0,0,0,0,0,0,0],"id":7,"left_children":[1,3,5,7,9,11,13,15,17,19,21,23,25,27,29,31,33,35,37,-1,39,41,43,45,47,49,51,53,55,57,-1,-1,-1,-1,-1,-1,-1,-1,-1,-1,-1,-1,-1,-1,-1,-1,-1,-1,-1,-1,-1,-1,-1,-1,-1,-1,-1,-1,-1],"loss_changes":[7.007864E4,1.3412383E3,3.9156938E4,8.835555E3,8.6603516E2,4.156203E3,2.7184546E2,1.058916E2,1.1583164E3,4.453711E2,5.2612274E2,7.322178E2,6.667031E2,1.2021997E2,1.0671952E2,1.5777344E1,8.807349E1,3.6897467E2,3.5080225E2,0E0,2.0103711E2,1.01081955E2,1.7006937E2,2.3227563E2,1.5494238E2,2.1213672E2,2.7434375E2,5.688745E1,7.79984E1,5.29838E1,0E0,0E0,0E0,0E0,0E0,0E0,0E0,0E0,0E0,0E0,0E0,0E0,0E0,0E0,0E0,0E0,0E0,0E0,0E0,0E0,0E0,0E0,0E0,0E0,0E0,0E0,0E0,0E0,0E0],"parents":[2147483647,0,0,1,1,2,2,3,3,4,4,5,5,6,6,7,7,8,8,9,9,10,10,11,11,12,12,13,13,14,14,15,15,16,16,17,17,18,18,20,20,21,21,22,22,23,23,24,24,25,25,26,26,27,27,28,28,29,29],"right_children":[2,4,6,8,10,12,14,16,18,20,22,24,26,28,30,32,34,36,38,-1,40,42,44,46,48,50,52,54,56,58,-1,-1,-1,-1,-1,-1,-1,-1,-1,-1,-1,-1,-1,-1,-1,-1,-1,-1,-1,-1,-1,-1,-1,-1,-1,-1,-1,-1,-1],"split_conditions":[5E0,1.6E1,1.6E1,1E0,2.2254399E2,1.2E1,1.2E2,4E0,4E0,4E0,-6.1909395E-1,4E0,2.1E1,2.2798964E2,9.446957E1,2.1278261E2,1E0,-5.8675605E-1,3E0,1.3852496E-2,1E0,6.12093E0,1.675281E1,-6.3572855E0,3.602941E-1,9.784946E-1,-4.422887E-1,4E0,-8.1871346E1,4.25E-1,-2.4398211E-2,1.3985679E-2,3.4407823E-4,8.758267E-3,1.2846887E-2,-1.2868943E-2,5.4656516E-4,-7.7284784E-3,-1.8203054E-2,9.412029E-3,1.2201966E-2,4.698165E-5,8.019292E-3,-2.440785E-2,3.3152655E-3,-1.8399611E-2,-9.683095E-3,-1.5672904E-2,-2.770958E-2,-3.1198291E-2,-2.1205472E-2,-3.8643695E-2,-3.1562347E-2,1.2740839E-2,9.623087E-3,-1.6282104E-2,4.089052E-3,4.3215794E-3,-9.313728E-3],"split_indices":[22,15,15,22,3,22,15,17,17,17,48,17,22,3,5,3,20,9,22,0,20,43,4,4,3,35,48,17,4,31,0,0,0,0,0,0,0,0,0,0,0,0,0,0,0,0,0,0,0,0,0,0,0,0,0,0,0,0,0],"split_type":[0,0,0,0,0,0,0,0,0,0,0,0,0,0,0,0,0,0,0,0,0,0,0,0,0,0,0,0,0,0,0,0,0,0,0,0,0,0,0,0,0,0,0,0,0,0,0,0,0,0,0,0,0,0,0,0,0,0,0],"sum_hessian":[6.4092273E4,4.7475254E4,1.6617018E4,1.9064533E4,2.8410723E4,1.1721561E4,4.895456E3,1.2743191E4,6.3213423E3,2.7314229E4,1.0964926E3,3.2901077E3,8.431453E3,4.7168545E3,1.7860124E2,8.9921455E3,3.7510454E3,4.198567E3,2.1227751E3,1.13617295E4,1.59525E4,9.363911E2,1.6010144E2,1.8973031E3,1.3928044E3,2.023639E3,6.407814E3,4.4943413E3,2.2251321E2,1.5860814E2,1.9993103E1,8.975693E3,1.64527E1,1.39875E3,2.3522954E3,3.072461E2,3.8913208E3,1.4124059E3,7.103692E2,8.702577E3,7.2499233E3,4.0866467E2,5.2772644E2,1.23802704E2,3.6298737E1,9.138436E2,9.834595E2,2.548288E2,1.1379756E3,1.4530757E3,5.705635E2,4.917661E3,1.4901531E3,1.606383E3,2.8879585E3,1.8805937E1,2.0370728E2,1.08527756E2,5.0080395E1],"tree_param":{"num_deleted":"0","num_feature":"57","num_nodes":"59","size_leaf_vector":"1"}},{"base_weights":[1.9869961E-1,-9.702794E-1,9.9554986E-1,9.523128E-1,-4.1824423E-2,4.3515772E-1,1.0667157E0,4.6481484E-1,1.054335E0,6.3152033E-1,-1.0458386E-1,9.981493E-1,1.2061372E0,-5.795977E-1,5.8301055E-1,1.3745857E-2,9.220002E-1,-1.023342E0,6.5574557E-1,-1.8196534E0,2.5013627E-2,4.5837295E-1,1.0273956E0,1.2071013E0,-0E0,-2.0247247E-2,-3.2366295E-3,7.2199726E-3,-8.978633E-3,1.1104711E-2,1.0905194E-3,-2.6249724E-2,7.255071E-3,6.238439E-3,1.2246277E-2,-3.5220433E-3,-3.1146633E-2,-1.7473554E-3,6.5519717E-3,6.189517E-3,-5.5770767E-3,1.0164812E-2,1.2887943E-2,1.4500703E-2,1.2302328E-3],"categories":[],"categories_nodes":[],"categories_segments":[],"categories_sizes":[],"default_left":[0,0,0,0,0,0,0,0,0,0,0,0,0,0,0,0,0,0,0,0,0,0,0,0,0,0,0,0,0,0,0,0,0,0,0,0,0,0,0,0,0,0,0,0,0],"id":8,"left_children":[1,3,5,7,-1,9,11,13,15,17,19,21,23,25,27,-1,29,31,33,35,37,39,41,43,-1,-1,-1,-1,-1,-1,-1,-1,-1,-1,-1,-1,-1,-1,-1,-1,-1,-1,-1,-1,-1],"loss_changes":[5.9316566E4,1.24859086E5,1.501543E3,7.1911914E2,0E0,4.5655127E2,3.0223047E2,3.1985083E2,1.2905469E2,1.3360815E2,2.6019974E2,3.4806055E2,1.3455078E1,8.136777E1,6.2367065E1,0E0,1.1062988E1,1.1179442E2,1.4486047E2,8.239786E1,9.792571E1,6.586862E1,1.6523438E2,1.1568359E1,0E0,0E0,0E0,0E0,0E0,0E0,0E0,0E0,0E0,0E0,0E0,0E0,0E0,0E0,0E0,0E0,0E0,0E0,0E0,0E0,0E0],"parents":[2147483647,0,0,1,1,2,2,3,3,5,5,6,6,7,7,8,8,9,9,10,10,11,11,12,12,13,13,14,14,16,16,17,17,18,18,19,19,20,20,21,21,22,22,23,23],"right_children":[2,4,6,8,-1,10,12,14,16,18,20,22,24,26,28,-1,30,32,34,36,38,40,42,44,-1,-1,-1,-1,-1,-1,-1,-1,-1,-1,-1,-1,-1,-1,-1,-1,-1,-1,-1,-1,-1],"split_conditions":[1E0,1E0,1.4050597E-4,1.6421701E-4,-4.1824423E-2,5.6280494E-1,1E0,8.4651445E-5,-7.2837096E-1,-5.6930947E0,-1.0738637E2,9.348915E-1,1.3448029E1,9.9408287E-1,3.3166373E2,1.3745857E-2,6.452631E1,1E0,1E0,-1.383432E1,1E0,-1.671954E1,-1.7983263E1,7.476349E1,-0E0,-2.0247247E-2,-3.2366295E-3,7.2199726E-3,-8.978633E-3,1.1104711E-2,1.0905194E-3,-2.6249724E-2,7.255071E-3,6.238439E-3,1.2246277E-2,-3.5220433E-3,-3.1146633E-2,-1.7473554E-3,6.5519717E-3,6.189517E-3,-5.5770767E-3,1.0164812E-2,1.2887943E-2,1.4500703E-2,1.2302328E-3],"split_indices":[11,22,32,32,0,47,20,32,47,5,4,5,0,34,3,0,2,20,20,6,20,4,4,2,0,0,0,0,0,0,0,0,0,0,0,0,0,0,0,0,0,0,0,0,0],"split_type":[0,0,0,0,0,0,0,0,0,0,0,0,0,0,0,0,0,0,0,0,0,0,0,0,0,0,0,0,0,0,0,0,0,0,0,0,0,0,0,0,0,0,0,0,0],"sum_hessian":[6.3653965E4,2.5800104E4,3.7853863E4,1.4626178E4,1.1173926E4,4.278273E3,3.357559E4,2.5461338E3,1.2080044E4,3.1382249E3,1.1400481E3,2.2582129E4,1.0993461E4,2.5236815E2,2.2937656E3,7.0896562E3,4.990387E3,3.69456E1,3.1012793E3,7.018432E1,1.0698638E3,1.1744639E3,2.1407664E4,1.0985121E4,8.339498E0,4.2097088E1,2.1027106E2,2.2700356E3,2.3729975E1,4.9663486E3,2.403881E1,1.9852806E1,1.7092793E1,2.2848005E3,8.1647876E2,3.0098751E1,4.0085567E1,8.095399E2,2.6032388E2,1.1127129E3,6.1750927E1,4.452132E3,1.6955533E4,1.0969367E4,1.57541895E1],"tree_param":{"num_deleted":"0","num_feature":"57","num_nodes":"45","size_leaf_vector":"1"}},{"base_weights":[1.915088E-1,7.5415945E-1,-1.6642026E0,1.0230579E0,1.5808299E-1,-4.0199265E-2,8.4944165E-1,1.1585957E0,8.8290995E-1,-5.2568364E-1,8.3814424E-1,9.30492E-1,2.697292E-1,-4.675201E-3,1.1599993E0,2.1246892E-1,9.524736E-1,-4.1778475E-2,1.0142425E0,3.3817354E-1,9.749158E-1,7.647366E-1,1.0668808E0,-1.2086952E0,6.067513E-1,1.1340502E-2,1.404659E-2,5.174787E-3,-9.1556525E-3,8.894295E-3,1.2332714E-2,1.0685992E-3,1.2662991E-2,5.932005E-3,-7.4974573E-3,5.7982206E-3,1.215836E-2,5.461791E-3,1.050828E-2,4.289837E-3,1.31180165E-2,-3.980099E-3,-2.6607241E-2,9.609858E-4,9.91743E-3],"categories":[],"categories_nodes":[],"categories_segments":[],"categories_sizes":[],"default_left":[0,0,0,0,0,0,0,0,0,0,0,0,0,0,0,0,0,0,0,0,0,0,0,0,0,0,0,0,0,0,0,0,0,0,0,0,0,0,0,0,0,0,0,0,0],"id":9,"left_children":[1,3,5,7,9,-1,11,13,15,17,19,21,23,-1,25,27,29,-1,31,33,35,37,39,41,43,-1,-1,-1,-1,-1,-1,-1,-1,-1,-1,-1,-1,-1,-1,-1,-1,-1,-1,-1,-1],"loss_changes":[6.5957914E4,7.765162E3,6.2316105E4,6.180781E2,7.0207417E3,0E0,2.7222363E2,4.3759766E1,7.6375684E2,3.431413E4,5.1102393E2,1.0356494E2,3.786637E2,0E0,2.0873047E1,3.3770392E2,2.2458984E2,0E0,1.8470215E2,2.5117595E2,1.0283252E2,7.449817E1,4.467285E1,1.10939285E2,6.861937E1,0E0,0E0,0E0,0E0,0E0,0E0,0E0,0E0,0E0,0E0,0E0,0E0,0E0,0E0,0E0,0E0,0E0,0E0,0E0,0E0],"parents":[2147483647,0,0,1,1,2,2,3,3,4,4,6,6,7,7,8,8,9,9,10,10,11,11,12,12,14,14,15,15,16,16,18,18,19,19,20,20,21,21,22,22,23,23,24,24],"right_children":[2,4,6,8,10,-1,12,14,16,18,20,22,24,-1,26,28,30,-1,32,34,36,38,40,42,44,-1,-1,-1,-1,-1,-1,-1,-1,-1,-1,-1,-1,-1,-1,-1,-1,-1,-1,-1,-1],"split_conditions":[7E0,1E0,1E0,-7.1325046E-1,1.6E1,-4.0199265E-2,5.7357645E-1,7.351979E-5,1.11704794E-4,1E0,1.6836978E-4,-7.906896E-1,1.0359503E-4,-4.675201E-3,1.6421701E-4,-6.39439E-1,1.7722668E-4,-4.1778475E-2,1.3116118E-4,7.8E1,1.2797784E0,1.6015038E-4,9.348915E-1,-1.2133334E1,1.6421701E-4,1.1340502E-2,1.404659E-2,5.174787E-3,-9.1556525E-3,8.894295E-3,1.2332714E-2,1.0685992E-3,1.2662991E-2,5.932005E-3,-7.4974573E-3,5.7982206E-3,1.215836E-2,5.461791E-3,1.050828E-2,4.289837E-3,1.31180165E-2,-3.980099E-3,-2.6607241E-2,9.609858E-4,9.91743E-3],"split_indices":[22,22,11,47,15,0,47,32,32,11,32,48,32,0,32,48,32,0,32,15,5,32,5,6,32,0,0,0,0,0,0,0,0,0,0,0,0,0,0,0,0,0,0,0,0],"split_type":[0,0,0,0,0,0,0,0,0,0,0,0,0,0,0,0,0,0,0,0,0,0,0,0,0,0,0,0,0,0,0,0,0,0,0,0,0,0,0,0,0,0,0,0,0],"sum_hessian":[6.31463E4,4.8461117E4,1.4685183E4,3.3387566E4,1.5073552E4,8.7882705E3,5.896912E3,1.6921355E4,1.646621E4,7.5161914E3,7.5573604E3,5.164189E3,7.327232E2,1.1029871E1,1.6910326E4,1.5551702E3,1.4911041E4,2.56976E3,4.9464316E3,1.6354048E3,5.921956E3,2.3735393E3,2.7906497E3,1.2916045E2,6.0356274E2,8.5083435E2,1.6059491E4,1.2774255E3,2.7774472E2,3.9572556E3,1.0953786E4,2.1361789E2,4.7328135E3,1.4140155E3,2.2138928E2,4.4330203E2,5.478654E3,6.471325E2,1.7264069E3,1.08693085E2,2.6819565E3,7.867594E1,5.0484497E1,1.8516388E2,4.183989E2],"tree_param":{"num_deleted":"0","num_feature":"57","num_nodes":"45","size_leaf_vector":"1"}},{"base_weights":[1.9760107E-1,-9.3614453E-1,9.8646146E-1,-3.2712896E0,9.448938E-1,4.1446602E-1,1.0586959E0,-3.9389387E-2,8.610501E-3,4.6520627E-1,1.0483686E0,5.3596604E-1,-2.972711E-1,9.90553E-1,1.1984491E0,-1.521809E-1,5.1801026E-1,1.36514455E-2,9.1839564E-1,3.7929702E-1,9.481794E-1,1.728786E-1,-6.623063E-1,4.6737498E-1,1.020348E0,1.4392055E-2,-0E0,-1.7938476E-2,2.2920945E-3,-3.7714127E-3,7.539748E-3,-7.4131734E-5,1.1073043E-2,-1.5235732E-2,5.3867274E-3,1.1598814E-2,-3.3641586E-3,4.2903083E-3,-1.4276056E-2,-1.8207828E-2,-2.5352978E-3,8.019564E-3,2.6209257E-3,1.05253365E-2,1.3220275E-2],"categories":[],"categories_nodes":[],"categories_segments":[],"categories_sizes":[],"default_left":[0,0,0,0,0,0,0,0,0,0,0,0,0,0,0,0,0,0,0,0,0,0,0,0,0,0,0,0,0,0,0,0,0,0,0,0,0,0,0,0,0,0,0,0,0],"id":10,"left_children":[1,3,5,7,9,11,13,-1,-1,15,17,19,21,23,25,27,29,-1,31,33,35,37,39,41,43,-1,-1,-1,-1,-1,-1,-1,-1,-1,-1,-1,-1,-1,-1,-1,-1,-1,-1,-1,-1],"loss_changes":[5.655015E4,1.13998234E5,1.532332E3,5.4875E2,7.0476465E2,3.658871E2,2.9653516E2,0E0,0E0,8.5661194E1,1.2039258E2,2.2534021E2,1.08458046E2,3.393086E2,1.1280273E1,1.0246222E2,2.2138782E2,0E0,2.1567383E1,3.0702597E2,2.6743774E1,7.3216385E1,1.2879163E2,5.7936554E1,2.3038672E2,0E0,0E0,0E0,0E0,0E0,0E0,0E0,0E0,0E0,0E0,0E0,0E0,0E0,0E0,0E0,0E0,0E0,0E0,0E0,0E0],"parents":[2147483647,0,0,1,1,2,2,3,3,4,4,5,5,6,6,9,9,10,10,11,11,12,12,13,13,14,14,15,15,16,16,18,18,19,19,20,20,21,21,22,22,23,23,24,24],"right_children":[2,4,6,8,10,12,14,-1,-1,16,18,20,22,24,26,28,30,-1,32,34,36,38,40,42,44,-1,-1,-1,-1,-1,-1,-1,-1,-1,-1,-1,-1,-1,-1,-1,-1,-1,-1,-1,-1],"split_conditions":[1E0,1.5401539E-2,1.4050597E-4,1E0,1.6421701E-4,7.6E1,1E0,-3.9389387E-2,8.610501E-3,-7.270695E1,4E0,1E0,1.6186583E1,1.0410256E0,1.3448029E1,9.077739E-5,8.8826484E-5,1.36514455E-2,5.6321836E-1,-6.4285713E-1,5.8142857E1,6.0454544E1,3.0340176E1,-1.6800001E1,2.799345E-4,1.4392055E-2,-0E0,-1.7938476E-2,2.2920945E-3,-3.7714127E-3,7.539748E-3,-7.4131734E-5,1.1073043E-2,-1.5235732E-2,5.3867274E-3,1.1598814E-2,-3.3641586E-3,4.2903083E-3,-1.4276056E-2,-1.8207828E-2,-2.5352978E-3,8.019564E-3,2.6209257E-3,1.05253365E-2,1.3220275E-2],"split_indices":[11,21,32,20,32,15,20,0,0,43,17,20,1,5,0,32,32,0,34,5,38,5,9,0,32,0,0,0,0,0,0,0,0,0,0,0,0,0,0,0,0,0,0,0,0],"split_type":[0,0,0,0,0,0,0,0,0,0,0,0,0,0,0,0,0,0,0,0,0,0,0,0,0,0,0,0,0,0,0,0,0,0,0,0,0,0,0,0,0,0,0,0,0],"sum_hessian":[6.320474E4,2.5931443E4,3.7273293E4,1.1565758E4,1.4365685E4,4.1914507E3,3.3081844E4,1.153611E4,2.9647104E1,2.5641418E3,1.1801543E4,3.5851985E3,6.062524E2,2.2313338E4,1.0768505E4,1.9726378E2,2.366878E3,6.9325625E3,4.8689805E3,2.6180542E3,9.671443E2,2.6534167E2,3.4091074E2,1.2166783E3,2.109666E4,1.0760378E4,8.126911E0,3.314499E1,1.6411879E2,2.7225192E2,2.094626E3,2.0665186E1,4.8483154E3,9.648194E1,2.5215723E3,9.570066E2,1.0137672E1,2.4276259E2,2.2579071E1,1.06402245E2,2.345085E2,6.576719E2,5.590064E2,7.701279E3,1.3395381E4],"tree_param":{"num_deleted":"0","num_feature":"57","num_nodes":"45","size_leaf_vector":"1"}},{"base_weights":[1.9947457E-1,8.07022E-1,-1.436351E0,1.0183959E0,2.563851E-1,8.005238E-1,-2.3205369E0,1.1499143E0,8.781375E-1,-3.3761325E-1,8.31387E-1,8.452484E-1,-3.937881E-1,-1.6345662E0,-2.744018E0,1.3810932E-2,4.0342408E-1,6.97705E-1,9.972902E-1,-4.994679E-2,-8.8239014E-1,8.903213E-1,1.9482349E-1,-1.3177931E-1,8.699045E-1,-0E0,-1.6707773E0,-2.3433354E0,-1.3649219E0,-2.3495378E0,-2.8552191E0,-2.4592283E-3,8.351815E-3,-2.8164648E-3,8.924107E-3,1.2369726E-2,7.0754513E-3,3.487434E-3,-3.8803031E-3,-2.0499801E-2,-8.390813E-3,7.0215305E-3,1.1830603E-2,4.698525E-3,-7.685325E-3,3.4167338E-3,-1.0418919E-2,1.24766575E-2,9.300911E-3,2.8801467E-3,-1.3486598E-2,-3.010296E-2,1.7615934E-3,-1.8454453E-2,-3.0522568E-2,-1.2021213E-2,-2.0691914E-2,-2.9528566E-2,-4.594952E-3,-2.9422702E-2,-3.508355E-2],"categories":[],"categories_nodes":[],"categories_segments":[],"categories_sizes":[],"default_left":[0,0,0,0,0,0,0,0,0,0,0,0,0,0,0,0,0,0,0,0,0,0,0,0,0,0,0,0,0,0,0,0,0,0,0,0,0,0,0,0,0,0,0,0,0,0,0,0,0,0,0,0,0,0,0,0,0,0,0,0,0],"id":11,"left_children":[1,3,5,7,9,11,13,15,17,19,21,23,25,27,29,-1,31,33,35,37,39,41,43,45,47,49,51,53,55,57,59,-1,-1,-1,-1,-1,-1,-1,-1,-1,-1,-1,-1,-1,-1,-1,-1,-1,-1,-1,-1,-1,-1,-1,-1,-1,-1,-1,-1,-1,-1],"loss_changes":[6.2680465E4,5.346865E3,3.3806797E4,5.9670703E2,4.367742E3,2.6380273E2,3.494586E3,4.044922E0,3.3517285E2,9.8343884E2,2.394707E2,1.1553174E2,9.1741806E1,8.534971E2,2.4035547E2,0E0,1.0516699E1,2.801997E2,1.21796875E2,3.859359E2,3.0922375E2,1.6317188E2,9.596303E1,4.2034668E1,6.0228027E1,4.3614983E1,7.4544044E1,1.509961E2,4.2273633E2,3.6176855E2,6.412109E1,0E0,0E0,0E0,0E0,0E0,0E0,0E0,0E0,0E0,0E0,0E0,0E0,0E0,0E0,0E0,0E0,0E0,0E0,0E0,0E0,0E0,0E0,0E0,0E0,0E0,0E0,0E0,0E0,0E0,0E0],"parents":[2147483647,0,0,1,1,2,2,3,3,4,4,5,5,6,6,7,7,8,8,9,9,10,10,11,11,12,12,13,13,14,14,16,16,17,17,18,18,19,19,20,20,21,21,22,22,23,23,24,24,25,25,26,26,27,27,28,28,29,29,30,30],"right_children":[2,4,6,8,10,12,14,16,18,20,22,24,26,28,30,-1,32,34,36,38,40,42,44,46,48,50,52,54,56,58,60,-1,-1,-1,-1,-1,-1,-1,-1,-1,-1,-1,-1,-1,-1,-1,-1,-1,-1,-1,-1,-1,-1,-1,-1,-1,-1,-1,-1,-1,-1],"split_conditions":[5E0,1E0,1E0,4E0,1.6E1,1.2E2,1.7E1,6.452631E1,1E0,4E0,7.5E1,-8.202353E1,7.302106E1,-1.7938984E1,3E0,1.3810932E-2,-4.5009845E-1,-5.884884E1,-6.39439E-1,2E0,-4.35E1,-2.4459143E1,-2.3182796E1,6E0,4E0,-2.945185E1,1.9938744E0,-1.3951809E-3,9E0,-1.5964911E0,2.4E1,-2.4592283E-3,8.351815E-3,-2.8164648E-3,8.924107E-3,1.2369726E-2,7.0754513E-3,3.487434E-3,-3.8803031E-3,-2.0499801E-2,-8.390813E-3,7.0215305E-3,1.1830603E-2,4.698525E-3,-7.685325E-3,3.4167338E-3,-1.0418919E-2,1.24766575E-2,9.300911E-3,2.8801467E-3,-1.3486598E-2,-3.010296E-2,1.7615934E-3,-1.8454453E-2,-3.0522568E-2,-1.2021213E-2,-2.0691914E-2,-2.9528566E-2,-4.594952E-3,-2.9422702E-2,-3.508355E-2],"split_indices":[22,22,16,17,15,15,22,2,20,17,15,8,9,8,17,0,48,4,48,22,4,4,2,17,17,2,35,37,22,4,22,0,0,0,0,0,0,0,0,0,0,0,0,0,0,0,0,0,0,0,0,0,0,0,0,0,0,0,0,0,0],"split_type":[0,0,0,0,0,0,0,0,0,0,0,0,0,0,0,0,0,0,0,0,0,0,0,0,0,0,0,0,0,0,0,0,0,0,0,0,0,0,0,0,0,0,0,0,0,0,0,0,0,0,0,0,0,0,0,0,0,0,0,0,0],"sum_hessian":[6.3044145E4,4.5975934E4,1.706821E4,3.321269E4,1.2763241E4,4.835048E3,1.2233163E4,1.7088451E4,1.6124241E4,6.278644E3,6.484597E3,4.6655156E3,1.6953229E2,4.6934985E3,7.5396646E3,1.7056498E4,3.195396E1,6.452417E3,9.671824E3,4.119916E3,2.1587278E3,5.927859E3,5.5673834E2,1.1155995E2,4.5539556E3,1.3858334E2,3.0948942E1,1.2660199E3,3.4274785E3,1.7203461E3,5.8193184E3,9.323762E0,2.26302E1,2.9881702E2,6.1536E3,8.915507E3,7.5631744E2,1.8310543E3,2.2888618E3,3.717055E2,1.7870223E3,1.4388998E3,4.488959E3,4.57709E2,9.902936E1,7.422625E1,3.7333706E1,1.5813844E3,2.972571E3,1.2217272E2,1.6410631E1,1.8814651E1,1.2134291E1,2.7476974E2,9.912501E2,1.7302192E3,1.6972593E3,1.6244802E3,9.5865845E1,9.122546E2,4.907064E3],"tree_param":{"num_deleted":"0","num_feature":"57","num_nodes":"61","size_leaf_vector":"1"}},{"base_weights":[1.9676445E-1,7.996353E-1,-1.4112626E0,1.0118662E0,2.5302115E-1,7.877198E-1,-2.2627313E0,5.8054584E-1,1.0895102E0,8.3792824E-1,-3.5718867E-1,-3.5508165E-1,8.449231E-1,-2.6441941E0,-1.9360589E0,-2.3413773E-1,6.68161E-1,1.3880031E-2,9.988963E-1,4.3521208E-1,9.9779165E-1,-1.0777061E0,-2.0572549E-2,-1.8854333E-1,-2.1607103E-2,5.194399E-1,9.427653E-1,-2.2723413E0,-2.7879457E0,-1.0421478E0,-2.3346875E0,-8.6768874E-4,-2.07186E-2,9.77944E-3,5.9939735E-3,1.2827143E-2,1.071587E-2,-5.162151E-3,6.498089E-3,5.7464275E-3,1.239813E-2,-1.8795468E-2,-9.165707E-3,2.2242812E-3,-6.0436144E-3,7.9641055E-4,-1.3911196E-2,-9.152976E-3,7.0797573E-3,7.1974904E-3,1.1809231E-2,-3.3050023E-2,-2.443983E-2,-3.4367975E-2,-2.844296E-2,-2.0640748E-2,-9.466916E-3,-2.9702686E-2,-2.1114403E-2],"categories":[],"categories_nodes":[],"categories_segments":[],"categories_sizes":[],"default_left":[0,0,0,0,0,0,0,0,0,0,0,0,0,0,0,0,0,0,0,0,0,0,0,0,0,0,0,0,0,0,0,0,0,0,0,0,0,0,0,0,0,0,0,0,0,0,0,0,0,0,0,0,0,0,0,0,0,0,0],"id":12,"left_children":[1,3,5,7,9,11,13,15,17,19,21,23,25,27,29,31,33,-1,35,37,39,41,43,45,-1,47,49,51,53,55,57,-1,-1,-1,-1,-1,-1,-1,-1,-1,-1,-1,-1,-1,-1,-1,-1,-1,-1,-1,-1,-1,-1,-1,-1,-1,-1,-1,-1],"loss_changes":[6.118826E4,5.319869E3,3.2249547E4,1.09625E3,4.593577E3,3.191709E2,1.4759414E3,3.6485583E2,1.5221484E2,4.1490234E2,1.5253677E3,4.8804672E1,1.3731299E2,2.1798828E2,2.3633047E3,1.1548851E2,1.0602405E2,0E0,7.37666E1,1.7703928E2,7.7163574E1,2.8828613E2,4.3026367E2,5.9137867E1,0E0,1.038114E2,3.9487793E1,1.1105371E2,3.6615234E1,3.3917114E2,3.1474805E2,0E0,0E0,0E0,0E0,0E0,0E0,0E0,0E0,0E0,0E0,0E0,0E0,0E0,0E0,0E0,0E0,0E0,0E0,0E0,0E0,0E0,0E0,0E0,0E0,0E0,0E0,0E0,0E0],"parents":[2147483647,0,0,1,1,2,2,3,3,4,4,5,5,6,6,7,7,8,8,9,9,10,10,11,11,12,12,13,13,14,14,15,15,16,16,18,18,19,19,20,20,21,21,22,22,23,23,25,25,26,26,27,27,28,28,29,29,30,30],"right_children":[2,4,6,8,10,12,14,16,18,20,22,24,26,28,30,32,34,-1,36,38,40,42,44,46,-1,48,50,52,54,56,58,-1,-1,-1,-1,-1,-1,-1,-1,-1,-1,-1,-1,-1,-1,-1,-1,-1,-1,-1,-1,-1,-1,-1,-1,-1,-1,-1,-1],"split_conditions":[5E0,1E0,1E0,1.588819E-4,1E0,8.678301E-5,2.281249E-4,8.2338236E-5,4E0,1.90374E-4,2.7561194E-4,7.900055E-4,1.6296227E-4,1.7E1,1.1E1,1E0,1E0,1.3880031E-2,1E0,9.077739E-5,1.2797784E0,1.548139E-4,3E0,8.439326E1,-2.1607103E-2,-1.9310346E-1,1.50358E0,1.2437484E-4,1E0,-4.7287616E-1,1.2627451E0,-8.6768874E-4,-2.07186E-2,9.77944E-3,5.9939735E-3,1.2827143E-2,1.071587E-2,-5.162151E-3,6.498089E-3,5.7464275E-3,1.239813E-2,-1.8795468E-2,-9.165707E-3,2.2242812E-3,-6.0436144E-3,7.9641055E-4,-1.3911196E-2,-9.152976E-3,7.0797573E-3,7.1974904E-3,1.1809231E-2,-3.3050023E-2,-2.443983E-2,-3.4367975E-2,-2.844296E-2,-2.0640748E-2,-9.466916E-3,-2.9702686E-2,-2.1114403E-2],"split_indices":[22,22,16,32,16,32,32,32,17,32,32,37,32,22,22,13,19,0,19,32,5,32,22,10,0,5,5,32,33,7,35,0,0,0,0,0,0,0,0,0,0,0,0,0,0,0,0,0,0,0,0,0,0,0,0,0,0,0,0],"split_type":[0,0,0,0,0,0,0,0,0,0,0,0,0,0,0,0,0,0,0,0,0,0,0,0,0,0,0,0,0,0,0,0,0,0,0,0,0,0,0,0,0,0,0,0,0,0,0,0,0,0,0,0,0,0,0,0,0,0,0],"sum_hessian":[6.309289E4,4.589392E4,1.7198969E4,3.3048492E4,1.2845433E4,4.8003223E3,1.2398646E4,5.061092E3,2.7987398E4,6.558083E3,6.287349E3,2.2418225E2,4.57614E3,5.677569E3,6.721077E3,4.8727765E2,4.5738145E3,1.5980282E4,1.2007116E4,1.8798019E3,4.6782812E3,1.991735E3,4.2956143E3,2.1442677E2,9.755471E0,1.0798951E3,3.496245E3,1.6430283E3,4.0345405E3,2.0877524E3,4.6333247E3,4.5216812E2,3.510952E1,2.4145356E3,2.1592786E3,7.1506606E3,4.856456E3,1.9957831E2,1.6802236E3,3.1339233E2,4.364889E3,7.5786487E2,1.2338701E3,3.0140007E3,1.2816134E3,1.7705228E2,3.73745E1,4.8693596E1,1.0312015E3,4.0128534E2,3.0949597E3,4.947921E2,1.1482362E3,3.349598E3,6.8494275E2,5.467381E2,1.5410142E3,3.6888506E3,9.444741E2],"tree_param":{"num_deleted":"0","num_feature":"57","num_nodes":"59","size_leaf_vector":"1"}},{"base_weights":[1.9372638E-1,-6.8374896E-1,1.0060229E0,-3.0760937E0,8.848214E-1,4.649127E-1,1.0689166E0,-3.70113E-2,8.761466E-3,3.5442773E-1,9.9249643E-1,5.9027946E-1,-3.0521747E-1,1.3811009E-2,9.676473E-1,4.7958925E-1,-5.167109E-1,5.4561436E-1,1.0275677E0,7.748382E-1,4.0027708E-1,-4.499196E-2,-1.3953995E0,8.535022E-1,1.0464907E0,1.0330198E-2,3.942731E-3,-9.5739844E-4,-1.3742427E-2,7.6584322E-3,2.414588E-3,1.33851515E-2,1.099299E-2,9.619141E-3,-5.5840067E-3,-5.811392E-3,6.0344734E-3,-1.0146963E-2,5.021006E-3,-7.956733E-3,-3.1430103E-2,7.621757E-3,1.0867299E-2,1.3724082E-2,1.0490371E-2],"categories":[],"categories_nodes":[],"categories_segments":[],"categories_sizes":[],"default_left":[0,0,0,0,0,0,0,0,0,0,0,0,0,0,0,0,0,0,0,0,0,0,0,0,0,0,0,0,0,0,0,0,0,0,0,0,0,0,0,0,0,0,0,0,0],"id":13,"left_children":[1,3,5,7,9,11,13,-1,-1,15,17,19,21,-1,23,25,27,29,31,33,35,37,39,41,43,-1,-1,-1,-1,-1,-1,-1,-1,-1,-1,-1,-1,-1,-1,-1,-1,-1,-1,-1,-1],"loss_changes":[4.46445E4,1.1302499E5,1.0978789E3,4.0314062E2,1.0321836E3,3.3209155E2,2.2426562E2,0E0,0E0,3.4004803E2,2.2701074E2,9.702637E1,1.3346106E2,0E0,1.0353906E2,1.5038385E2,1.04161156E2,3.280005E1,1.2077734E2,5.403528E1,1.3716702E2,1.5498741E2,5.4368637E1,5.185034E1,1.1281836E2,0E0,0E0,0E0,0E0,0E0,0E0,0E0,0E0,0E0,0E0,0E0,0E0,0E0,0E0,0E0,0E0,0E0,0E0,0E0,0E0],"parents":[2147483647,0,0,1,1,2,2,3,3,4,4,5,5,6,6,9,9,10,10,11,11,12,12,14,14,15,15,16,16,17,17,18,18,19,19,20,20,21,21,22,22,23,23,24,24],"right_children":[2,4,6,8,10,12,14,-1,-1,16,18,20,22,-1,24,26,28,30,32,34,36,38,40,42,44,-1,-1,-1,-1,-1,-1,-1,-1,-1,-1,-1,-1,-1,-1,-1,-1,-1,-1,-1,-1],"split_conditions":[1.5401539E-2,1E0,1.3779126E-4,1E0,1.5747489E-4,7.489557E-1,-7.1325046E-1,-3.70113E-2,8.761466E-3,7.7439266E-1,1.2797784E0,1E0,9.25E-1,1.3811009E-2,1E0,-6.087614E-1,5.5E-1,3.8760328E0,-7.402181E-1,3.3166373E2,-4.935898E1,8.678301E-5,-1.7938984E1,1.7722668E-4,1E0,1.0330198E-2,3.942731E-3,-9.5739844E-4,-1.3742427E-2,7.6584322E-3,2.414588E-3,1.33851515E-2,1.099299E-2,9.619141E-3,-5.5840067E-3,-5.811392E-3,6.0344734E-3,-1.0146963E-2,5.021006E-3,-7.956733E-3,-3.1430103E-2,7.621757E-3,1.0867299E-2,1.3724082E-2,1.0490371E-2],"split_indices":[21,11,32,19,32,47,47,0,0,47,5,19,31,0,11,47,31,9,47,3,8,32,8,32,19,0,0,0,0,0,0,0,0,0,0,0,0,0,0,0,0,0,0,0,0],"split_type":[0,0,0,0,0,0,0,0,0,0,0,0,0,0,0,0,0,0,0,0,0,0,0,0,0,0,0,0,0,0,0,0,0,0,0,0,0,0,0,0,0,0,0,0,0],"sum_hessian":[6.2610715E4,3.0097559E4,3.2513156E4,1.1914937E4,1.8182623E4,3.399328E3,2.9113828E4,1.1892176E4,2.2759932E1,3.0801687E3,1.5102454E4,2.9280762E3,4.712518E2,1.6007748E4,1.310608E4,2.699942E3,3.8022678E2,1.1175999E3,1.39848545E4,1.4612394E3,1.4668368E3,3.920093E2,7.92425E1,5.4226836E3,7.6833965E3,7.463051E2,1.9536368E3,2.3415063E2,1.4607614E2,8.681592E2,2.4944067E2,7.750604E3,6.23425E3,1.4361115E3,2.5127913E1,1.4578343E2,1.3210533E3,1.4167326E2,2.5033604E2,6.2172802E1,1.7069695E1,1.0825979E3,4.3400854E3,4.8618027E3,2.8215935E3],"tree_param":{"num_deleted":"0","num_feature":"57","num_nodes":"45","size_leaf_vector":"1"}},{"base_weights":[1.905507E-1,7.8779435E-1,-1.3503526E0,1.0004627E0,2.4068014E-1,7.850288E-1,-2.165498E0,6.149166E-1,1.0877416E0,-3.8179636E-2,8.922846E-1,2.198193E-1,9.1039634E-1,-3.5763126E-2,9.506156E-1,6.9031525E-1,1.8468687E-2,1.3803618E-2,9.98618E-1,5.444604E-1,9.991377E-1,3.6908376E-1,-1.2635646E0,9.2628074E-1,-5.798235E-1,-4.20582E-2,9.965284E-1,-1.5651077E-3,8.882038E-3,-7.1343128E-3,5.8860816E-3,1.2700088E-2,1.0572948E-2,-2.4481976E-4,9.573983E-3,6.704507E-3,1.2624077E-2,-1.4387634E-2,5.365341E-3,-2.5049401E-3,-2.7707197E-2,9.757608E-3,1.2545489E-2,1.5678833E-3,-1.7019955E-2,-1.407425E-2,3.1732318E-3,-5.312419E-6,1.2394992E-2],"categories":[],"categories_nodes":[],"categories_segments":[],"categories_sizes":[],"default_left":[0,0,0,0,0,0,0,0,0,0,0,0,0,0,0,0,0,0,0,0,0,0,0,0,0,0,0,0,0,0,0,0,0,0,0,0,0,0,0,0,0,0,0,0,0,0,0,0,0],"id":14,"left_children":[1,3,5,7,9,11,13,15,17,-1,19,21,23,-1,25,27,29,-1,31,33,35,37,39,41,43,45,47,-1,-1,-1,-1,-1,-1,-1,-1,-1,-1,-1,-1,-1,-1,-1,-1,-1,-1,-1,-1,-1,-1],"loss_changes":[5.7709773E4,5.2528086E3,3.0512348E4,1.0833867E3,2.8278582E4,3.3881274E2,3.2233027E4,2.6994727E2,1.2972656E2,0E0,3.8625977E2,2.0279343E2,1.0089014E2,0E0,1.2259473E2,2.2156152E2,2.0378084E2,0E0,6.2414062E1,3.644104E2,1.7902148E2,1.0611981E2,8.142056E1,3.9005127E1,3.3289562E1,4.926345E1,9.3590576E1,0E0,0E0,0E0,0E0,0E0,0E0,0E0,0E0,0E0,0E0,0E0,0E0,0E0,0E0,0E0,0E0,0E0,0E0,0E0,0E0,0E0,0E0],"parents":[2147483647,0,0,1,1,2,2,3,3,4,4,5,5,6,6,7,7,8,8,10,10,11,11,12,12,14,14,15,15,16,16,18,18,19,19,20,20,21,21,22,22,23,23,24,24,25,25,26,26],"right_children":[2,4,6,8,10,12,14,16,18,-1,20,22,24,-1,26,28,30,-1,32,34,36,38,40,42,44,46,48,-1,-1,-1,-1,-1,-1,-1,-1,-1,-1,-1,-1,-1,-1,-1,-1,-1,-1,-1,-1,-1,-1],"split_conditions":[5E0,1E0,1E0,1.6958584E-4,1E0,1.3657709E-4,1E0,7.6E1,4E0,-3.8179636E-2,-2.178485E1,1.15E2,1.65E2,-3.5763126E-2,7.3170733E-1,8.2338236E-5,1.11704794E-4,1.3803618E-2,-4.9800363E0,1.7339997E-4,1.5747489E-4,-2.7906978E-1,-1.383432E1,2.8477036E-4,5.90625E0,1.5215822E-4,1.18963544E-4,-1.5651077E-3,8.882038E-3,-7.1343128E-3,5.8860816E-3,1.2700088E-2,1.0572948E-2,-2.4481976E-4,9.573983E-3,6.704507E-3,1.2624077E-2,-1.4387634E-2,5.365341E-3,-2.5049401E-3,-2.7707197E-2,9.757608E-3,1.2545489E-2,1.5678833E-3,-1.7019955E-2,-1.407425E-2,3.1732318E-3,-5.312419E-6,1.2394992E-2],"split_indices":[22,22,16,32,11,32,11,15,17,0,4,15,15,0,5,32,32,0,6,32,32,5,6,32,1,32,32,0,0,0,0,0,0,0,0,0,0,0,0,0,0,0,0,0,0,0,0,0,0],"split_type":[0,0,0,0,0,0,0,0,0,0,0,0,0,0,0,0,0,0,0,0,0,0,0,0,0,0,0,0,0,0,0,0,0,0,0,0,0,0,0,0,0,0,0,0,0,0,0,0,0],"sum_hessian":[6.2683277E4,4.5179266E4,1.7504012E4,3.2523488E4,1.2655775E4,4.8352983E3,1.2668714E4,6.0255757E3,2.6497912E4,2.0162885E3,1.0639487E4,8.866958E2,3.9486023E3,1.0043762E4,2.6249524E3,5.3446963E3,6.808795E2,1.5472065E4,1.1025847E4,2.5219602E3,8.1175273E3,8.15045E2,7.16508E1,3.9127788E3,3.582344E1,1.1416011E2,2.5107922E3,3.026559E2,5.0420405E3,2.930153E2,3.878642E2,7.2360713E3,3.7897751E3,7.8191425E2,1.7400459E3,8.8892004E2,7.228607E3,2.9248262E1,7.857967E2,4.3782204E1,2.78686E1,2.0639316E3,1.8488474E3,2.3584688E1,1.2238752E1,1.8502241E1,9.565787E1,8.689435E1,2.423898E3],"tree_param":{"num_deleted":"0","num_feature":"57","num_nodes":"49","size_leaf_vector":"1"}},{"base_weights":[1.8722391E-1,7.845571E-1,-1.3438373E0,2.4724814E-1,9.9707013E-1,-2.1499686E0,7.832111E-1,-3.083057E-1,8.082754E-1,1.0270035E0,2.3811816E-1,-1.6611997E0,-2.346595E0,8.552856E-1,4.9372043E-2,-1.0318059E0,2.16189E-3,2.8420833E-1,9.4830185E-1,7.139446E-1,1.0863471E0,-6.1747986E-1,4.448213E-1,-1.9205351E0,-1.0418977E0,-2.5204902E0,-2.0799928E0,5.4238003E-1,9.412698E-1,-1.1522939E0,3.3813885E-1,-1.4881886E-2,-5.0453124E-5,2.5182902E-3,-5.839382E-3,-5.167161E-3,5.7357335E-3,4.766303E-3,1.1895392E-2,9.142091E-3,1.9187032E-3,1.3779801E-2,1.2033209E-2,-3.7030023E-4,-1.9595847E-2,7.6739104E-3,2.0568694E-4,-1.7713368E-2,-2.7601877E-2,-4.09538E-3,-1.968951E-2,-2.553582E-2,-3.1888217E-2,-1.3391162E-2,-2.8308284E-2,9.444763E-3,2.904334E-3,6.947986E-3,1.1798247E-2,1.8945386E-4,-1.8781053E-2,6.1929724E-3,-6.9976314E-3],"categories":[],"categories_nodes":[],"categories_segments":[],"categories_sizes":[],"default_left":[0,0,0,0,0,0,0,0,0,0,0,0,0,0,0,0,0,0,0,0,0,0,0,0,0,0,0,0,0,0,0,0,0,0,0,0,0,0,0,0,0,0,0,0,0,0,0,0,0,0,0,0,0,0,0,0,0,0,0,0,0,0,0],"id":15,"left_children":[1,3,5,7,9,11,13,15,17,19,21,23,25,27,29,31,33,35,37,39,41,43,45,47,49,51,53,55,57,59,61,-1,-1,-1,-1,-1,-1,-1,-1,-1,-1,-1,-1,-1,-1,-1,-1,-1,-1,-1,-1,-1,-1,-1,-1,-1,-1,-1,-1,-1,-1,-1,-1],"loss_changes":[5.6995727E4,5.113467E3,3.0013143E4,3.9698904E3,7.2418555E2,1.1645195E3,2.52354E2,1.4397203E3,4.5925977E2,5.6101953E2,2.2168991E2,5.616953E2,3.4585547E2,1.08781494E2,1.5775134E2,4.0932422E2,4.5632663E2,1.9039752E2,1.10742676E2,1.2840503E2,1.1624414E2,1.4130676E2,8.223062E1,3.869707E2,4.574928E2,2.1239844E2,9.3855176E2,6.751047E1,4.1909424E1,4.5710518E1,6.414455E1,0E0,0E0,0E0,0E0,0E0,0E0,0E0,0E0,0E0,0E0,0E0,0E0,0E0,0E0,0E0,0E0,0E0,0E0,0E0,0E0,0E0,0E0,0E0,0E0,0E0,0E0,0E0,0E0,0E0,0E0,0E0,0E0],"parents":[2147483647,0,0,1,1,2,2,3,3,4,4,5,5,6,6,7,7,8,8,9,9,10,10,11,11,12,12,13,13,14,14,15,15,16,16,17,17,18,18,19,19,20,20,21,21,22,22,23,23,24,24,25,25,26,26,27,27,28,28,29,29,30,30],"right_children":[2,4,6,8,10,12,14,16,18,20,22,24,26,28,30,32,34,36,38,40,42,44,46,48,50,52,54,56,58,60,62,-1,-1,-1,-1,-1,-1,-1,-1,-1,-1,-1,-1,-1,-1,-1,-1,-1,-1,-1,-1,-1,-1,-1,-1,-1,-1,-1,-1,-1,-1,-1,-1],"split_conditions":[5E0,1.5401539E-2,1.6E1,1.6E1,2.0802454E2,-8.9493436E-1,7.7439266E-1,2.628368E-4,1.6836978E-4,1.6958584E-4,8.4651445E-5,-4.017825E0,2.1830232E-4,1.5346346E-4,8.2338236E-5,-3.519126E-1,3E0,-4.1520546E1,1.3873874E0,7.7439266E-1,-7.402181E-1,5.1E1,4.4E1,2E1,8.5793877E-1,1.6E1,1E1,-1.9936794E-1,1.812749E0,8E0,1.7E2,-1.4881886E-2,-5.0453124E-5,2.5182902E-3,-5.839382E-3,-5.167161E-3,5.7357335E-3,4.766303E-3,1.1895392E-2,9.142091E-3,1.9187032E-3,1.3779801E-2,1.2033209E-2,-3.7030023E-4,-1.9595847E-2,7.6739104E-3,2.0568694E-4,-1.7713368E-2,-2.7601877E-2,-4.09538E-3,-1.968951E-2,-2.553582E-2,-3.1888217E-2,-1.3391162E-2,-2.8308284E-2,9.444763E-3,2.904334E-3,6.947986E-3,1.1798247E-2,1.8945386E-4,-1.8781053E-2,6.1929724E-3,-6.9976314E-3],"split_indices":[22,21,15,15,3,47,47,32,32,32,32,8,32,32,32,4,22,8,5,47,47,15,15,22,6,22,22,47,5,22,15,0,0,0,0,0,0,0,0,0,0,0,0,0,0,0,0,0,0,0,0,0,0,0,0,0,0,0,0,0,0,0,0],"split_type":[0,0,0,0,0,0,0,0,0,0,0,0,0,0,0,0,0,0,0,0,0,0,0,0,0,0,0,0,0,0,0,0,0,0,0,0,0,0,0,0,0,0,0,0,0,0,0,0,0,0,0,0,0,0,0,0,0,0,0,0,0,0,0],"sum_hessian":[6.22962E4,4.4817938E4,1.747826E4,1.2712234E4,3.2105705E4,1.2675265E4,4.802995E3,6.388199E3,6.324035E3,3.0880875E4,1.2248293E3,3.671727E3,9.003537E3,4.3691636E3,4.3383136E2,1.9117354E3,4.476464E3,1.3441223E3,4.9799126E3,4.9512607E3,2.5929615E4,2.3180505E2,9.9302435E2,2.5679456E3,1.1037815E3,5.3832695E3,3.6202676E3,9.657291E2,3.4034343E3,7.5759056E1,3.580723E2,1.585782E3,3.259535E2,3.1492117E3,1.3272522E3,2.813285E2,1.0627938E3,3.725409E2,4.6073716E3,4.549831E3,4.0142993E2,1.4788206E4,1.1141408E4,1.56015E2,7.579006E1,6.751094E2,3.1791498E2,1.2124563E3,1.3554893E3,5.189115E2,5.8486993E2,1.4468978E3,3.9363718E3,8.276978E2,2.7925698E3,5.177979E2,4.4793124E2,3.7634503E2,3.0270894E3,2.1530436E1,5.422862E1,3.063502E2,5.172213E1],"tree_param":{"num_deleted":"0","num_feature":"57","num_nodes":"63","size_leaf_vector":"1"}},{"base_weights":[1.8770936E-1,7.7756876E-1,-1.297292E0,9.9077195E-1,2.4164616E-1,7.821357E-1,-2.0596154E0,4.332202E-1,1.054166E0,-3.7047315E-2,8.8723737E-1,2.0846501E-1,9.066394E-1,-3.4324106E-2,9.7205514E-1,5.568339E-1,-4.6325594E-1,1.1385367E0,9.5091105E-1,4.6081674E-1,1.0208927E0,4.8467785E-1,-3.710263E-1,9.2205656E-1,-2.608983E-1,-3.2254066E-2,1.0167955E0,4.040564E-3,9.029597E-3,1.8016829E-3,-1.552047E-2,1.3112524E-2,1.4058186E-2,9.7373575E-3,1.2459896E-2,1.1827152E-3,8.112898E-3,7.21442E-3,1.2559034E-2,-9.280719E-3,6.548365E-3,-1.2273017E-2,1.2127719E-4,7.074226E-3,1.1616211E-2,5.7890345E-3,-1.52714625E-2,-7.908025E-3,4.1085817E-3,4.0256623E-3,1.25864325E-2],"categories":[],"categories_nodes":[],"categories_segments":[],"categories_sizes":[],"default_left":[0,0,0,0,0,0,0,0,0,0,0,0,0,0,0,0,0,0,0,0,0,0,0,0,0,0,0,0,0,0,0,0,0,0,0,0,0,0,0,0,0,0,0,0,0,0,0,0,0,0,0],"id":16,"left_children":[1,3,5,7,9,11,13,15,17,-1,19,21,23,-1,25,27,29,31,33,35,37,39,41,43,45,47,49,-1,-1,-1,-1,-1,-1,-1,-1,-1,-1,-1,-1,-1,-1,-1,-1,-1,-1,-1,-1,-1,-1,-1,-1],"loss_changes":[5.439415E4,5.0728047E3,2.8006416E4,1.1151152E3,2.725207E4,3.343191E2,3.1405637E4,3.6553613E2,2.3138672E2,0E0,5.9663477E2,1.4074147E2,7.425391E1,0E0,1.2405493E2,1.1881146E2,2.0865825E2,3.7304688E0,1.4361719E2,1.9725104E2,7.619531E1,5.01248E1,7.2562775E1,4.8802734E1,5.2849567E1,3.2744926E1,4.9717773E1,0E0,0E0,0E0,0E0,0E0,0E0,0E0,0E0,0E0,0E0,0E0,0E0,0E0,0E0,0E0,0E0,0E0,0E0,0E0,0E0,0E0,0E0,0E0,0E0],"parents":[2147483647,0,0,1,1,2,2,3,3,4,4,5,5,6,6,7,7,8,8,10,10,11,11,12,12,14,14,15,15,16,16,17,17,18,18,19,19,20,20,21,21,22,22,23,23,24,24,25,25,26,26],"right_children":[2,4,6,8,10,12,14,16,18,-1,20,22,24,-1,26,28,30,32,34,36,38,40,42,44,46,48,50,-1,-1,-1,-1,-1,-1,-1,-1,-1,-1,-1,-1,-1,-1,-1,-1,-1,-1,-1,-1,-1,-1,-1,-1],"split_conditions":[5E0,1E0,1E0,1.3779126E-4,1E0,1.3657709E-4,1E0,7.7439266E-1,-7.1325046E-1,-3.7047315E-2,1.9582594E-4,5.5557024E-1,9.76296E-1,-3.4324106E-2,1.18963544E-4,1E0,-1.16257305E1,1E0,1E0,-2.4459143E1,1.1643287E0,-2.7906978E-1,8.2338236E-5,2.5825243E0,-5.880053E-3,1E0,7.3170733E-1,4.040564E-3,9.029597E-3,1.8016829E-3,-1.552047E-2,1.3112524E-2,1.4058186E-2,9.7373575E-3,1.2459896E-2,1.1827152E-3,8.112898E-3,7.21442E-3,1.2559034E-2,-9.280719E-3,6.548365E-3,-1.2273017E-2,1.2127719E-4,7.074226E-3,1.1616211E-2,5.7890345E-3,-1.52714625E-2,-7.908025E-3,4.1085817E-3,4.0256623E-3,1.25864325E-2],"split_indices":[22,22,16,32,11,32,11,47,47,0,32,47,47,0,32,20,6,20,20,4,5,5,32,5,37,39,5,0,0,0,0,0,0,0,0,0,0,0,0,0,0,0,0,0,0,0,0,0,0,0,0],"split_type":[0,0,0,0,0,0,0,0,0,0,0,0,0,0,0,0,0,0,0,0,0,0,0,0,0,0,0,0,0,0,0,0,0,0,0,0,0,0,0,0,0,0,0,0,0,0,0,0,0,0,0],"sum_hessian":[6.2073258E4,4.443159E4,1.7641668E4,3.1776283E4,1.2655307E4,4.7317373E3,1.2909931E4,3.256942E3,2.8519342E4,2.0477611E3,1.0607545E4,8.523864E2,3.8793508E3,1.0213637E4,2.6962937E3,2.8682244E3,3.8871765E2,1.5618005E4,1.2901337E4,2.5476692E3,8.059876E3,5.809114E2,2.7147504E2,3.832973E3,4.6377705E1,1.1322929E2,2.5830645E3,1.369819E3,1.4984053E3,2.2780588E2,1.6091179E2,6.7326924E3,8.8853125E3,5.027093E3,7.8742437E3,9.595803E2,1.5880889E3,4.8634134E2,7.5735347E3,1.8875326E1,5.62036E2,9.4658325E1,1.7681671E2,4.9086905E2,3.342104E3,2.9214731E1,1.7162973E1,4.0950687E1,7.22786E1,1.25118416E2,2.457946E3],"tree_param":{"num_deleted":"0","num_feature":"57","num_nodes":"51","size_leaf_vector":"1"}},{"base_weights":[1.8412955E-1,7.7455336E-1,-1.3134475E0,9.8806435E-1,2.3627019E-1,-3.356922E-2,8.3227324E-1,1.0153635E0,1.058413E-1,-3.3003974E-1,8.056082E-1,9.1085416E-1,2.5365368E-1,6.9088143E-1,1.0779595E0,-8.683916E-1,3.7583682E-1,-3.6131017E-2,9.992114E-1,3.1610402E-1,9.451677E-1,2.9618976E-1,9.565273E-1,-5.8722806E-1,6.511195E-1,9.238272E-3,3.5610006E-3,1.3664525E-2,1.1902361E-2,4.740847E-3,-1.656413E-2,6.994639E-3,-1.0022242E-3,3.1997373E-3,1.2443636E-2,5.37192E-3,-5.7207337E-3,5.4589882E-3,1.1783372E-2,-1.4630308E-2,4.6490263E-3,9.6139E-3,1.3008263E-2,-1.0422538E-2,-5.239582E-4,8.872314E-3,-4.1378974E-3],"categories":[],"categories_nodes":[],"categories_segments":[],"categories_sizes":[],"default_left":[0,0,0,0,0,0,0,0,0,0,0,0,0,0,0,0,0,0,0,0,0,0,0,0,0,0,0,0,0,0,0,0,0,0,0,0,0,0,0,0,0,0,0,0,0,0,0],"id":17,"left_children":[1,3,5,7,9,-1,11,13,15,17,19,21,23,25,27,29,31,-1,33,35,37,39,41,43,45,-1,-1,-1,-1,-1,-1,-1,-1,-1,-1,-1,-1,-1,-1,-1,-1,-1,-1,-1,-1,-1,-1],"loss_changes":[5.460315E4,5.085115E3,5.5635062E4,7.600742E2,4.0657651E3,0E0,3.1990625E2,6.1211523E2,2.5735416E2,2.2569541E4,4.233933E2,1.7055518E2,2.96944E2,1.5111255E2,1.1687695E2,1.4558359E2,7.456395E1,0E0,1.1121777E2,1.5019548E2,7.981494E1,6.692971E1,1.0154004E2,4.13516E1,5.6667587E1,0E0,0E0,0E0,0E0,0E0,0E0,0E0,0E0,0E0,0E0,0E0,0E0,0E0,0E0,0E0,0E0,0E0,0E0,0E0,0E0,0E0,0E0],"parents":[2147483647,0,0,1,1,2,2,3,3,4,4,6,6,7,7,8,8,9,9,10,10,11,11,12,12,13,13,14,14,15,15,16,16,18,18,19,19,20,20,21,21,22,22,23,23,24,24],"right_children":[2,4,6,8,10,-1,12,14,16,18,20,22,24,26,28,30,32,-1,34,36,38,40,42,44,46,-1,-1,-1,-1,-1,-1,-1,-1,-1,-1,-1,-1,-1,-1,-1,-1,-1,-1,-1,-1,-1,-1],"split_conditions":[5E0,1E0,1E0,2.2254399E2,1.6E1,-3.356922E-2,5.771452E-1,1.6958584E-4,8.4651445E-5,1E0,1.6836978E-4,8.245505E-1,1.2842109E-4,5.9482276E-1,-7.1325046E-1,5.4106283E-1,4.6E1,-3.6131017E-2,-3.9024998E1,7.489557E-1,1.2797784E0,-8.746197E-1,-7.489557E-1,-7.8616104E0,1.65E2,9.238272E-3,3.5610006E-3,1.3664525E-2,1.1902361E-2,4.740847E-3,-1.656413E-2,6.994639E-3,-1.0022242E-3,3.1997373E-3,1.2443636E-2,5.37192E-3,-5.7207337E-3,5.4589882E-3,1.1783372E-2,-1.4630308E-2,4.6490263E-3,9.6139E-3,1.3008263E-2,-1.0422538E-2,-5.239582E-4,8.872314E-3,-4.1378974E-3],"split_indices":[22,22,11,3,15,0,47,32,32,11,32,5,32,47,47,7,15,0,4,47,5,47,48,4,15,0,0,0,0,0,0,0,0,0,0,0,0,0,0,0,0,0,0,0,0,0,0],"split_type":[0,0,0,0,0,0,0,0,0,0,0,0,0,0,0,0,0,0,0,0,0,0,0,0,0,0,0,0,0,0,0,0,0,0,0,0,0,0,0,0,0,0,0,0,0,0,0],"sum_hessian":[6.1729355E4,4.4279266E4,1.7450092E4,3.1694027E4,1.2585236E4,1.0314107E4,7.135984E3,3.0738783E4,9.552454E2,6.3101646E3,6.2750723E3,6.2736304E3,8.623536E2,4.9994316E3,2.5739352E4,1.99908E2,7.553374E2,2.087118E3,4.2230464E3,1.4040137E3,4.8710586E3,4.4316516E2,5.8304653E3,2.7333112E2,5.8902246E2,4.1511304E3,8.483014E2,1.4991303E4,1.0748048E4,5.7308308E1,1.425997E2,5.214335E2,2.339039E2,2.1433516E2,4.0087114E3,1.2108434E3,1.9317032E2,3.5492664E2,4.516132E3,1.5494728E1,4.2767044E2,2.6744233E3,3.1560417E3,1.7296231E2,1.00368805E2,5.457675E2,4.3254955E1],"tree_param":{"num_deleted":"0","num_feature":"57","num_nodes":"47","size_leaf_vector":"1"}},{"base_weights":[1.839721E-1,7.734774E-1,-1.2774438E0,9.835667E-1,2.5020212E-1,7.631154E-1,-2.008903E0,5.9114623E-1,1.0707428E0,7.443528E-1,-2.9061127E-1,1.8729505E-1,8.8750947E-1,-2.1978323E0,-1.5656605E0,6.768577E-1,-3.2778883E-1,1.364002E-2,9.8290163E-1,8.093415E-1,-4.8000994E-1,-9.119928E-1,1.12051265E-2,3.3526167E-1,-1.0577059E0,9.0435046E-1,-1.4887404E-1,-1.7264099E0,-2.411725E0,-7.760304E-1,-1.9336579E0,-0E0,8.633006E-3,-1.166071E-2,4.7415835E-3,1.0311719E-2,1.2675567E-2,3.2008367E-3,1.1231635E-2,-1.5483616E-2,-0E0,-1.9026427E-2,-8.439976E-3,2.4002695E-3,-5.0574024E-3,7.992411E-3,1.2326819E-3,-2.6242193E-2,-5.0614174E-3,9.562935E-3,1.226896E-2,6.322702E-3,-9.921577E-3,-2.612318E-2,-1.7782673E-2,-2.4178782E-2,-2.9554592E-2,-7.859633E-3,-1.9234933E-2,-2.5451856E-2,-1.5428451E-2],"categories":[],"categories_nodes":[],"categories_segments":[],"categories_sizes":[],"default_left":[0,0,0,0,0,0,0,0,0,0,0,0,0,0,0,0,0,0,0,0,0,0,0,0,0,0,0,0,0,0,0,0,0,0,0,0,0,0,0,0,0,0,0,0,0,0,0,0,0,0,0,0,0,0,0,0,0,0,0,0,0],"id":18,"left_children":[1,3,5,7,9,11,13,15,17,19,21,23,25,27,29,31,33,-1,35,37,39,41,43,45,47,49,51,53,55,57,59,-1,-1,-1,-1,-1,-1,-1,-1,-1,-1,-1,-1,-1,-1,-1,-1,-1,-1,-1,-1,-1,-1,-1,-1,-1,-1,-1,-1,-1,-1],"loss_changes":[5.32672E4,4.837998E3,2.654707E4,1.0642637E3,3.3814753E3,3.3233154E2,1.0470625E3,4.557649E2,1.3116992E2,5.3129834E2,1.135019E3,1.5987236E2,7.044458E1,8.636406E2,1.1260781E3,1.5124756E2,2.3671718E2,0E0,8.613867E1,4.2630518E2,1.3211871E2,2.5996594E2,3.3356998E2,5.706523E1,4.978689E1,3.4770752E1,3.7930832E1,2.732871E2,5.8496094E1,1.1094763E2,2.868037E2,0E0,0E0,0E0,0E0,0E0,0E0,0E0,0E0,0E0,0E0,0E0,0E0,0E0,0E0,0E0,0E0,0E0,0E0,0E0,0E0,0E0,0E0,0E0,0E0,0E0,0E0,0E0,0E0,0E0,0E0],"parents":[2147483647,0,0,1,1,2,2,3,3,4,4,5,5,6,6,7,7,8,8,9,9,10,10,11,11,12,12,13,13,14,14,15,15,16,16,18,18,19,19,20,20,21,21,22,22,23,23,24,24,25,25,26,26,27,27,28,28,29,29,30,30],"right_children":[2,4,6,8,10,12,14,16,18,20,22,24,26,28,30,32,34,-1,36,38,40,42,44,46,48,50,52,54,56,58,60,-1,-1,-1,-1,-1,-1,-1,-1,-1,-1,-1,-1,-1,-1,-1,-1,-1,-1,-1,-1,-1,-1,-1,-1,-1,-1,-1,-1,-1,-1],"split_conditions":[5E0,1E0,1E0,1.6958584E-4,1E0,1.3657709E-4,3.9463642E-4,7.7439266E-1,-7.402181E-1,1E0,2.7782575E-4,9.135454E-1,9.76296E-1,1.7E1,1E1,8.2338236E-5,1.1320561E-4,1.364002E-2,1E0,1.5747489E-4,1E0,1.2842109E-4,3E0,-2.461533E-1,7.351979E-5,2.8477036E-4,-6.439073E1,1.6015038E-4,-1.6551725E0,1.9118943E0,1.1830986E0,-0E0,8.633006E-3,-1.166071E-2,4.7415835E-3,1.0311719E-2,1.2675567E-2,3.2008367E-3,1.1231635E-2,-1.5483616E-2,-0E0,-1.9026427E-2,-8.439976E-3,2.4002695E-3,-5.0574024E-3,7.992411E-3,1.2326819E-3,-2.6242193E-2,-5.0614174E-3,9.562935E-3,1.226896E-2,6.322702E-3,-9.921577E-3,-2.612318E-2,-1.7782673E-2,-2.4178782E-2,-2.9554592E-2,-7.859633E-3,-1.9234933E-2,-2.5451856E-2,-1.5428451E-2],"split_indices":[22,22,16,32,18,32,32,47,47,16,32,47,47,22,22,32,32,0,20,32,45,32,22,47,32,32,0,32,35,0,35,0,0,0,0,0,0,0,0,0,0,0,0,0,0,0,0,0,0,0,0,0,0,0,0,0,0,0,0,0,0],"split_type":[0,0,0,0,0,0,0,0,0,0,0,0,0,0,0,0,0,0,0,0,0,0,0,0,0,0,0,0,0,0,0,0,0,0,0,0,0,0,0,0,0,0,0,0,0,0,0,0,0,0,0,0,0,0,0,0,0,0,0,0,0],"sum_hessian":[6.1805277E4,4.4045312E4,1.7759963E4,3.1417254E4,1.2628061E4,4.6855063E3,1.3074456E4,5.7318477E3,2.5685406E4,6.598279E3,6.0297817E3,8.4058466E2,3.8449216E3,9.130587E3,3.9438687E3,5.247717E3,4.841307E2,1.4578255E4,1.110715E4,6.271112E3,3.2716675E2,1.965521E3,4.0642605E3,7.605673E2,8.001737E1,3.7868447E3,5.8076756E1,2.8866267E3,6.2439604E3,1.2673005E3,2.676568E3,3.116721E2,4.936045E3,2.5533197E2,2.2879872E2,4.20539E3,6.9017607E3,1.1966221E3,5.0744897E3,1.14295166E2,2.128716E2,4.4389502E2,1.521626E3,2.837157E3,1.2271035E3,3.011819E2,4.5938544E2,1.7151554E1,6.2865814E1,2.0401814E3,1.7466635E3,2.894608E1,2.9130678E1,9.792934E2,1.9073335E3,7.728386E2,5.471122E3,1.1263231E3,1.4097746E2,2.0527349E3,6.238334E2],"tree_param":{"num_deleted":"0","num_feature":"57","num_nodes":"61","size_leaf_vector":"1"}},{"base_weights":[1.8802878E-1,7.703718E-1,-1.245682E0,9.8020416E-1,2.45224E-1,-3.2340553E-2,8.331829E-1,5.260436E-1,1.0561562E0,-3.5142086E-2,8.84438E-1,2.2620514E-2,9.1622764E-1,6.16737E-1,-6.8823956E-2,9.7043055E-1,1.1121109E0,5.8529454E-1,1.0015786E0,1.5749255E-1,-1.3081055E0,7.040214E-1,1.0107273E0,8.62262E-3,1.7436597E-3,2.5730175E-3,-1.3878363E-2,1.001866E-2,1.2633325E-2,1.355226E-2,9.097694E-3,-2.648671E-3,8.691532E-3,7.3101814E-3,1.264431E-2,5.4691145E-3,-5.8992053E-3,-2.301612E-2,-2.040066E-3,3.1862142E-3,9.200753E-3,-7.3615187E-3,1.2221687E-2],"categories":[],"categories_nodes":[],"categories_segments":[],"categories_sizes":[],"default_left":[0,0,0,0,0,0,0,0,0,0,0,0,0,0,0,0,0,0,0,0,0,0,0,0,0,0,0,0,0,0,0,0,0,0,0,0,0,0,0,0,0,0,0],"id":19,"left_children":[1,3,5,7,9,-1,11,13,15,-1,17,19,21,23,25,27,29,31,33,35,37,39,41,-1,-1,-1,-1,-1,-1,-1,-1,-1,-1,-1,-1,-1,-1,-1,-1,-1,-1,-1,-1],"loss_changes":[5.1457266E4,4.824293E3,5.3670242E4,1.0701621E3,2.5449748E4,0E0,4.907202E2,2.451123E2,1.1147656E2,0E0,3.55646E2,1.2490152E2,1.2116113E2,1.8520032E2,1.9124332E2,1.0505664E2,8.436914E1,3.3585132E2,1.4195068E2,1.27120094E2,3.6251656E1,5.3005127E1,6.567041E1,0E0,0E0,0E0,0E0,0E0,0E0,0E0,0E0,0E0,0E0,0E0,0E0,0E0,0E0,0E0,0E0,0E0,0E0,0E0,0E0],"parents":[2147483647,0,0,1,1,2,2,3,3,4,4,6,6,7,7,8,8,10,10,11,11,12,12,13,13,14,14,15,15,16,16,17,17,18,18,19,19,20,20,21,21,22,22],"right_children":[2,4,6,8,10,-1,12,14,16,-1,18,20,22,24,26,28,30,32,34,36,38,40,42,-1,-1,-1,-1,-1,-1,-1,-1,-1,-1,-1,-1,-1,-1,-1,-1,-1,-1,-1,-1],"split_conditions":[5E0,1E0,1E0,1.5346346E-4,1E0,-3.2340553E-2,1.18963544E-4,2.4107143E2,-7.0090926E-1,-3.5142086E-2,-1.7725807E1,8.5149254E1,-1.8530745E1,6.122173E-1,-6.4944804E-1,1E0,7.489557E-1,1.2975425E-4,1.6015038E-4,5.591929E-1,4.4E-1,1.5086448E-4,7.3170733E-1,8.62262E-3,1.7436597E-3,2.5730175E-3,-1.3878363E-2,1.001866E-2,1.2633325E-2,1.355226E-2,9.097694E-3,-2.648671E-3,8.691532E-3,7.3101814E-3,1.264431E-2,5.4691145E-3,-5.8992053E-3,-2.301612E-2,-2.040066E-3,3.1862142E-3,9.200753E-3,-7.3615187E-3,1.2221687E-2],"split_indices":[22,22,11,32,11,0,32,3,48,0,4,9,4,47,48,20,47,32,32,47,24,32,5,0,0,0,0,0,0,0,0,0,0,0,0,0,0,0,0,0,0,0,0],"split_type":[0,0,0,0,0,0,0,0,0,0,0,0,0,0,0,0,0,0,0,0,0,0,0,0,0,0,0,0,0,0,0,0,0,0,0,0,0,0,0,0,0,0,0],"sum_hessian":[6.160735E4,4.381683E4,1.7790521E4,3.1297238E4,1.2519591E4,1.048081E4,7.309712E3,4.5015195E3,2.6795719E4,2.0910938E3,1.0428497E4,6.82964E2,6.626748E3,3.908544E3,5.929753E2,1.0683646E4,1.6112072E4,2.9595898E3,7.4689077E3,6.3108484E2,5.1879124E1,2.0795417E3,4.547206E3,3.2056836E3,7.028604E2,4.766499E2,1.16325386E2,4.097357E3,6.586289E3,1.533316E4,7.7891187E2,4.3216342E2,2.5274263E3,8.9799603E2,6.5709116E3,4.3695404E2,1.9413083E2,2.7279514E1,2.459961E1,2.7202585E2,1.8075159E3,1.5905384E1,4.531301E3],"tree_param":{"num_deleted":"0","num_feature":"57","num_nodes":"43","size_leaf_vector":"1"}},{"base_weights":[1.834949E-1,-6.1484754E-1,9.7292066E-1,5.7557255E-1,-1.3819085E0,4.2943203E-1,1.0372417E0,7.8245795E-1,-1.5190815E0,-4.59376E-1,-2.0641303E0,-3.9642924E-1,5.540119E-1,1.3486796E-2,9.3160856E-1,2.966697E-1,9.187173E-1,-3.1608276E-2,9.174708E-1,-2.7805843E0,9.8788E-1,-3.152525E-2,9.4369364E-1,1.5063539E-1,-8.131637E-1,6.2847555E-1,7.773618E-2,7.394769E-1,9.763432E-1,-2.0406773E-2,4.2830324E-3,5.3232615E-3,1.1561123E-2,-1.6934079E-3,1.1542253E-2,9.932557E-3,-3.3952963E-2,2.4169837E-3,1.23637505E-2,6.2573496E-3,1.2644657E-2,8.323265E-3,-3.0592028E-3,-3.911367E-3,-2.0601269E-2,5.341833E-3,9.313653E-3,2.966159E-3,-7.959041E-3,1.1395277E-2,7.733178E-3,1.011622E-2,1.2656936E-2],"categories":[],"categories_nodes":[],"categories_segments":[],"categories_sizes":[],"default_left":[0,0,0,0,0,0,0,0,0,0,0,0,0,0,0,0,0,0,0,0,0,0,0,0,0,0,0,0,0,0,0,0,0,0,0,0,0,0,0,0,0,0,0,0,0,0,0,0,0,0,0,0,0],"id":20,"left_children":[1,3,5,7,9,11,13,15,17,19,21,23,25,-1,27,29,31,-1,33,35,37,-1,39,41,43,45,47,49,51,-1,-1,-1,-1,-1,-1,-1,-1,-1,-1,-1,-1,-1,-1,-1,-1,-1,-1,-1,-1,-1,-1,-1,-1],"loss_changes":[3.866903E4,2.7866934E4,1.0701797E3,5.196375E3,1.1662461E4,3.4128833E2,2.3573242E2,7.1548145E2,2.9621267E3,2.6594105E4,1.808893E4,1.0217878E2,9.959314E1,0E0,9.540039E1,2.942987E2,1.7260693E2,0E0,1.9568848E1,5.676797E2,1.578252E2,0E0,6.874365E1,4.627972E1,9.987509E1,6.032599E1,5.1939117E1,3.7799805E1,9.109766E1,0E0,0E0,0E0,0E0,0E0,0E0,0E0,0E0,0E0,0E0,0E0,0E0,0E0,0E0,0E0,0E0,0E0,0E0,0E0,0E0,0E0,0E0,0E0,0E0],"parents":[2147483647,0,0,1,1,2,2,3,3,4,4,5,5,6,6,7,7,8,8,9,9,10,10,11,11,12,12,14,14,15,15,16,16,18,18,19,19,20,20,22,22,23,23,24,24,25,25,26,26,27,27,28,28],"right_children":[2,4,6,8,10,12,14,16,18,20,22,24,26,-1,28,30,32,-1,34,36,38,-1,40,42,44,46,48,50,52,-1,-1,-1,-1,-1,-1,-1,-1,-1,-1,-1,-1,-1,-1,-1,-1,-1,-1,-1,-1,-1,-1,-1,-1],"split_conditions":[1.5401539E-2,1E0,1.3779126E-4,1E0,8E0,8.2338236E-5,-7.1325046E-1,1.588819E-4,1E0,1E0,1E0,2.6233269E1,2.3434984E2,1.3486796E-2,1.7722668E-4,5.975591E-5,1.2797784E0,-3.1608276E-2,1.11704794E-4,1E0,1.352948E-4,-3.152525E-2,1.9459797E-4,1.0738636E0,4.75E-1,1E0,-6.658817E-1,2.8E-1,1E0,-2.0406773E-2,4.2830324E-3,5.3232615E-3,1.1561123E-2,-1.6934079E-3,1.1542253E-2,9.932557E-3,-3.3952963E-2,2.4169837E-3,1.23637505E-2,6.2573496E-3,1.2644657E-2,8.323265E-3,-3.0592028E-3,-3.911367E-3,-2.0601269E-2,5.341833E-3,9.313653E-3,2.966159E-3,-7.959041E-3,1.1395277E-2,7.733178E-3,1.011622E-2,1.2656936E-2],"split_indices":[21,18,32,16,22,32,47,32,11,11,11,1,3,0,32,32,5,0,32,22,32,0,32,7,31,20,48,7,20,0,0,0,0,0,0,0,0,0,0,0,0,0,0,0,0,0,0,0,0,0,0,0,0],"split_type":[0,0,0,0,0,0,0,0,0,0,0,0,0,0,0,0,0,0,0,0,0,0,0,0,0,0,0,0,0,0,0,0,0,0,0,0,0,0,0,0,0,0,0,0,0,0,0,0,0,0,0,0,0],"sum_hessian":[6.1332285E4,3.0493986E4,3.08383E4,1.1949564E4,1.8544422E4,3.2764807E3,2.7561818E4,1.0883129E4,1.066436E3,7.893488E3,1.0650935E4,4.239309E2,2.8525498E3,1.50668545E4,1.2494965E4,2.3955132E3,8.487616E3,7.3153937E2,3.348967E2,3.0277314E3,4.8657563E3,8.973543E3,1.6773915E3,1.8454034E2,2.3939056E2,2.4599182E3,3.9263165E2,2.4079756E3,1.0086989E4,5.960923E1,2.3359038E3,7.4513495E2,7.742481E3,1.0610557E1,3.2428616E2,3.7323208E1,2.9904082E3,2.550289E2,4.6107275E3,3.6473093E2,1.3126605E3,7.736888E1,1.0717146E2,1.6757683E2,7.181374E1,1.1249777E3,1.3349404E3,3.282631E2,6.436853E1,7.097975E2,1.698178E3,3.796847E3,6.290142E3],"tree_param":{"num_deleted":"0","num_feature":"57","num_nodes":"53","size_leaf_vector":"1"}},{"base_weights":[1.7669605E-1,7.598328E-1,-1.2296784E0,9.7184414E-1,2.2530405E-1,-1.9160926E0,7.4983E-1,1.0036116E0,2.4552098E-1,-3.359379E-2,8.628206E-1,-3.10762E-2,9.388233E-1,-2.6725727E-1,7.9265136E-1,1.115588E0,8.798191E-1,4.0411672E-1,-4.7481704E-1,5.0466573E-1,9.7301537E-1,4.3326372E-1,1.0172201E0,1.8537503E-1,-8.8787526E-1,1.0074613E0,6.7583275E-1,1.28302965E-2,1.3801758E-2,8.665426E-3,1.1769729E-2,6.5115103E-3,5.261351E-4,2.766275E-3,-1.4998166E-2,-7.913622E-3,6.547803E-3,1.1976159E-2,3.466577E-3,9.699471E-3,1.6799389E-3,-1.8299298E-3,1.2350772E-2,-1.1255781E-2,5.818656E-3,-1.6824666E-2,3.6204762E-3,1.9001458E-3,1.2447326E-2,8.456749E-3,-1.2771312E-2],"categories":[],"categories_nodes":[],"categories_segments":[],"categories_sizes":[],"default_left":[0,0,0,0,0,0,0,0,0,0,0,0,0,0,0,0,0,0,0,0,0,0,0,0,0,0,0,0,0,0,0,0,0,0,0,0,0,0,0,0,0,0,0,0,0,0,0,0,0,0,0],"id":21,"left_children":[1,3,5,7,9,11,13,15,17,-1,19,-1,21,23,25,27,29,31,33,35,37,39,41,43,45,47,49,-1,-1,-1,-1,-1,-1,-1,-1,-1,-1,-1,-1,-1,-1,-1,-1,-1,-1,-1,-1,-1,-1,-1,-1],"loss_changes":[5.0038168E4,4.882742E3,2.431896E4,7.069453E2,2.3679988E4,2.557629E4,2.0447949E2,3.941914E2,1.5208594E2,0E0,3.9139453E2,0E0,9.263843E1,5.7718254E1,9.96543E1,5.6171875E0,2.1284082E2,5.2649002E1,1.3671706E2,1.19326355E2,1.2630078E2,3.6983833E1,3.440625E1,4.4899754E1,5.9583115E1,3.438269E1,1.5473706E2,0E0,0E0,0E0,0E0,0E0,0E0,0E0,0E0,0E0,0E0,0E0,0E0,0E0,0E0,0E0,0E0,0E0,0E0,0E0,0E0,0E0,0E0,0E0,0E0],"parents":[2147483647,0,0,1,1,2,2,3,3,4,4,5,5,6,6,7,7,8,8,10,10,12,12,13,13,14,14,15,15,16,16,17,17,18,18,19,19,20,20,21,21,22,22,23,23,24,24,25,25,26,26],"right_children":[2,4,6,8,10,12,14,16,18,-1,20,-1,22,24,26,28,30,32,34,36,38,40,42,44,46,48,50,-1,-1,-1,-1,-1,-1,-1,-1,-1,-1,-1,-1,-1,-1,-1,-1,-1,-1,-1,-1,-1,-1,-1,-1],"split_conditions":[5E0,1E0,1.6E1,2.0328174E2,1E0,1E0,-7.577936E1,4E0,-6.293204E-1,-3.359379E-2,-2.178485E1,-3.10762E-2,-2.5497871E1,3.637705E1,4E0,1E0,1E0,-7.126437E-1,-1.2424999E1,-2.4950495E0,7.4E1,-1.1502799E-3,-2.0106825E1,-1.0738637E2,1E0,6.442478E-1,1.65E2,1.28302965E-2,1.3801758E-2,8.665426E-3,1.1769729E-2,6.5115103E-3,5.261351E-4,2.766275E-3,-1.4998166E-2,-7.913622E-3,6.547803E-3,1.1976159E-2,3.466577E-3,9.699471E-3,1.6799389E-3,-1.8299298E-3,1.2350772E-2,-1.1255781E-2,5.818656E-3,-1.6824666E-2,3.6204762E-3,1.9001458E-3,1.2447326E-2,8.456749E-3,-1.2771312E-2],"split_indices":[22,22,15,3,11,11,4,17,48,0,4,0,4,1,17,20,20,6,6,5,15,37,6,4,31,5,15,0,0,0,0,0,0,0,0,0,0,0,0,0,0,0,0,0,0,0,0,0,0,0,0],"split_type":[0,0,0,0,0,0,0,0,0,0,0,0,0,0,0,0,0,0,0,0,0,0,0,0,0,0,0,0,0,0,0,0,0,0,0,0,0,0,0,0,0,0,0,0,0,0,0,0,0,0,0],"sum_hessian":[6.0989543E4,4.3118074E4,1.7871467E4,3.0863184E4,1.2254891E4,1.3271009E4,4.6004595E3,2.9562846E4,1.3003374E3,2.125644E3,1.0129247E4,1.0739047E4,2.531962E3,1.8143504E2,4.4190244E3,1.5463271E4,1.4099574E4,1.072296E3,2.2804143E2,2.4032646E3,7.7259824E3,3.538582E2,2.1781038E3,1.07919624E2,7.351542E1,1.5183751E3,2.9006492E3,6.7893545E3,8.673917E3,5.5502944E3,8.54928E3,7.661276E2,3.061684E2,1.2245118E2,1.0559025E2,7.391371E1,2.3293508E3,7.445499E3,2.8048337E2,1.4304375E2,2.1081444E2,1.9018847E1,2.159085E3,1.592676E1,9.199287E1,5.1006485E1,2.2508932E1,5.635207E1,1.462023E3,2.8614219E3,3.922744E1],"tree_param":{"num_deleted":"0","num_feature":"57","num_nodes":"51","size_leaf_vector":"1"}},{"base_weights":[1.712104E-1,-8.238103E-1,9.3506384E-1,8.8439554E-1,-3.092789E-2,1.096485E0,7.8816056E-1,1.0780219E0,6.854384E-1,4.365487E-1,1.1024851E0,6.5524626E-1,1.0704479E0,1.29784485E-2,-0E0,7.447239E-1,9.669816E-3,-6.1916816E-3,5.5228806E-1,1.1042384E0,-2.0417187E-1,7.200759E-1,1.00966446E-1,1.0784888E0,-4.4205886E-1,-6.2462375E-3,6.312411E-3,9.335956E-3,3.0373042E-3,3.033999E-3,-1.3665256E-2,-1.3933277E-3,8.065124E-3,1.2774791E-2,1.4276288E-2,5.274333E-3,-1.0668314E-2,4.281265E-3,9.360771E-3,2.6523944E-3,-2.0455169E-2,1.31566E-2,7.877226E-3,-1.5583167E-2,6.3323523E-3],"categories":[],"categories_nodes":[],"categories_segments":[],"categories_sizes":[],"default_left":[0,0,0,0,0,0,0,0,0,0,0,0,0,0,0,0,0,0,0,0,0,0,0,0,0,0,0,0,0,0,0,0,0,0,0,0,0,0,0,0,0,0,0,0,0],"id":22,"left_children":[1,3,5,7,-1,9,11,13,15,17,19,21,23,-1,25,27,29,-1,31,33,35,37,39,41,43,-1,-1,-1,-1,-1,-1,-1,-1,-1,-1,-1,-1,-1,-1,-1,-1,-1,-1,-1,-1],"loss_changes":[4.5940477E4,7.865838E4,7.9670703E2,5.0016113E2,0E0,5.5509766E1,6.6165625E2,2.4541016E1,2.628318E2,2.2159313E1,4.1384766E1,4.3732715E2,7.659326E1,0E0,1.27682495E1,9.4781494E1,1.5449858E2,0E0,1.4752602E1,3.4804688E1,1.888824E1,2.3310449E2,2.8314514E2,3.088623E1,4.0879456E1,0E0,0E0,0E0,0E0,0E0,0E0,0E0,0E0,0E0,0E0,0E0,0E0,0E0,0E0,0E0,0E0,0E0,0E0,0E0,0E0],"parents":[2147483647,0,0,1,1,2,2,3,3,5,5,6,6,7,7,8,8,9,9,10,10,11,11,12,12,14,14,15,15,16,16,18,18,19,19,20,20,21,21,22,22,23,23,24,24],"right_children":[2,4,6,8,-1,10,12,14,16,18,20,22,24,-1,26,28,30,-1,32,34,36,38,40,42,44,-1,-1,-1,-1,-1,-1,-1,-1,-1,-1,-1,-1,-1,-1,-1,-1,-1,-1,-1,-1],"split_conditions":[1E0,1E0,-7.402181E-1,-7.2837096E-1,-3.092789E-2,0E0,1E0,2.2798964E2,7.7439266E-1,-1.8081432E1,3.10688E2,1.9455556E2,3.10688E2,1.29784485E-2,8.663185E0,2.2254399E2,2.0802454E2,-6.1916816E-3,-8.9687276E-1,1E0,-3.1228735E0,-4.35E1,1.1E2,-5.5557024E-1,3.952439E1,-6.2462375E-3,6.312411E-3,9.335956E-3,3.0373042E-3,3.033999E-3,-1.3665256E-2,-1.3933277E-3,8.065124E-3,1.2774791E-2,1.4276288E-2,5.274333E-3,-1.0668314E-2,4.281265E-3,9.360771E-3,2.6523944E-3,-2.0455169E-2,1.31566E-2,7.877226E-3,-1.5583167E-2,6.3323523E-3],"split_indices":[11,22,47,47,0,5,20,3,47,6,3,3,3,0,0,3,3,0,47,20,36,4,15,48,43,0,0,0,0,0,0,0,0,0,0,0,0,0,0,0,0,0,0,0,0],"split_type":[0,0,0,0,0,0,0,0,0,0,0,0,0,0,0,0,0,0,0,0,0,0,0,0,0,0,0,0,0,0,0,0,0,0,0,0,0,0,0,0,0,0,0,0,0],"sum_hessian":[6.0419562E4,2.6237791E4,3.418177E4,1.3293034E4,1.2944756E4,1.6242691E4,1.793908E4,6.704804E3,6.58823E3,1.573248E2,1.6085366E4,1.2228338E4,5.7107427E3,6.68219E3,2.2614552E1,6.053012E3,5.352178E2,1.0677031E1,1.4664777E2,1.6067196E4,1.817015E1,1.0941411E4,1.286926E3,5.685284E3,2.5458786E1,1.0622397E1,1.1992154E1,5.658957E3,3.9405487E2,4.508561E2,8.436168E1,1.980903E1,1.2683874E2,1.109915E4,4.9680454E3,1.007699E1,8.093161E0,1.5671401E3,9.374271E3,1.2175969E3,6.9329094E1,5.4311016E3,2.5418246E2,1.2452914E1,1.3005871E1],"tree_param":{"num_deleted":"0","num_feature":"57","num_nodes":"45","size_leaf_vector":"1"}},{"base_weights":[1.7588624E-1,-4.83518E-1,8.6302376E-1,-1.3312196E0,1.0301056E0,8.9813805E-1,-6.742079E-2,-7.4764115E-1,-1.6516746E0,1.0450913E0,2.7131888E-1,1.0910301E0,7.8541E-1,2.1843463E-1,-1.1053917E0,-1.0335925E0,-2.1042886E-1,-2.0392165E0,-1.4193629E0,7.092615E-1,1.0825067E0,-7.1807986E-1,5.414602E-1,1.0555303E0,1.376519E-2,4.7443062E-1,9.0972877E-1,-2.1117997E-1,5.031604E-1,-0E0,-2.4614184E0,-7.021338E-3,-1.9567844E-2,2.9494567E-3,-8.310676E-3,-2.538277E-2,-1.6994825E-2,-1.4924368E-2,-2.499167E-2,5.1939E-3,1.0501622E-2,1.0072921E-3,1.3015877E-2,3.1481222E-3,-1.8989569E-2,-1.3039694E-3,8.077467E-3,1.080609E-3,1.2868716E-2,6.8024024E-3,-9.832944E-4,9.940077E-3,1.2362579E-2,1.8987461E-3,-1.3679989E-2,-1.4967959E-2,6.8587926E-3,-7.164594E-3,4.680184E-3,-3.2722563E-2,-3.5102216E-3],"categories":[],"categories_nodes":[],"categories_segments":[],"categories_sizes":[],"default_left":[0,0,0,0,0,0,0,0,0,0,0,0,0,0,0,0,0,0,0,0,0,0,0,0,0,0,0,0,0,0,0,0,0,0,0,0,0,0,0,0,0,0,0,0,0,0,0,0,0,0,0,0,0,0,0,0,0,0,0,0,0],"id":23,"left_children":[1,3,5,7,9,11,13,15,17,19,21,23,25,27,29,31,33,35,37,39,41,43,45,47,-1,49,51,53,55,57,59,-1,-1,-1,-1,-1,-1,-1,-1,-1,-1,-1,-1,-1,-1,-1,-1,-1,-1,-1,-1,-1,-1,-1,-1,-1,-1,-1,-1,-1,-1],"loss_changes":[2.7416133E4,3.9634965E4,9.704707E2,3.6828633E3,1.20072266E2,6.068867E2,3.2709125E2,1.0766797E3,1.107875E3,1.2377344E2,6.674342E1,1.9560547E0,6.907383E2,1.07119675E2,3.571727E2,1.2132632E3,5.448552E2,1.8214453E2,8.973613E2,4.4639343E1,1.7501953E1,5.3103916E1,1.8433731E1,1.0394629E2,0E0,2.6849585E2,1.1247656E2,1.2375236E2,6.9934296E1,3.61097E1,4.5983887E1,0E0,0E0,0E0,0E0,0E0,0E0,0E0,0E0,0E0,0E0,0E0,0E0,0E0,0E0,0E0,0E0,0E0,0E0,0E0,0E0,0E0,0E0,0E0,0E0,0E0,0E0,0E0,0E0,0E0,0E0],"parents":[2147483647,0,0,1,1,2,2,3,3,4,4,5,5,6,6,7,7,8,8,9,9,10,10,11,11,12,12,13,13,14,14,15,15,16,16,17,17,18,18,19,19,20,20,21,21,22,22,23,23,25,25,26,26,27,27,28,28,29,29,30,30],"right_children":[2,4,6,8,10,12,14,16,18,20,22,24,26,28,30,32,34,36,38,40,42,44,46,48,-1,50,52,54,56,58,60,-1,-1,-1,-1,-1,-1,-1,-1,-1,-1,-1,-1,-1,-1,-1,-1,-1,-1,-1,-1,-1,-1,-1,-1,-1,-1,-1,-1,-1,-1],"split_conditions":[1.6E1,1.5401539E-2,2.3434984E2,-8.9493436E-1,2.1278261E2,-7.402181E-1,-6.05294E-1,-3.4902508E0,1.6836978E-4,1.7087508E-4,9.285951E-5,1E0,1.6836978E-4,2.3200668E1,-1.2855713E1,4.7659574E0,3.7121212E-1,-4.347826E-1,7.452471E-1,1E0,-2.4950495E0,-1.149741E1,7.737478E-1,6.442478E-1,1.376519E-2,-6.39439E-1,1E0,6.0923725E1,2.2442211E1,8.232394E0,-2.1399178E-1,-7.021338E-3,-1.9567844E-2,2.9494567E-3,-8.310676E-3,-2.538277E-2,-1.6994825E-2,-1.4924368E-2,-2.499167E-2,5.1939E-3,1.0501622E-2,1.0072921E-3,1.3015877E-2,3.1481222E-3,-1.8989569E-2,-1.3039694E-3,8.077467E-3,1.080609E-3,1.2868716E-2,6.8024024E-3,-9.832944E-4,9.940077E-3,1.2362579E-2,1.8987461E-3,-1.3679989E-2,-1.4967959E-2,6.8587926E-3,-7.164594E-3,4.680184E-3,-3.2722563E-2,-3.5102216E-3],"split_indices":[15,21,3,47,3,47,48,8,32,32,32,20,32,9,6,9,6,4,6,20,5,6,7,5,0,48,20,1,5,7,6,0,0,0,0,0,0,0,0,0,0,0,0,0,0,0,0,0,0,0,0,0,0,0,0,0,0,0,0,0,0],"split_type":[0,0,0,0,0,0,0,0,0,0,0,0,0,0,0,0,0,0,0,0,0,0,0,0,0,0,0,0,0,0,0,0,0,0,0,0,0,0,0,0,0,0,0,0,0,0,0,0,0,0,0,0,0,0,0,0,0,0,0,0,0],"sum_hessian":[6.0483004E4,3.0864684E4,2.9618322E4,1.978622E4,1.1078462E4,2.854367E4,1.0746512E3,7.030064E3,1.2756157E4,1.0856881E4,2.2158093E2,1.0483381E4,1.806029E4,8.4851855E2,2.2613272E2,4.578288E3,2.451776E3,4.742607E3,8.0135503E3,1.1176974E3,9.739184E3,4.1668312E1,1.7991261E2,6.586643E3,3.8967383E3,5.1790215E3,1.2881268E4,3.3664294E2,5.118756E2,1.3115306E2,9.497966E1,2.6299314E3,1.9483569E3,1.2606294E3,1.1911465E3,4.1983784E3,5.442285E2,6.365258E3,1.6482928E3,4.3991965E2,6.777778E2,2.3953215E1,9.71523E3,2.2355677E1,1.9312635E1,2.8094166E1,1.5181845E2,1.1640733E2,6.470236E3,4.4440503E3,7.349713E2,7.7542954E3,5.126972E3,2.4643399E2,9.020896E1,1.0373369E1,5.0150223E2,4.9212093E1,8.194097E1,8.105024E1,1.39294195E1],"tree_param":{"num_deleted":"0","num_feature":"57","num_nodes":"61","size_leaf_vector":"1"}},{"base_weights":[1.8134984E-1,-8.1279415E-1,9.347773E-1,-1.603675E0,8.29955E-1,9.916458E-1,4.9412796E-1,-2.4921665E0,9.584859E-1,2.9255143E-1,9.5386946E-1,6.958227E-1,1.054561E0,4.7771655E-2,7.145772E-1,-2.4972637E0,7.6544825E-3,5.315726E-1,1.0199981E0,5.8543706E-1,-9.430022E-2,1.3026253E-2,8.287502E-1,7.5987554E-1,-3.9720625E-2,9.968015E-1,1.4066145E-2,1.3820481E-1,-8.1668407E-1,7.435439E-1,-1.3791555E0,-3.0027958E-2,7.2805975E-3,7.6025515E-3,-9.223244E-4,1.2415977E-2,5.9644748E-3,2.1257747E-3,8.374128E-3,2.0767555E-3,-1.2739348E-2,1.0008714E-2,-3.2213724E-3,7.4982597E-3,1.2454106E-2,2.0957005E-3,-1.5215282E-2,9.689886E-3,1.2531822E-2,-7.18186E-3,2.8884914E-3,-1.077049E-3,-3.0884443E-2,9.432699E-3,1.6085928E-3,-1.9584028E-2,-6.81055E-4],"categories":[],"categories_nodes":[],"categories_segments":[],"categories_sizes":[],"default_left":[0,0,0,0,0,0,0,0,0,0,0,0,0,0,0,0,0,0,0,0,0,0,0,0,0,0,0,0,0,0,0,0,0,0,0,0,0,0,0,0,0,0,0,0,0,0,0,0,0,0,0,0,0,0,0,0,0],"id":24,"left_children":[1,3,5,7,9,11,13,15,17,19,21,23,25,27,29,31,-1,33,35,37,39,-1,41,43,45,47,-1,49,51,53,55,-1,-1,-1,-1,-1,-1,-1,-1,-1,-1,-1,-1,-1,-1,-1,-1,-1,-1,-1,-1,-1,-1,-1,-1,-1,-1],"loss_changes":[4.5463684E4,3.40161E4,8.5641406E2,4.0254848E4,5.6094336E2,5.56584E2,3.8917676E2,2.3221094E2,1.1007617E2,1.8464546E2,9.9168945E1,2.5628784E2,1.5267773E2,1.039655E2,1.7216663E2,2.2809375E2,0E0,3.911902E1,2.1188477E1,3.9164642E1,1.8587845E2,0E0,2.4791992E1,1.7549487E2,1.2110991E2,1.3889062E2,0E0,9.2862595E1,1.5231361E2,6.502649E1,8.723961E0,0E0,0E0,0E0,0E0,0E0,0E0,0E0,0E0,0E0,0E0,0E0,0E0,0E0,0E0,0E0,0E0,0E0,0E0,0E0,0E0,0E0,0E0,0E0,0E0,0E0,0E0],"parents":[2147483647,0,0,1,1,2,2,3,3,4,4,5,5,6,6,7,7,8,8,9,9,10,10,11,11,12,12,13,13,14,14,15,15,17,17,18,18,19,19,20,20,22,22,23,23,24,24,25,25,27,27,28,28,29,29,30,30],"right_children":[2,4,6,8,10,12,14,16,18,20,22,24,26,28,30,32,-1,34,36,38,40,-1,42,44,46,48,-1,50,52,54,56,-1,-1,-1,-1,-1,-1,-1,-1,-1,-1,-1,-1,-1,-1,-1,-1,-1,-1,-1,-1,-1,-1,-1,-1,-1,-1],"split_conditions":[1E0,1.6E1,1.412362E2,1.5401539E-2,1.5346346E-4,1.8758512E-4,1.18963544E-4,1E0,1.6836978E-4,4.3E1,4E0,7.8E1,1E0,1.09E2,1.51E2,1E0,7.6544825E-3,2.5306122E0,3.7708813E1,-3.7486843E1,2.0328174E2,1.3026253E-2,2.04E2,1E0,-3.2574975E0,-1.8239185E1,1.4066145E-2,-8.1871346E1,-3.2433334E1,1E0,1E0,-3.0027958E-2,7.2805975E-3,7.6025515E-3,-9.223244E-4,1.2415977E-2,5.9644748E-3,2.1257747E-3,8.374128E-3,2.0767555E-3,-1.2739348E-2,1.0008714E-2,-3.2213724E-3,7.4982597E-3,1.2454106E-2,2.0957005E-3,-1.5215282E-2,9.689886E-3,1.2531822E-2,-7.18186E-3,2.8884914E-3,-1.077049E-3,-3.0884443E-2,9.432699E-3,1.6085928E-3,-1.9584028E-2,-6.81055E-4],"split_indices":[11,15,3,21,32,32,32,19,32,15,17,15,20,15,15,20,0,2,9,8,3,0,15,20,0,4,0,4,8,42,20,0,0,0,0,0,0,0,0,0,0,0,0,0,0,0,0,0,0,0,0,0,0,0,0,0,0],"split_type":[0,0,0,0,0,0,0,0,0,0,0,0,0,0,0,0,0,0,0,0,0,0,0,0,0,0,0,0,0,0,0,0,0,0,0,0,0,0,0,0,0,0,0,0,0,0,0,0,0,0,0,0,0,0,0,0,0],"sum_hessian":[6.0673434E4,2.615648E4,3.4516953E4,1.7657164E4,8.499315E3,3.0554201E4,3.9627512E3,1.311153E4,4.545634E3,1.6031405E3,6.8961753E3,5.389523E3,2.5164678E4,1.3179316E3,2.6448196E3,1.3093273E4,1.8256792E1,5.911422E2,3.9544915E3,9.118149E2,6.913256E2,3.3076938E3,3.5884812E3,4.9599233E3,4.295995E2,1.6964488E4,8.20019E3,1.2043376E3,1.1359408E2,2.617303E3,2.7516586E1,1.3074904E4,1.8369959E1,5.086794E2,8.2462814E1,3.8314702E3,1.2302121E2,2.0735507E2,7.044598E2,5.4772186E2,1.4360376E2,3.5758784E3,1.2602803E1,3.3694194E3,1.5905042E3,3.731403E2,5.6459194E1,3.4555046E3,1.3508983E4,1.3762715E2,1.0667104E3,9.007764E1,2.3516443E1,2.4403242E3,1.7697884E2,1.9471697E1,8.04489E0],"tree_param":{"num_deleted":"0","num_feature":"57","num_nodes":"57","size_leaf_vector":"1"}},{"base_weights":[1.7473789E-1,7.4262166E-1,-1.1622041E0,9.5344764E-1,2.3051727E-1,-6.8180746E-1,-1.6197917E0,5.161785E-1,1.0352795E0,-3.1365193E-2,8.543183E-1,-2.961501E-2,8.1327724E-1,-2.8713318E-2,7.657673E-1,6.544203E-1,2.274277E-2,1.1099162E0,9.388233E-1,1.0384483E0,6.654742E-1,8.496729E-1,-2.8036702E-1,8.7995106E-1,1.2989712E-1,5.424047E-3,9.944433E-3,-9.46434E-3,3.4551097E-3,1.27614E-2,1.3722197E-2,9.692569E-3,1.2243676E-2,-4.5599984E-3,1.2683894E-2,3.3200842E-3,1.014509E-2,2.5121255E-3,1.112425E-2,-0E0,-2.3082577E-2,3.7584018E-3,1.11627765E-2,-8.848261E-3,6.5658726E-3],"categories":[],"categories_nodes":[],"categories_segments":[],"categories_sizes":[],"default_left":[0,0,0,0,0,0,0,0,0,0,0,0,0,0,0,0,0,0,0,0,0,0,0,0,0,0,0,0,0,0,0,0,0,0,0,0,0,0,0,0,0,0,0,0,0],"id":25,"left_children":[1,3,5,7,9,11,13,15,17,-1,19,-1,21,-1,23,25,27,29,31,33,35,37,39,41,43,-1,-1,-1,-1,-1,-1,-1,-1,-1,-1,-1,-1,-1,-1,-1,-1,-1,-1,-1,-1],"loss_changes":[4.5713434E4,4.557541E3,3.9280547E3,1.061418E3,2.1922365E4,2.3472816E4,1.6957932E4,3.221963E2,1.647832E2,0E0,3.4061426E2,0E0,1.9456494E2,0E0,1.6038562E2,1.2359827E2,2.2856927E2,3.0488281E0,1.048291E2,1.4040234E2,3.4762866E2,2.2512085E2,7.581453E1,4.837549E1,1.3478377E2,0E0,0E0,0E0,0E0,0E0,0E0,0E0,0E0,0E0,0E0,0E0,0E0,0E0,0E0,0E0,0E0,0E0,0E0,0E0,0E0],"parents":[2147483647,0,0,1,1,2,2,3,3,4,4,5,5,6,6,7,7,8,8,10,10,12,12,14,14,15,15,16,16,17,17,18,18,19,19,20,20,21,21,22,22,23,23,24,24],"right_children":[2,4,6,8,10,12,14,16,18,-1,20,-1,22,-1,24,26,28,30,32,34,36,38,40,42,44,-1,-1,-1,-1,-1,-1,-1,-1,-1,-1,-1,-1,-1,-1,-1,-1,-1,-1,-1,-1],"split_conditions":[5E0,1E0,2.1E1,1.5747489E-4,1E0,1E0,1E0,5.7357645E-1,-7.1325046E-1,-3.1365193E-2,-7.2837096E-1,-2.961501E-2,8.362861E-1,-2.8713318E-2,5.591929E-1,1E0,8.4651445E-5,1E0,1E0,2.937063E-1,1.7339997E-4,1.3657709E-4,-2.945185E1,1.50358E0,1.18963544E-4,5.424047E-3,9.944433E-3,-9.46434E-3,3.4551097E-3,1.27614E-2,1.3722197E-2,9.692569E-3,1.2243676E-2,-4.5599984E-3,1.2683894E-2,3.3200842E-3,1.014509E-2,2.5121255E-3,1.112425E-2,-0E0,-2.3082577E-2,3.7584018E-3,1.11627765E-2,-8.848261E-3,6.5658726E-3],"split_indices":[22,22,22,32,11,11,11,47,47,0,47,0,47,0,47,20,32,20,20,5,32,32,2,5,32,0,0,0,0,0,0,0,0,0,0,0,0,0,0,0,0,0,0,0,0],"split_type":[0,0,0,0,0,0,0,0,0,0,0,0,0,0,0,0,0,0,0,0,0,0,0,0,0,0,0,0,0,0,0,0,0,0,0,0,0,0,0,0,0,0,0,0,0],"sum_hessian":[6.0185902E4,4.2247535E4,1.7938367E4,2.9916924E4,1.2330612E4,8.767788E3,9.17058E3,4.7338267E3,2.5183098E4,2.2104333E3,1.0120179E4,3.992117E3,4.7756714E3,6.9268857E3,2.2436938E3,3.6916104E3,1.0422163E3,1.4114579E4,1.1068518E4,5.091349E3,5.02883E3,4.62622E3,1.4945146E2,1.8955557E3,3.4813834E2,1.7332107E3,1.9583998E3,2.4901611E2,7.932002E2,6.1126333E3,8.001946E3,4.301977E3,6.766541E3,6.1287937E1,5.030061E3,1.6042488E3,3.4245815E3,5.061728E2,4.1200474E3,1.375313E2,1.19201765E1,1.6477438E2,1.7307812E3,1.0854143E2,2.395969E2],"tree_param":{"num_deleted":"0","num_feature":"57","num_nodes":"45","size_leaf_vector":"1"}},{"base_weights":[1.7336653E-1,-7.974504E-1,9.23608E-1,-2.4004722E0,8.61613E-1,5.0801426E-1,1.0227458E0,-2.4084225E0,8.725354E-3,3.7889132E-1,9.7717506E-1,-1.3661285E-1,5.9475136E-1,9.594361E-1,1.1566662E0,8.714321E-3,-2.8978948E-2,-5.6057644E-1,4.9413016E-1,8.7181944E-1,1.0601304E0,-1.688471E0,-1.0412526E-2,4.6249038E-1,9.269544E-1,4.1310856E-1,9.864538E-1,1.3890322E-2,2.4277482E-3,-2.0417704E-3,-1.3406596E-2,1.0245849E-2,4.8201606E-3,1.2116256E-2,9.6399365E-3,1.277894E-2,-3.1570636E-4,-2.7275883E-2,2.2074778E-3,2.4119716E-3,-1.1312548E-2,-1.1796402E-2,6.0322946E-3,1.1214475E-2,1.728645E-3,5.6942813E-3,-9.642867E-3,1.2857156E-2,1.0300079E-2],"categories":[],"categories_nodes":[],"categories_segments":[],"categories_sizes":[],"default_left":[0,0,0,0,0,0,0,0,0,0,0,0,0,0,0,0,0,0,0,0,0,0,0,0,0,0,0,0,0,0,0,0,0,0,0,0,0,0,0,0,0,0,0,0,0,0,0,0,0],"id":26,"left_children":[1,3,5,7,9,11,13,15,-1,17,19,21,23,25,27,-1,-1,29,31,33,35,37,39,41,43,45,47,-1,-1,-1,-1,-1,-1,-1,-1,-1,-1,-1,-1,-1,-1,-1,-1,-1,-1,-1,-1,-1,-1],"loss_changes":[4.353156E4,6.931795E4,1.3797324E3,3.5395312E2,7.0751074E2,3.664995E2,2.1310352E2,2.934375E2,0E0,2.735794E2,7.529004E1,1.4922643E2,2.4483093E2,2.661543E2,1.5859375E0,0E0,0E0,5.525878E1,6.762518E1,3.0331787E1,3.2078125E1,7.204414E1,1.4861705E2,2.4570898E2,5.8586426E0,7.104672E1,1.7742773E2,0E0,0E0,0E0,0E0,0E0,0E0,0E0,0E0,0E0,0E0,0E0,0E0,0E0,0E0,0E0,0E0,0E0,0E0,0E0,0E0,0E0,0E0],"parents":[2147483647,0,0,1,1,2,2,3,3,4,4,5,5,6,6,7,7,9,9,10,10,11,11,12,12,13,13,14,14,17,17,18,18,19,19,20,20,21,21,22,22,23,23,24,24,25,25,26,26],"right_children":[2,4,6,8,10,12,14,16,-1,18,20,22,24,26,28,-1,-1,30,32,34,36,38,40,42,44,46,48,-1,-1,-1,-1,-1,-1,-1,-1,-1,-1,-1,-1,-1,-1,-1,-1,-1,-1,-1,-1,-1,-1],"split_conditions":[1E0,1.5401539E-2,1.6958584E-4,1E0,1.6700925E-4,8.678301E-5,1E0,1E0,8.725354E-3,8.4651445E-5,3.374816E-4,-1.7004049E0,1E0,9.348915E-1,1.1890773E1,8.714321E-3,-2.8978948E-2,4E-1,4E0,4E0,6.1962963E1,2.0664206E0,-4.422887E-1,-1.09375E0,-1.90809E-1,-2.0364176E-1,4E0,1.3890322E-2,2.4277482E-3,-2.0417704E-3,-1.3406596E-2,1.0245849E-2,4.8201606E-3,1.2116256E-2,9.6399365E-3,1.277894E-2,-3.1570636E-4,-2.7275883E-2,2.2074778E-3,2.4119716E-3,-1.1312548E-2,-1.1796402E-2,6.0322946E-3,1.1214475E-2,1.728645E-3,5.6942813E-3,-9.642867E-3,1.2857156E-2,1.0300079E-2],"split_indices":[11,21,32,20,32,32,20,22,0,32,32,5,20,5,0,0,0,31,17,17,5,35,48,5,48,48,17,0,0,0,0,0,0,0,0,0,0,0,0,0,0,0,0,0,0,0,0,0,0],"split_type":[0,0,0,0,0,0,0,0,0,0,0,0,0,0,0,0,0,0,0,0,0,0,0,0,0,0,0,0,0,0,0,0,0,0,0,0,0,0,0,0,0,0,0,0,0,0,0,0,0],"sum_hessian":[5.9743113E4,2.6041645E4,3.3701465E4,1.3242402E4,1.2799242E4,6.508981E3,2.7192486E4,1.3212216E4,3.0186384E1,2.4855098E3,1.0313732E4,7.683884E2,5.740593E3,1.8540512E4,8.651974E3,2.3911531E1,1.3188305E4,2.6460742E2,2.2209023E3,4.614903E3,5.69883E3,4.54237E1,7.229647E2,4.130737E3,1.609856E3,8.863802E2,1.765413E4,8.639532E3,1.2441902E1,1.6684373E2,9.7763695E1,4.294818E2,1.7914204E3,1.4672745E3,3.1476282E3,5.67593E3,2.2899826E1,3.3474808E1,1.194889E1,5.952519E2,1.2771285E2,1.0280848E2,4.0279282E3,1.5895764E3,2.0279583E1,8.523209E2,3.4059303E1,1.0551514E4,7.102618E3],"tree_param":{"num_deleted":"0","num_feature":"57","num_nodes":"49","size_leaf_vector":"1"}},{"base_weights":[1.7360833E-1,-5.66313E-1,9.4226414E-1,-1.2696557E0,7.5438935E-1,9.742712E-1,1.7403527E-1,-2.36231E0,9.469103E-1,8.342361E-1,3.5100847E-1,1.0927212E0,8.450693E-1,4.7108963E-1,-4.180988E-1,1.026467E-2,-2.8498761E-2,1.9360806E-1,9.895693E-1,2.5279605E-1,8.874812E-1,-4.1454858E-1,6.161927E-1,1.0436295E0,1.1292105E0,5.694682E-1,9.497564E-1,-4.2793494E-2,6.304433E-1,-1.0644596E0,9.190797E-2,-1.1485954E-2,4.919598E-3,8.013929E-3,1.2423437E-2,-1.4268867E-2,4.519829E-3,1.13985725E-2,7.214658E-3,-0E0,-9.849815E-3,8.207788E-3,-5.7508755E-3,1.1526405E-2,1.3027627E-2,1.2682445E-2,1.4086791E-2,7.644013E-3,-3.8719736E-4,9.653638E-3,1.2402228E-2,-1.1689399E-2,1.758522E-3,8.4962165E-3,3.7894088E-3,-4.073474E-3,-2.4083467E-2,5.754872E-3,-4.0126834E-3],"categories":[],"categories_nodes":[],"categories_segments":[],"categories_sizes":[],"default_left":[0,0,0,0,0,0,0,0,0,0,0,0,0,0,0,0,0,0,0,0,0,0,0,0,0,0,0,0,0,0,0,0,0,0,0,0,0,0,0,0,0,0,0,0,0,0,0,0,0,0,0,0,0,0,0,0,0,0,0],"id":27,"left_children":[1,3,5,7,9,11,13,15,17,19,21,23,25,27,29,-1,-1,31,33,35,37,39,41,43,45,47,49,51,53,55,57,-1,-1,-1,-1,-1,-1,-1,-1,-1,-1,-1,-1,-1,-1,-1,-1,-1,-1,-1,-1,-1,-1,-1,-1,-1,-1,-1,-1],"loss_changes":[3.396774E4,2.8279672E4,7.159414E2,4.8133293E4,3.3491504E2,4.1533008E2,2.1156345E2,5.663906E2,2.0633154E2,2.6807617E2,3.6345547E2,7.701172E0,3.802256E2,6.6969604E1,1.3538509E2,0E0,0E0,9.556973E1,7.962109E1,1.394451E2,1.3422998E2,7.862234E1,1.02645294E2,5.786133E0,7.2128906E0,1.5400574E2,1.0520508E2,3.8195328E1,1.0256821E1,1.098851E2,4.0817905E1,0E0,0E0,0E0,0E0,0E0,0E0,0E0,0E0,0E0,0E0,0E0,0E0,0E0,0E0,0E0,0E0,0E0,0E0,0E0,0E0,0E0,0E0,0E0,0E0,0E0,0E0,0E0,0E0],"parents":[2147483647,0,0,1,1,2,2,3,3,4,4,5,5,6,6,7,7,8,8,9,9,10,10,11,11,12,12,13,13,14,14,17,17,18,18,19,19,20,20,21,21,22,22,23,23,24,24,25,25,26,26,27,27,28,28,29,29,30,30],"right_children":[2,4,6,8,10,12,14,16,18,20,22,24,26,28,30,-1,-1,32,34,36,38,40,42,44,46,48,50,52,54,56,58,-1,-1,-1,-1,-1,-1,-1,-1,-1,-1,-1,-1,-1,-1,-1,-1,-1,-1,-1,-1,-1,-1,-1,-1,-1,-1,-1,-1],"split_conditions":[1.5401539E-2,1.6E1,2.0802454E2,1E0,6.2E1,4E0,4.3E1,1E0,1.2703321E-4,1.0410256E0,1.3116118E-4,1E0,1.7087508E-4,9.077739E-5,1.08561995E-4,1.026467E-2,-2.8498761E-2,-4.468182E1,-2.4663212E1,-9.824504E-1,1.1748334E2,-1.16257305E1,1.8E2,-4.7419357E0,1E0,-6.39439E-1,1E0,8.197295E0,5.1225433E1,4E-1,5E0,-1.1485954E-2,4.919598E-3,8.013929E-3,1.2423437E-2,-1.4268867E-2,4.519829E-3,1.13985725E-2,7.214658E-3,-0E0,-9.849815E-3,8.207788E-3,-5.7508755E-3,1.1526405E-2,1.3027627E-2,1.2682445E-2,1.4086791E-2,7.644013E-3,-3.8719736E-4,9.653638E-3,1.2402228E-2,-1.1689399E-2,1.758522E-3,8.4962165E-3,3.7894088E-3,-4.073474E-3,-2.4083467E-2,5.754872E-3,-4.0126834E-3],"split_indices":[21,15,3,11,15,17,15,22,32,5,32,20,32,32,32,0,0,8,8,48,3,6,15,8,11,48,20,10,2,31,12,0,0,0,0,0,0,0,0,0,0,0,0,0,0,0,0,0,0,0,0,0,0,0,0,0,0,0,0],"split_type":[0,0,0,0,0,0,0,0,0,0,0,0,0,0,0,0,0,0,0,0,0,0,0,0,0,0,0,0,0,0,0,0,0,0,0,0,0,0,0,0,0,0,0,0,0,0,0,0,0,0,0,0,0,0,0,0,0,0,0],"sum_hessian":[5.9699453E4,3.041857E4,2.9280883E4,1.9849604E4,1.0568968E4,2.8104148E4,1.176736E3,1.3295642E4,6.5539614E3,8.807752E3,1.7612153E3,1.4607385E4,1.3496764E4,7.875023E2,3.892336E2,4.8056618E1,1.3247585E4,3.5732947E2,6.1966323E3,7.478391E2,8.059913E3,4.4943784E2,1.3117775E3,6.4029917E3,8.204393E3,3.7419692E3,9.754794E3,1.8550694E2,6.019954E2,1.6764423E2,2.2158939E2,4.8584717E1,3.0874475E2,7.9969507E2,5.396937E3,4.97163E1,6.981228E2,6.5888496E3,1.4710632E3,2.2704446E2,2.2239337E2,1.2412943E3,7.0483116E1,2.2621145E3,4.140877E3,3.2629832E3,4.9414097E3,3.3667393E3,3.752301E2,3.6225664E3,6.1322275E3,2.4722904E1,1.6078404E2,4.6580133E2,1.3619406E2,1.0517991E2,6.246432E1,1.17725105E2,1.0386428E2],"tree_param":{"num_deleted":"0","num_feature":"57","num_nodes":"59","size_leaf_vector":"1"}},{"base_weights":[1.7857368E-1,-4.5132956E-1,8.44925E-1,-1.0889136E0,-2.9743293E-2,3.682439E-1,9.5858634E-1,8.0942434E-1,-1.6785436E0,8.407453E-1,-1.2689487E0,5.044354E-1,-2.8053167E-1,8.490755E-1,1.044067E0,6.669498E-1,9.1657513E-1,-1.7526337E0,-1.0497026E0,6.162562E-1,1.133392E0,-1.4642009E0,-8.4211975E-1,-3.095851E-1,5.4332656E-1,-1.02521084E-1,-1.300409E0,7.7381307E-1,9.743483E-1,1.054915E0,1.3043238E-1,-6.4701578E-3,8.4962845E-3,1.1093589E-2,1.6989525E-3,-1.0716907E-2,-2.3082651E-2,5.672277E-3,-2.023568E-2,2.1658514E-3,1.2249083E-2,1.3617016E-2,1.3283E-3,-9.830558E-3,-2.1833898E-2,-4.2012352E-3,-1.8531866E-2,-1.6637215E-2,6.8910215E-3,8.347057E-3,4.4724764E-3,2.6962403E-3,-5.7228454E-3,-4.883751E-4,-3.584962E-2,7.840753E-3,1.1218656E-2,1.1829472E-2,7.2020115E-3,1.2165811E-2,1.3385343E-2,4.9174274E-3,-1.7047798E-2],"categories":[],"categories_nodes":[],"categories_segments":[],"categories_sizes":[],"default_left":[0,0,0,0,0,0,0,0,0,0,0,0,0,0,0,0,0,0,0,0,0,0,0,0,0,0,0,0,0,0,0,0,0,0,0,0,0,0,0,0,0,0,0,0,0,0,0,0,0,0,0,0,0,0,0,0,0,0,0,0,0,0,0],"id":28,"left_children":[1,3,5,7,9,11,13,15,17,19,21,23,25,27,29,31,33,35,37,39,41,43,45,47,49,51,53,55,57,59,61,-1,-1,-1,-1,-1,-1,-1,-1,-1,-1,-1,-1,-1,-1,-1,-1,-1,-1,-1,-1,-1,-1,-1,-1,-1,-1,-1,-1,-1,-1,-1,-1],"loss_changes":[2.5003488E4,8.228444E3,1.5614512E3,1.365843E4,1.9913303E4,4.9660675E2,2.0427344E2,3.369861E1,4.0575586E2,7.0040186E2,6.154238E2,1.4912769E2,1.7280225E2,8.472168E1,1.2540039E2,6.90686E1,6.157715E0,1.1934023E3,9.940586E2,1.0822087E3,2.5195312E0,1.1700869E3,8.2663135E2,2.1724467E2,1.09774414E2,1.0539365E2,2.9501605E2,1.15815674E2,6.062744E0,1.4264648E1,7.8228096E1,0E0,0E0,0E0,0E0,0E0,0E0,0E0,0E0,0E0,0E0,0E0,0E0,0E0,0E0,0E0,0E0,0E0,0E0,0E0,0E0,0E0,0E0,0E0,0E0,0E0,0E0,0E0,0E0,0E0,0E0,0E0,0E0],"parents":[2147483647,0,0,1,1,2,2,3,3,4,4,5,5,6,6,7,7,8,8,9,9,10,10,11,11,12,12,13,13,14,14,15,15,16,16,17,17,18,18,19,19,20,20,21,21,22,22,23,23,24,24,25,25,26,26,27,27,28,28,29,29,30,30],"right_children":[2,4,6,8,10,12,14,16,18,20,22,24,26,28,30,32,34,36,38,40,42,44,46,48,50,52,54,56,58,60,62,-1,-1,-1,-1,-1,-1,-1,-1,-1,-1,-1,-1,-1,-1,-1,-1,-1,-1,-1,-1,-1,-1,-1,-1,-1,-1,-1,-1,-1,-1,-1,-1],"split_conditions":[1.6E1,2.628368E-4,1.5346346E-4,1E0,3E0,7.6E1,2.799345E-4,1E0,-4.347826E-1,1E0,-4.7419357E0,-1.09375E0,-1.2989691E0,1E0,1.81E2,-6.3019833E1,9.594118E1,4E0,4.5751634E-1,1E0,8.9786226E-1,1.1E1,1.1E1,1E0,2.5505747E1,-1.16257305E1,-1.2133334E1,-7.1687713E0,4.5751634E-1,1E0,1.1756098E1,-6.4701578E-3,8.4962845E-3,1.1093589E-2,1.6989525E-3,-1.0716907E-2,-2.3082651E-2,5.672277E-3,-2.023568E-2,2.1658514E-3,1.2249083E-2,1.3617016E-2,1.3283E-3,-9.830558E-3,-2.1833898E-2,-4.2012352E-3,-1.8531866E-2,-1.6637215E-2,6.8910215E-3,8.347057E-3,4.4724764E-3,2.6962403E-3,-5.7228454E-3,-4.883751E-4,-3.584962E-2,7.840753E-3,1.1218656E-2,1.1829472E-2,7.2020115E-3,1.2165811E-2,1.3385343E-2,4.9174274E-3,-1.7047798E-2],"split_indices":[15,32,32,22,22,15,32,20,4,20,8,5,2,20,15,43,1,22,4,19,4,22,22,20,1,6,6,4,4,20,7,0,0,0,0,0,0,0,0,0,0,0,0,0,0,0,0,0,0,0,0,0,0,0,0,0,0,0,0,0,0,0,0],"split_type":[0,0,0,0,0,0,0,0,0,0,0,0,0,0,0,0,0,0,0,0,0,0,0,0,0,0,0,0,0,0,0,0,0,0,0,0,0,0,0,0,0,0,0,0,0,0,0,0,0,0,0,0,0,0,0,0,0,0,0,0,0,0,0],"sum_hessian":[5.9544656E4,3.0609914E4,2.8934742E4,1.2174352E4,1.8435562E4,5.5841226E3,2.335062E4,2.883367E3,9.290984E3,1.0830115E4,7.6054463E3,4.6200337E3,9.640891E2,1.0304249E4,1.3046371E4,1.2828995E3,1.6004675E3,8.289668E3,1.00131573E3,6.1537114E3,4.676404E3,5.195104E3,2.4103425E3,2.0451102E2,4.4155225E3,8.337352E2,1.3035385E2,6.500758E3,3.803491E3,1.2889287E4,1.5708359E2,3.5853317E1,1.2470463E3,1.579491E3,2.097653E1,1.3892986E3,6.9003696E3,2.952338E2,7.06082E2,2.9730957E3,3.180616E3,4.6669307E3,9.473374E0,1.8613479E3,3.3337559E3,1.4295331E3,9.8080945E2,9.013335E1,1.1437768E2,2.307587E3,2.1079358E3,4.4460754E2,3.8912772E2,8.234363E1,4.8010223E1,3.7616812E3,2.7390767E3,3.6664263E3,1.3706471E2,7.8235054E3,5.0657817E3,1.4168494E2,1.5398653E1],"tree_param":{"num_deleted":"0","num_feature":"57","num_nodes":"63","size_leaf_vector":"1"}},{"base_weights":[1.6104378E-1,-4.6439928E-1,8.334099E-1,-8.548002E-1,1.0780581E0,3.3828974E-1,9.4648856E-1,3.0209443E-1,-1.6315482E0,1.0970045E0,7.707901E-1,4.8380843E-1,-4.65036E-1,1.0712879E0,8.530704E-1,9.079938E-1,-1.9297598E-1,-1.0225027E0,